27685 15
. 0.10607 0.072064 0.19115 0.53422 -0.3756 -0.36489 0.066079 -0.00815 0.019247 -0.10063 0.038098 -0.062933 0.28859 -0.34402 -0.12724 
</s> -0.083601 0.093957 0.077634 0.29812 0.037024 -0.36403 0.46759 -0.077157 0.21553 0.11642 -0.24919 -0.035483 0.15675 -0.27049 -0.16889 
- -1.279 0.61152 -0.23744 0.1899 0.54231 -0.87582 0.92768 -0.076218 0.17462 0.47104 0.43365 -0.25061 0.16157 -0.56634 -0.40324 
^ 0.33822 -0.21655 -0.24229 0.42472 0.024907 -0.2269 0.31547 -0.47046 -0.056086 -0.35122 -0.40879 0.064463 -0.37209 -0.41316 -0.16478 
2 -0.16246 0.30766 0.83763 0.37698 -0.0092608 -1.3529 0.0096301 0.12285 0.068327 -0.23725 0.64322 0.48771 0.99663 0.25057 -0.70122 
1 -0.18127 0.29055 0.91777 0.32369 -0.030286 -1.3884 -0.063226 0.18525 -0.08858 -0.11999 0.71688 0.68231 0.95293 -0.047673 -0.58882 
3 -0.12002 0.59158 0.86137 0.032327 0.11355 -1.5167 -0.066175 0.25367 0.10129 -0.25019 0.59405 0.48654 0.95609 0.016641 -0.72984 
the -0.052945 -0.2604 0.0096319 0.088514 -0.47197 0.13736 -0.031433 0.18174 -0.47246 -0.88015 -0.88881 0.15329 -0.25523 -0.58305 -0.22453 
of -0.11374 -0.36266 -0.061912 0.07362 -0.48327 0.17356 -0.046745 0.2761 -0.50584 -0.69497 -0.68304 0.17625 -0.47045 -0.57969 -0.49639 
4 -0.15908 0.54558 0.9474 0.21271 0.12316 -1.2783 0.066685 0.13942 -0.067636 -0.26092 0.51868 0.67429 0.99615 0.1805 -0.96528 
a -0.0093438 -0.26512 -0.35553 0.29084 -0.026142 -0.14502 -0.15943 -0.18569 -0.10513 -0.83242 -0.38763 0.16457 -0.3414 -0.48536 -0.052583 
and -0.061995 -0.33971 -0.13045 0.10604 -0.45975 0.10405 -0.091835 0.25765 -0.46881 -0.93635 -0.49545 0.035546 -0.48106 -0.67175 -0.53207 
5 0.022105 0.51312 1.0228 0.04866 -0.10604 -1.3835 -0.057806 0.063302 0.034511 -0.091877 0.41378 0.52399 1.2339 0.14488 -0.98291 
6 0.086332 0.50035 0.94699 0.11171 -0.091759 -1.2814 0.13486 0.11714 0.079194 -0.074448 0.5543 0.43819 0.92901 -0.0062048 -0.92715 
b 0.18502 -0.1899 -0.33858 0.60717 0.029658 -0.35781 -0.1003 -0.58566 0.11699 -0.51229 -0.12936 0.3084 -0.55261 -0.50454 -0.016127 
in 0.012167 -0.46968 -0.1096 0.037984 -0.50727 0.048717 -0.041258 0.19751 -0.53149 -0.88891 -0.62577 0.029262 -0.32203 -0.57922 -0.31432 
/ -1.6955 -1.0495 1.0066 0.15056 -0.41134 0.9271 0.38398 0.56471 1.4609 1.156 -0.37636 -0.14521 1.3278 -1.7313 -0.60347 
7 0.17584 0.68806 1.0443 -0.0035239 -0.35893 -1.2882 0.032328 0.088534 -0.089412 -0.39482 0.72805 0.31309 1.1026 -0.18311 -1.0181 
c 0.10183 -0.31896 -0.17993 0.70157 -0.18097 -0.45927 -0.29942 -0.65225 0.092317 -0.71288 -0.13834 0.48284 -0.7908 -0.45289 0.12549 
8 0.14314 0.59636 1.0736 -0.11706 -0.52042 -1.2872 0.13797 0.20938 -0.33365 -0.15203 0.74347 0.57123 1.0263 0.023108 -1.1553 
utc -0.13922 0.018753 -0.11464 0.66396 0.25731 0.43974 1.6104 -0.81137 1.3485 -0.1461 -0.0031023 -1.9365 1.7018 -0.86511 0.03342 
to 0.29325 -0.51693 -0.32042 -0.30468 -0.076473 0.11803 0.0027788 0.20462 -0.44538 -0.97316 -0.56528 0.11793 0.12319 -0.66323 -0.35821 
isbn -0.31698 0.16013 -0.15545 0.50503 -0.68702 -0.30848 -0.61116 0.14089 -0.63482 -0.18493 -1.3347 -0.14767 -0.1216 -0.35052 0.1429 
テキストはクリエイティブ・コモンズ -0.54445 0.1509 -0.015167 -0.23853 2.2817 2.2425 1.8822 -0.85214 -0.6778 0.39388 -1.1758 1.8513 0.18906 -2.6748 1.6703 
表示-継承ライセンスの下で利用可能です。追加の条件が適用される場合があります。詳細は利用規約を参照してください。 -1.7486 -0.21636 1.1201 -0.43833 1.4424 3.1142 1.8328 0.27497 -0.45821 -0.49146 -1.097 2.3001 0.64316 -2.9067 2.62 
p 0.097068 0.070913 -0.021633 0.7808 -0.82856 -0.41377 -0.31115 -0.13414 -0.013327 -0.25433 -0.12595 0.2912 -0.20746 -0.75101 0.21884 
http://www 1.1959 -0.35391 -0.1529 0.40923 0.060045 -0.81423 0.78403 -0.19316 0.40178 0.23071 -0.97604 -0.3537 -0.39629 -0.023675 -0.52981 
pp 0.13037 0.044058 -0.15532 0.96812 -0.77452 -0.48931 -0.28445 -0.0061184 -0.10888 -0.007048 -0.36511 0.087323 -0.075282 -0.43394 0.12356 
9 0.35338 0.55156 1.0584 -0.0011923 -0.35524 -1.5035 0.31287 0.25493 -0.16484 -0.2648 0.93453 0.56693 1.0437 -0.20596 -0.60979 
for 0.081479 -0.65715 -0.15621 -0.088746 -0.15443 0.2121 0.081963 0.2077 -0.52962 -0.653 -0.22014 0.067124 -0.044253 -0.70652 -0.47305 
pdf 0.86 -0.79816 -0.13391 0.49623 -0.14857 -0.73201 0.26416 -0.34147 -0.15905 0.21295 0.33413 -0.09132 -0.45725 -0.28419 -0.64503 
” 0.70629 -0.50752 -0.19144 0.13291 0.012338 -0.29369 0.35904 -0.40503 -0.25349 -0.14386 0.20388 0.18997 -0.26163 -0.44924 -0.43692 
10 0.61523 0.51668 0.93124 0.028704 -0.83195 -0.88911 0.09443 0.20976 -0.33178 -0.24371 0.76117 0.54417 0.76946 -0.47008 -0.26377 
d 0.1271 -0.54553 -0.16613 0.85663 -0.37755 -0.41877 -0.54052 -0.57847 0.17705 -0.8336 -0.19747 0.48512 -0.86002 -0.68611 0.24853 
: 0.34287 0.14391 -0.53453 0.77248 -0.62521 -0.2897 0.019638 0.8635 -0.048229 -0.088412 -0.040307 0.01146 0.06184 -0.62697 -0.50886 
履歴 -1.4857 -0.99848 1.0598 0.73014 -0.18336 1.1269 1.1011 -0.26396 1.7968 0.88112 -0.066845 -1.0933 1.637 -1.9311 -0.50593 
html 1.3974 -0.4838 -0.22152 0.30054 0.3535 -0.94686 0.94767 -0.46788 0.54981 0.23831 -1.4348 -0.31628 -0.35529 0.1108 -0.35048 
new 0.058148 -0.077726 0.081018 0.11981 -0.51699 0.083272 -0.079099 0.044644 -0.12223 -0.81898 -1.3658 0.25737 -0.3329 -0.62096 -0.1283 
m -0.29426 -0.064784 -0.27675 0.63921 -0.82463 -0.48672 -0.65625 -0.27479 0.093486 -0.48133 0.15579 0.21478 -0.10463 -0.90242 0.62627 
on 0.20963 -0.54126 -0.13183 0.15514 -0.17909 0.20803 0.1607 0.41943 -0.51568 -0.72937 -0.43906 0.19687 -0.033882 -0.67358 -0.41612 
university -0.32493 -0.06249 0.40168 0.32718 -0.72488 0.12599 -0.27177 0.26247 -0.66398 -0.34505 -1.4292 0.091856 -0.52217 -0.60311 -0.43206 
s 0.28741 -0.73899 0.17831 0.31004 -0.66325 -0.36922 -0.41556 -0.58187 -0.41596 -0.5553 0.046809 0.025383 -0.71336 -0.79989 0.057656 
| 0.55318 -1.0109 0.12335 1.138 0.0088714 0.40283 0.53209 -0.86304 0.26615 0.85059 -0.85379 0.17326 2.3291 -0.90394 0.6526 
– -0.22087 -0.24882 -0.94329 -0.02753 -0.16191 0.013185 -0.48513 -0.86205 -0.93097 0.63198 -0.18708 0.67273 0.19398 -0.73405 -0.91364 
state -0.18448 -0.71425 0.27103 -0.20109 -0.57514 0.28817 -0.056186 -0.1269 -0.55862 -0.31058 -0.94592 0.19603 -0.76096 -0.47823 -0.75741 
e -0.038293 -0.031427 -0.45922 0.74411 -0.32245 -0.35751 -0.6624 -0.66348 0.17494 -1.1103 -0.18482 0.57793 -0.6655 -0.70802 0.25711 
‎ -0.14096 -1.0444 0.65129 1.0726 -1.4649 0.88398 -0.28269 -1.3103 1.3722 0.10317 -0.28751 -0.3136 2.5727 -0.95983 0.060157 
press -0.18834 0.057528 0.19217 0.51481 -0.77821 -0.049197 -0.54819 0.37626 -0.58709 -0.40795 -1.5265 0.10969 -0.30922 -0.61758 -0.16941 
11 0.78947 0.87258 1.0191 -0.20303 -0.58092 -0.83864 0.27177 0.13249 -0.33541 -0.099217 0.90878 1.0387 0.77243 -0.83356 -0.34657 
by 0.065779 -0.51943 -0.25812 -0.20477 -0.34138 0.26359 -0.086333 -0.010759 -0.46389 -0.85525 -0.44432 0.16221 -0.23834 -0.65413 -0.51599 
j -0.041156 0.02138 -0.4098 0.75785 -0.61823 -0.18274 -0.68805 -0.20673 0.13949 -1.2912 0.066973 0.33226 -0.63318 -0.93347 0.11355 
history -0.24739 -0.089202 0.19656 0.3372 -0.57216 0.16126 -0.35367 0.039837 -0.53111 -0.82924 -1.2702 0.0911 -0.51985 -0.56992 -0.36 
12 0.59211 0.86586 1.1445 -0.11801 -0.90985 -0.98663 0.48646 0.28789 -0.4925 -0.078809 0.47774 1.2714 1.069 -0.30257 -0.45876 
会話 -1.0864 -1.2148 0.49738 0.64253 -0.98604 0.39973 0.8041 -0.78135 1.2756 0.24024 -0.0076662 -1.1148 1.4751 -0.75297 0.60266 
com 0.61383 -0.411 -0.23872 0.40167 0.33971 -0.32227 0.67865 -0.22331 -0.28179 0.090601 -0.83649 0.21545 -0.23507 -0.31421 -0.60546 
united 0.29663 -1.1027 0.37278 -0.39358 -0.94493 0.29471 -0.13299 -0.67191 -1.1169 -0.020645 0.028595 -0.0556 -0.60459 -0.73268 -0.45723 
ログ -2.407 -1.1282 1.4996 0.75406 -0.50104 1.2905 0.50736 0.57305 1.9598 1.4366 -0.32666 -0.28796 1.7586 -1.7783 -1.1497 
states 0.35943 -1.0398 0.23392 -0.66244 -1.1337 0.2996 -0.18764 -0.4904 -1.1315 -0.26885 0.12823 0.042356 -0.79315 -0.8466 -0.41384 
co 1.2379 -0.14193 -0.61791 0.44721 0.12249 -1.2174 0.38298 -0.66288 0.51699 0.43657 -1.583 -0.43297 -0.39789 0.014153 -0.080308 
at 0.19312 -0.56343 0.072917 -0.086329 -0.22361 0.64972 0.54343 0.18338 -0.076293 -0.44331 -1.1503 0.65672 -0.28028 -0.56603 -0.13745 
i 0.067998 -0.48176 -0.57739 -0.023865 -0.097911 -0.43784 -0.68415 -0.52127 0.37102 -1.5675 -0.1337 0.16126 0.099346 -0.51589 0.59238 
f -0.1213 -0.10732 -0.30845 0.80316 -0.40276 -0.5237 -0.85139 -0.60401 0.34552 -1.2531 -0.21157 0.43363 -0.80658 -0.89271 0.46796 
news 0.99957 -0.01217 -0.28163 0.36881 0.46616 -0.16384 1.1745 -0.41416 0.74664 -0.09259 -1.102 -0.073242 -0.19166 -0.2851 -0.49787 
is 0.22177 -0.68144 -0.55342 -0.82353 0.30316 0.068695 0.17259 0.17891 -0.030588 -1.2137 -0.54162 0.065318 0.36482 -0.72162 -0.23407 
h -0.23235 0.073688 -0.23851 0.82402 -0.52983 -0.36281 -0.86374 -0.65016 0.1641 -1.3878 -0.33102 0.39498 -0.70994 -0.86665 0.41918 
& 0.028465 -0.30259 -0.14582 0.58215 -0.28817 -0.21447 -0.14925 -0.045399 -0.53522 -0.38581 -0.60136 0.089501 -0.32447 -0.60623 -0.16386 
g 0.046602 -0.2829 -0.2981 0.87525 -0.4279 -0.45911 -0.73091 -0.68492 0.37398 -1.1523 0.080227 0.50536 -0.77663 -0.77966 0.34189 
from -0.033041 -0.56335 -0.22797 -0.17309 -0.29957 0.12382 0.052416 0.3775 -0.36686 -0.80307 -0.60382 0.15407 -0.14864 -0.64893 -0.44993 
doi:10 0.7856 0.1622 -0.68243 1.0204 -1.0648 -0.14358 -0.1678 1.3354 0.18763 -0.16902 0.41565 0.18984 0.20694 -0.8648 -0.83087 
american -0.14459 -0.46046 0.21603 0.1337 -0.88256 0.2556 -0.32957 0.24532 -0.77829 -0.51863 -0.72445 -0.31545 -0.54207 -0.66148 -0.626 
u 0.44509 -1.0163 0.36976 0.0057052 -0.95992 -0.093794 -0.29223 -0.61788 -0.63122 -0.30935 -0.052207 0.046792 -0.73101 -0.77689 0.026958 
de -0.078926 0.10535 -0.82506 0.8865 -0.45163 -0.20472 0.64134 0.77558 -1.7667 -0.47004 -0.16661 -0.434 0.24936 -0.16931 0.62452 
0 -0.12272 -0.29462 -0.81129 -0.1409 0.19933 -1.45 -0.06201 0.90115 0.71929 0.59236 0.31993 0.49752 0.51792 -1.2299 0.50823 
or 0.3197 -0.72111 -0.65498 -0.99073 0.1508 -0.12381 -0.10485 0.32852 0.027621 -1.1527 -0.38646 0.0046325 0.36178 -0.50833 -0.29246 
census 1.1645 -1.3647 0.41749 -0.42867 -1.2015 0.31469 0.06626 -1.0572 -0.79571 0.53092 0.36818 -0.39741 -0.96381 -0.94986 -1.0662 
“the 0.18934 -0.21116 -0.35314 0.53049 -0.012316 0.014248 0.046589 -0.15758 -0.36714 -0.81047 -0.64226 0.22823 -0.15025 -0.69091 -0.25041 
編集 -0.045411 -0.88262 0.38462 1.4073 -0.78168 1.6529 -0.42268 -1.509 0.77221 -0.15912 -0.27601 0.55644 3.0218 -0.83252 0.0055495 
← 0.4275 -1.1231 0.25074 1.2778 -0.77384 1.6505 -0.33062 -1.3362 1.3434 0.053835 -0.61387 0.82694 2.9206 -1.0396 -0.29353 
13 0.89966 0.66848 0.90988 0.29616 -0.82271 -0.48926 0.064587 -0.2261 -0.17146 -0.19669 0.50161 1.2707 0.98152 -0.52068 -0.12764 
r -0.3309 -0.045691 -0.18338 0.8545 -0.66065 -0.34384 -0.81447 -0.3188 -0.11654 -1.163 -0.20515 0.17677 -0.68409 -0.9908 0.59122 
national 0.026767 -1.0682 0.29407 0.30163 -0.39035 0.01359 0.36683 0.24747 -0.67359 0.043342 -0.37814 0.034738 -0.74416 -0.56189 -0.61559 
英語 0.4254 -0.775 0.14826 0.33565 0.027344 -0.37067 0.60569 0.016185 -0.27567 -0.34834 -0.6813 -0.034292 -0.43375 -0.11011 -0.40706 
リンク 0.27731 -0.84371 0.14072 1.4141 -0.80266 1.8226 -0.32592 -1.6154 1.0425 -0.18671 -0.43567 0.251 3.3865 -0.79903 -0.23052 
with 0.15596 -0.55846 -0.40908 -0.29547 -0.049558 0.070658 0.060884 0.26967 -0.29846 -1.1579 -0.55534 -0.011067 0.26288 -0.50319 -0.23524 
retrieved 0.8654 -0.34465 0.16303 0.36138 -0.12532 0.26002 0.61699 -0.21421 0.061181 0.15413 -0.72557 0.66782 -0.10405 -0.69545 -0.41584 
日 -0.34905 -0.13736 0.053849 0.65999 0.28517 0.46157 1.5303 -0.84288 1.4021 -0.21902 0.050192 -1.8517 1.629 -0.81118 -0.11788 
土 -0.19771 -0.059239 -0.19705 0.73873 0.36218 0.32829 1.3149 -0.69892 1.4267 -0.28885 0.090632 -1.9452 1.8681 -0.9938 -0.067862 
as 0.13488 -0.81202 -0.37461 -0.56057 -0.0051641 0.045231 0.1436 0.29882 -0.44185 -1.086 -0.57637 0.2735 0.24557 -0.54543 -0.12143 
archive 1.5344 -0.39102 0.017774 0.3197 0.2128 -0.41968 0.82474 -0.12613 0.567 0.0085914 -1.4275 -0.34506 0.054885 -0.065865 -0.42517 
2008 0.4639 -0.097813 -0.080694 0.65532 -0.7763 0.32457 -0.030239 0.29968 -0.40403 -0.44896 -0.16232 0.65887 -0.031807 -0.76888 0.043731 
差分 -0.46779 -0.35711 0.37015 0.79039 -0.38982 0.55496 1.2735 -1.1415 1.4839 0.021647 0.12288 -1.9748 1.8594 -1.0915 0.045887 
ed -0.20705 0.24819 -0.090318 0.75094 -0.66213 -0.082887 -0.58296 0.12492 -0.79972 -0.76087 -1.1826 0.010196 -0.26549 -0.61125 -0.10789 
" 0.098946 -0.43061 -0.015505 -0.12827 -0.3438 0.11316 0.12876 0.28911 -0.47992 -0.64032 -0.85316 0.28704 -0.052227 -0.42369 -0.02437 
free 0.24108 -0.13583 -0.96115 -0.039783 0.86896 0.25727 -0.39287 0.37716 -0.2888 -0.54603 -0.37085 0.52416 0.36572 -1.3554 -0.93003 
l -0.12612 -0.13911 -0.23766 0.84772 -0.6767 -0.32924 -0.80273 -0.54362 0.19044 -1.1484 -0.20223 0.19085 -0.60735 -0.96992 0.49775 
world 0.24656 -0.72153 -0.031298 0.10314 -0.11228 -0.18596 0.21282 0.09002 -0.83489 -0.31749 -0.86188 0.061891 -0.16711 -0.34274 -0.30033 
2000 0.15909 -0.11599 -0.035567 0.68154 -0.87901 0.068056 -0.36882 -0.0066676 -0.79066 -0.35495 0.031283 -0.069252 -0.29675 -0.74414 -0.04438 
木 -0.28753 -0.40415 0.00048721 0.71489 0.11659 0.28894 1.3208 -0.97527 1.227 0.10913 0.034488 -1.6146 1.5432 -0.80081 0.0086178 
km -0.33627 1.1481 -0.52332 -0.077911 -1.3022 -1.0019 0.33609 1.1342 0.21522 0.93426 0.45304 0.54463 0.92702 -1.0665 0.083938 
w -0.077603 0.084954 -0.27843 0.68918 -0.87341 -0.27436 -0.75712 -0.4917 -0.29681 -1.2457 -0.48776 -0.019409 -0.58902 -0.77402 0.41248 
n -0.14596 -0.53127 -0.11176 0.79768 -0.91086 -0.36438 -0.56808 -0.62354 0.66036 -0.61977 0.30416 0.21804 -0.55697 -0.9895 0.8209 
an 0.0028135 -0.37284 -0.25877 0.10852 -0.20883 0.054816 -0.017296 0.3006 -0.45499 -1.2377 -0.42371 0.035873 -0.031029 -0.64917 -0.22362 
月 -0.40713 0.00588 -0.11117 0.37663 0.43262 0.14762 1.3561 -0.84576 1.2954 -0.021931 -0.32286 -1.6373 1.6229 -0.7384 -0.15471 
international 0.53967 -0.80294 -0.27437 0.57502 -0.39318 -0.056978 -0.019598 0.36124 -0.43128 -0.25112 -0.56566 -0.28584 -0.0067304 -0.22512 -0.75915 
2007 0.46597 -0.22627 -0.24063 0.95706 -0.17668 0.041663 -0.049062 0.24496 -0.5939 -0.33326 -0.40356 0.50732 0.12108 -0.78446 -0.043745 
afpbb 1.3065 0.70953 -0.46974 0.87531 1.1614 -0.61528 2.023 -1.0204 2.0544 -0.005115 -1.2245 0.10961 -0.26952 -0.12166 -0.7783 
k -0.16757 -0.21493 -0.17403 1.0957 -0.77763 -0.534 -0.98277 -0.68834 0.2966 -1.3249 -0.02136 0.4602 -0.49456 -0.8235 0.71142 
bureau 0.77663 -1.352 0.40547 -0.27547 -1.0247 0.29795 0.083314 -0.84058 -1.137 0.19153 0.51342 -0.26316 -1.0387 -0.80419 -1.0798 
that 0.045737 -0.78006 -0.54686 -1.0519 0.1194 0.072196 -0.00070238 0.40568 -0.10919 -1.4364 -0.62355 -0.04732 0.429 -0.66619 -0.28833 
2010 0.72413 -0.54629 0.0032988 0.4496 -0.93738 0.26326 -0.16916 -0.35209 -0.77978 0.17424 0.38491 0.38472 -0.14344 -0.94308 -0.29978 
差分履歴 -1.4491 -1.1563 0.27853 0.37608 -1.1562 0.1092 1.0749 -0.90579 1.2553 0.14011 0.47455 -1.1814 1.4239 -0.62016 0.72792 
火 -0.52222 -0.25621 0.10539 0.62585 0.11533 0.30711 1.2977 -1.1754 1.3228 0.040773 -0.056708 -1.7601 1.6567 -0.7935 -0.053822 
john -0.22282 0.08305 -0.16927 0.40097 -0.42166 0.093939 -0.16735 -0.32249 -0.39043 -1.1035 -0.9261 0.17075 -0.37327 -0.62813 0.032915 
you 0.41357 -1.0278 -0.84697 -1.649 0.24079 -0.021856 -0.078473 0.19123 0.028264 -1.5877 -0.47549 -0.087798 0.85926 -0.69824 -0.058343 
google 0.23195 0.15873 -0.75806 -0.5431 -0.92127 -0.73227 -0.98925 0.15476 -0.14394 0.64116 -1.8499 -0.29433 -0.23026 -0.85236 0.23638 
department 0.15169 -1.3152 0.6254 -0.2376 -0.43474 0.23607 0.07905 0.078154 -0.37755 -0.10337 -0.5261 0.24708 -1.1778 -0.78022 -0.9865 
population 0.72591 -1.052 0.13681 -0.51561 -0.84398 0.43731 -0.17575 -0.59203 -1.2261 0.17494 0.83301 -0.12321 -0.45792 -1.1322 -0.8563 
14 0.27036 0.1257 0.53263 0.35997 -0.47719 0.0085647 0.3431 -0.00022614 -0.11511 -0.019321 0.53337 2.0136 0.79461 -0.27698 -0.51239 
・ -1.6092 -0.88566 1.4308 0.49603 -0.36089 1.7679 1.2844 -0.56767 1.4024 0.59443 -0.14253 -0.11228 1.4359 -1.3895 -1.0705 
2003 0.098924 -0.020446 -0.28703 0.84951 -0.65366 -0.07202 -0.34165 0.21475 -0.37043 -0.85834 -0.22105 0.15191 -0.25595 -0.70328 0.02397 
license 0.28525 -0.83919 -1.204 -1.5224 0.84605 0.11033 -0.39242 0.33035 0.07858 -1.1823 0.1117 0.11211 0.74208 -1.1848 -0.61122 
リンク元） -2.5937 -1.5808 1.9331 0.12445 0.16876 1.1012 0.29374 0.48795 1.9456 1.794 -0.18316 -0.53399 2.1402 -2.1373 -1.0375 
pmid 1.088 0.34962 -1.0514 1.078 -1.1769 -0.031351 -0.096532 1.3641 0.34438 -0.26825 0.68907 0.21492 0.076587 -0.73529 -1.1259 
2005 0.17339 -0.071316 -0.20774 0.63036 -0.69987 0.063999 -0.20024 0.27264 -0.31936 -0.70656 -0.23076 0.22017 -0.24481 -0.6712 -0.14114 
。 -0.33282 0.79783 0.043137 -0.011353 -0.71767 -0.61668 0.2464 -0.18576 -0.3107 -0.023221 0.084119 0.09457 -0.11777 -0.87588 0.42187 
2006 0.38407 -0.067288 -0.14176 0.71153 -0.61253 0.075331 -0.24339 0.2733 -0.37928 -0.58638 -0.35023 0.41645 -0.05519 -0.67268 -0.080827 
2009 0.58787 -0.13547 -0.097631 0.73665 -0.56413 0.23409 -0.052227 0.10155 -0.53621 -0.42642 -0.29257 0.49278 0.066579 -0.86592 0.0051424 
no 0.40619 -0.20909 -0.37313 0.21134 -0.35905 0.0022925 -0.083917 0.51972 -0.01844 -0.60787 -0.11011 0.26414 0.46874 -0.56485 -0.40618 
org 0.28913 -0.60398 -0.17907 0.15366 0.6261 0.088653 0.52127 0.06938 -0.41535 0.14342 -0.50987 0.36188 -0.13838 -0.86355 -0.5745 
水 -0.23371 -0.093761 0.10091 0.60144 0.25993 0.26183 1.3764 -0.89116 1.3371 -0.24863 -0.15702 -1.6735 1.7572 -0.69867 0.0031154 
2004 0.13225 -0.050927 -0.13104 0.69647 -0.68073 0.11504 -0.22111 0.23937 -0.43924 -0.85377 -0.25773 0.10801 -0.29528 -0.73381 -0.08604 
public 0.11121 -0.77579 -0.301 -0.3398 0.28292 0.33996 0.040872 0.34786 -0.32654 -0.36444 -0.52894 0.30121 -0.054936 -0.98028 -0.77172 
ipv4 -1.1754 -0.91277 0.71266 0.47786 -0.48072 1.5946 1.2238 -0.40617 1.7342 1.5971 0.10104 -0.36369 1.457 -1.8689 -1.0422 
open 0.39374 -0.62125 -1.208 0.1457 1.1856 0.49563 0.2374 0.044218 -0.30281 -0.68924 -0.017069 0.30294 0.36053 -1.338 -0.79883 
data 0.2844 -1.2696 0.14977 -0.26305 -0.11498 0.24499 0.0030928 0.073991 -0.82622 0.45484 0.051382 -0.26342 -0.42595 -1.2617 -0.91914 
whois -1.1121 -0.68771 1.0292 0.12347 -0.9522 1.3827 0.64691 -0.32381 1.9533 0.65502 -0.22726 -0.28412 2.0508 -1.3622 -0.4946 
15 0.47075 0.15528 0.31442 0.29413 -0.9074 -0.15595 -0.22636 0.11448 0.18471 -0.075254 -0.18273 1.58 0.54211 -0.52617 -0.12107 
york 0.44914 -0.2651 0.17422 0.098326 -0.49178 -0.13914 0.12372 0.31564 -0.09685 -0.62123 -1.7085 0.46965 -0.39314 -0.41024 0.14519 
ipv6） -2.0614 -0.73166 0.91773 0.79086 -0.34495 2.2916 1.5416 -1.098 1.2603 0.90221 -0.1878 0.223 1.752 -1.7995 -0.48096 
wikipedia 0.18483 -0.88585 0.013065 0.082573 0.7145 -0.081641 0.71191 0.6443 -0.027338 -0.32409 -0.95142 0.11445 1.0296 -0.49795 0.053144 
this 0.20744 -0.83477 -0.66644 -1.3318 0.13762 0.067297 -0.19895 0.43045 0.027365 -1.5697 -0.44126 -0.10588 0.58735 -0.61847 -0.25083 
htm 1.5405 -0.39982 -0.26118 0.56251 0.17284 -1.038 0.62814 -0.58661 0.65007 0.41189 -1.693 -0.75528 -0.50919 0.31834 -0.76886 
t 0.087089 -0.05145 0.10735 0.9797 -0.88273 -0.79256 -0.85244 -0.37347 0.22443 -1.1502 -0.14835 0.22501 -0.36784 -0.89207 0.85871 
journal 0.37773 -0.26292 -0.21542 0.4172 -0.68087 0.015074 -0.047238 0.78497 -0.10809 -0.62156 -0.59011 0.041199 -0.22007 -0.5111 -0.67854 
inc 0.53564 -0.28865 -0.62034 0.87064 0.66531 -0.86908 0.092147 -0.009648 -0.6251 0.30931 -1.0544 0.36016 0.23679 -0.40351 -0.092253 
online 0.46398 0.14189 -0.22717 0.32517 -0.0051113 -0.091231 -0.25686 0.1348 -0.3556 -0.16651 -1.5332 0.13736 0.042779 -0.51603 -0.79125 
society 0.057384 -0.70807 0.3646 0.41494 -0.78323 0.15283 -0.2986 0.45205 -0.39939 -0.60163 -1.3393 -0.068826 -0.36851 -0.38664 -0.93755 
south -0.4959 0.1433 0.42614 -0.022143 -1.0969 0.3939 -0.147 0.047649 -0.67199 -0.89584 -1.1665 0.085079 -0.76123 -0.73203 -0.36386 
金 -0.43007 -0.24632 -0.0096375 0.45568 0.020915 0.5458 1.2543 -1.0361 1.1736 -0.31778 0.13644 -1.7141 1.4398 -0.70052 -0.020585 
source 0.3047 -0.31897 -1.3167 -0.23283 1.2597 0.37993 -0.033894 0.030389 -0.073401 -0.86718 -0.025423 0.46646 0.26904 -1.5827 -0.86051 
britannica 0.49833 -0.42066 -0.4703 1.4551 1.0732 -0.6683 -0.10461 0.26259 -1.1403 0.099224 -1.7852 0.50239 0.89807 -0.048455 0.094955 
it 0.23252 -0.78982 -0.41178 -1.1058 0.27404 0.16338 0.114 0.23156 -0.011206 -1.415 -0.69416 -0.076834 0.68608 -0.71194 -0.10035 
center 0.20036 -1.1212 0.42747 0.1466 -0.19181 0.039725 0.3057 0.30996 -0.65797 -0.23653 -0.70271 0.13522 -0.72945 -0.65769 -0.76032 
be 0.14927 -0.76265 -0.66701 -1.2357 0.2867 0.034438 0.12193 0.56059 0.07739 -1.3717 -0.50039 0.02465 0.72201 -0.51346 -0.036292 
historical -0.15003 -0.64135 0.51823 0.24353 -0.67257 0.25334 -0.46192 0.11185 -0.69298 -0.47268 -1.3721 0.018172 -0.48068 -0.57091 -0.62871 
vol 0.070784 0.42033 -0.014409 0.49102 -0.79478 0.17377 -0.37085 0.49978 -0.05484 -0.80485 -0.86728 0.3171 0.18862 -0.50793 -0.53894 
https://web 1.501 -0.32077 -0.10986 0.48517 0.27712 -0.85151 0.78149 -0.095985 0.4981 0.27558 -1.2501 -0.26938 0.021765 0.0056899 -0.58603 
software 0.18471 -0.39473 -1.2242 -0.228 1.4896 0.26963 -0.042287 0.43487 -0.18477 -0.63342 0.0057585 0.39694 0.155 -1.6387 -0.83407 
may 0.55085 -0.7252 -0.28308 -0.57821 -0.13553 0.22893 0.030558 0.32818 -0.07471 -1.0653 -0.33794 0.41904 0.23399 -0.83258 -0.10584 
000 0.46409 0.18526 -0.75677 -0.1659 -1.2128 -0.4604 0.12732 0.95363 -0.074921 0.66623 -0.024902 0.070722 1.2095 -0.7375 0.44228 
times 0.83415 -0.58068 0.13391 0.20601 -0.24921 -0.29081 0.47427 0.23518 0.12179 -0.68998 -1.6513 0.5946 0.051614 -0.095455 0.28513 
= -0.057108 -0.13969 -0.56751 0.11034 -0.1647 -1.9683 0.3295 0.42097 0.98866 0.66319 -0.16408 0.62286 0.66867 -1.0555 1.7188 
日本語 0.95536 0.025957 -0.55222 0.46194 0.5098 -1.0147 1.1658 -1.0748 0.58345 0.35765 -0.75776 -0.34402 -0.29296 -0.19055 0.085124 
not 0.3375 -0.71755 -0.79297 -1.2635 0.25958 -0.10933 -0.028063 0.34838 -0.042921 -1.3483 -0.40256 -0.093614 0.79973 -0.67076 -0.079882 
cnn 1.7425 -0.66942 -0.85359 -0.15442 0.27503 -0.98802 0.62236 -0.81155 0.3705 0.47972 -1.4841 -0.31785 -0.46362 0.065334 -0.16364 
v 0.073818 -0.33582 -0.06899 0.65859 -0.4767 -0.69622 -0.69046 -0.32628 -0.26991 -0.80725 -0.27913 0.049412 -0.34215 -0.71297 0.5949 
washington 0.15324 -0.94002 0.2148 0.0053353 -0.48763 -0.090531 0.11097 0.23502 -0.23278 -0.54726 -1.1847 0.48258 -0.69861 -0.080226 -0.27581 
タグ: -1.2027 -1.2489 0.77465 0.36959 -1.7472 0.24151 1.011 -0.92371 1.4305 0.40621 -0.22343 -0.88072 1.7832 -0.51184 1.3261 
o -0.092352 -0.33286 -0.18497 0.99319 -0.77697 -0.57841 -1.0177 -0.72938 0.020169 -1.1816 0.14299 0.2829 -0.33096 -0.94442 1.0932 
https://www 1.4867 -0.28609 -0.44019 0.64884 0.15116 -0.87507 0.71269 0.052544 0.56812 0.10109 -0.69956 -0.44432 -0.14239 -0.14189 -0.6056 
投稿記録‎ -1.5565 -1.514 0.60189 0.61673 -1.1899 0.060403 0.91588 -1.0205 1.4877 0.22772 0.2024 -1.3863 1.6787 -0.49887 0.92241 
english 0.50541 -0.71828 -0.36749 0.44634 -0.1357 -0.26014 -0.095978 0.01945 -0.49859 -0.39115 -0.50776 -0.49044 0.24976 -0.40798 -0.21443 
la -0.028285 0.12177 -0.66068 0.78538 -0.30165 -0.16319 0.72583 0.73137 -1.7434 -0.36998 -0.23402 -0.50656 0.22406 -0.24118 0.4662 
are 0.22651 -0.68599 -0.55914 -1.0391 0.00083573 0.056328 0.10742 0.34652 -0.19429 -1.3772 -0.47831 -0.11614 0.35359 -0.69538 -0.11451 
north -0.44638 0.044297 0.51331 -0.049689 -0.83851 0.20494 -0.1454 0.13055 -0.74675 -0.78703 -1.3863 0.1257 -0.85021 -0.6158 -0.52798 
archived 0.37004 -0.61045 0.23268 -0.086241 -0.10461 0.8516 1.1153 0.10168 0.24414 -0.054024 -1.2782 1.2894 -0.4052 -0.42564 0.057504 
machine 0.46888 -0.43662 0.010784 0.11993 -0.26433 1.1432 1.3051 0.14292 0.34627 0.087917 -1.4237 1.2998 -0.55452 -0.66137 -0.14663 
et -0.051776 -0.14411 -0.38735 1.261 -0.32219 -0.094806 0.066446 0.41107 -1.2825 -0.66701 0.074357 -0.45041 -0.20123 -0.90129 0.45232 
general 0.093608 -0.37652 -0.39363 -0.37817 0.043271 0.24287 -0.040661 0.20205 -0.65534 0.0081056 -0.44328 -0.26445 -0.39855 -1.1947 -0.90267 
foundation 0.2595 -0.51581 -0.51244 0.24985 1.2002 0.12708 0.12529 0.14249 -0.17298 -0.28203 -0.2029 0.41766 -0.0892 -1.2911 -0.93119 
17 0.60003 -0.055722 0.47614 0.38679 -1.0424 -0.20692 0.040018 -0.080836 -0.14792 0.53181 -0.054216 0.95775 0.63857 -0.24873 -0.25699 
science 0.20903 -0.089644 -0.12384 0.62532 -0.34279 -0.013063 -0.094289 0.99788 -0.31814 -0.55906 -0.56022 0.088555 -0.24216 -0.6828 -0.87147 
en 0.52745 -0.064286 -0.47303 0.33604 -0.61882 -0.46239 1.5099 1.0474 -1.3917 -0.57509 -0.47653 -0.5817 0.27823 0.09831 1.5332 
→ -0.66014 -0.21159 -1.0078 -1.1626 -1.0393 -2.7179 1.4559 0.59025 -0.69234 2.2791 -0.25613 -0.53605 -0.15823 -0.4791 1.6613 
us 0.5331 -0.80018 0.10364 -0.60848 -0.54223 0.28248 0.26028 -0.34187 -0.47968 -0.062981 -0.38528 0.13671 -0.52973 -0.80369 -0.47197 
gov 0.8982 -1.2522 0.19771 -0.041355 -0.82318 0.15982 0.47298 -0.66304 -0.5227 0.50262 -0.16562 -0.11839 -1.0412 -0.57186 -1.1219 
association -0.093874 -0.95063 0.20052 0.26525 -0.40337 0.13092 -0.12 0.61067 -0.94201 0.23223 -0.76125 -0.22355 -0.4254 -0.53633 -0.78429 
david -0.13568 0.03696 -0.17019 0.40349 -0.33581 0.054246 -0.10529 -0.39232 -0.31625 -0.95697 -0.51236 0.049841 -0.60269 -0.88489 -0.010396 
2002 0.040064 -0.084245 -0.24279 0.75876 -0.59524 -0.0395 -0.42445 0.2785 -0.34126 -0.83368 -0.32636 0.17851 -0.28771 -0.71152 0.027652 
wayback 0.47564 -0.71449 0.019993 -0.086132 -0.27607 1.2849 1.5005 0.016733 0.1283 0.10037 -1.5231 1.6994 -0.35385 -0.40572 0.22817 
william -0.42605 0.25664 -0.033222 0.41844 -0.53744 0.072533 -0.31321 -0.21237 -0.3295 -1.3633 -1.0257 0.17707 -0.64081 -0.72033 0.077768 
encyclopedia -0.10265 0.17018 -0.10522 0.68666 0.17525 -0.24721 -0.15283 0.57973 -0.99653 -0.56099 -1.4889 0.22099 0.098762 -0.50739 0.0022332 
japan 0.55124 -0.38832 -0.4178 0.51244 0.60394 -0.20699 0.46071 -0.68586 -0.47724 0.20392 -1.0679 0.061637 0.29968 -0.23849 -0.18538 
library -0.0054223 -0.48036 0.080497 0.10978 -0.45588 0.10389 -0.19735 0.19491 -0.77217 -0.1088 -1.407 0.30506 -0.44341 -0.29416 -0.80589 
virginia -0.22356 -0.37481 0.46459 -0.037443 -0.83191 0.42411 -0.083519 -0.087233 -0.49178 -0.42067 -1.0924 0.43129 -0.77685 -0.77298 -0.37763 
jp 2.0266 -0.25531 -0.51074 0.19749 0.58728 -1.2994 0.81729 -1.1364 1.1108 0.18249 -1.4513 -0.64611 -0.26402 0.085303 -0.39045 
other -0.054667 -1.0313 -0.1957 -1.0011 -0.36086 -0.14055 -0.21288 0.64337 -0.001437 -1.2226 -0.32192 -0.16541 -0.23469 -0.66241 -0.3225 
2001 0.094207 -0.2617 -0.12186 0.88513 -0.42335 -0.10911 -0.29742 0.36391 -0.30298 -0.62987 -0.31652 0.048036 -0.32342 -0.89654 0.0091158 
4月 -0.54997 2.6124 1.8996 -1.3174 0.49712 -2.6131 -0.68865 0.42592 -0.19699 0.044421 -0.93105 -1.7786 0.93632 -1.1446 -1.7893 
hawaii -0.25006 -0.80211 0.29542 -0.19426 -0.17193 0.053779 0.16383 0.47039 -0.71918 -0.12658 -1.0251 0.31944 -0.4824 -0.56755 -0.12429 
carolina -0.70126 0.50678 0.18898 0.082571 -1.0492 0.52149 -0.20982 -0.16581 -1.0116 -0.69975 -1.6366 0.029294 -0.79566 -0.78056 -0.33125 
report 0.46987 -1.0692 -0.0075414 0.20399 -0.57365 0.04438 0.28519 0.056068 -0.78519 -0.15369 -0.021713 0.29811 -0.37039 -0.38941 -0.39445 
16 0.40604 0.25911 0.21081 0.40434 -0.77407 -0.60272 0.22385 0.45553 -0.56364 0.22892 -0.14183 1.5435 0.89396 -0.11393 -0.026722 
research 0.25629 -0.81404 0.27534 0.42329 -0.45733 0.071858 -0.050795 0.65379 -0.34035 -0.40159 -0.19985 0.077008 -0.2719 -0.80047 -0.79157 
3月 -0.63673 2.6697 1.5872 -1.0704 0.12204 -2.2767 -1.4138 0.22911 -0.40904 0.012496 -1.2442 -1.924 1.2374 -0.97865 -1.5713 
10月 0.59745 2.3903 2.3888 -1.9631 -0.75055 -1.0677 0.91688 0.15697 -1.4355 0.34784 1.1916 -0.69892 0.45273 -2.3318 -0.84603 
about 0.31404 -0.57926 -0.39055 -0.70188 0.15043 0.11676 0.34259 0.05675 -0.26375 -0.68671 -0.57009 0.047343 0.0014502 -0.75156 -0.36098 
20 0.56454 -0.14199 -0.0080665 0.5897 -0.77249 -0.10449 0.0083151 0.40523 0.25994 0.22049 -0.011903 0.43001 1.0086 -0.71861 0.015139 
1月 -0.96357 1.7586 1.3329 -1.1099 0.3961 -1.8353 -1.5467 -0.22656 0.37294 -0.18491 -1.1904 -0.93494 0.80642 -0.65495 -1.5153 
richard -0.035806 0.13512 -0.44396 0.63595 -0.17053 0.22785 -0.27068 -0.31684 -0.28542 -0.98253 -0.47347 0.14027 -0.53088 -0.97373 -0.40568 
7月 0.26197 2.5582 2.0473 -1.1377 -0.22115 -2.1927 0.25378 0.065921 -1.1625 0.40201 1.0638 -2.3247 0.61675 -1.7817 -1.4004 
2012 0.56881 -0.27747 0.068582 0.50576 -0.53517 0.35863 0.035628 0.090659 -0.74229 -0.044613 0.010877 0.91253 0.012524 -0.86892 -0.27253 
12月 0.62112 3.0951 2.1979 -1.4436 -0.66093 -1.1011 0.17537 0.34369 -1.7275 0.82617 0.30495 0.18113 0.44913 -2.9259 -0.43807 
japanese 0.38543 -0.76803 -0.32097 -0.69311 0.041563 -0.24067 0.18572 0.082002 -0.20014 -0.68504 -0.58024 -0.33203 0.51811 -0.42954 0.057483 
6月 -0.26614 2.231 2.2235 -1.7705 -0.057419 -2.0719 -0.50029 0.49601 -0.44052 -0.047473 0.36068 -1.9539 0.52693 -1.6858 -2.1604 
2011 0.69676 -0.44918 -0.095744 0.37952 -0.52672 0.38928 -0.1321 -0.044225 -1.0775 -0.060983 0.34826 0.45477 0.046503 -0.97104 -0.45827 
2月 0.057871 2.4575 1.2267 -0.60258 0.32329 -2.9486 -1.5414 0.22696 -0.14783 -0.54543 -1.1222 -0.81801 0.91963 -0.65829 -1.0236 
information 0.32359 -0.95236 0.16538 -0.24139 -0.17626 -0.016643 0.21834 0.51044 -0.48059 -0.24129 -0.28794 0.01234 -0.34504 -0.66015 -0.50194 
office 0.30434 -1.003 0.53324 -0.29885 -0.61061 -0.11275 0.61642 0.19913 -0.52251 -0.023291 -0.41388 0.3921 -0.87933 -0.52472 -0.4761 
8月 0.49206 2.8242 1.7892 -1.7347 -0.53517 -1.6585 -0.30912 -0.1655 -1.7233 -0.19165 1.3812 -1.2856 0.52005 -2.3326 -1.532 
km2 0.42006 0.41357 -0.64555 0.045583 -1.7674 -0.82064 0.35054 1.2975 0.41573 1.2688 0.32718 0.29768 0.93503 -0.77602 0.151 
11月 0.68677 2.6751 2.3384 -0.99648 -0.72483 -1.3655 0.93441 0.50663 -1.6652 -0.16462 1.2372 -0.24635 0.32453 -2.6344 0.25191 
all 0.23373 -0.27915 -0.68072 -0.98632 0.021513 -0.17243 0.14579 0.16141 -0.24842 -0.91681 -0.38481 0.065619 0.16703 -0.57147 -0.056457 
5月 -0.84433 2.2703 2.2039 -0.58237 0.4542 -2.5391 -0.62535 0.96412 -0.49736 -0.17496 -0.29217 -2.2735 0.85978 -1.4025 -1.582 
℃ 0.28877 0.6103 -0.7152 -0.66443 -2.9449 -0.4303 0.17749 1.9636 1.3426 0.61899 0.40536 0.6207 0.64344 -0.51386 -0.76484 
http://books 0.15194 0.44382 -0.34919 -0.21947 -1.1529 -0.77345 -0.87609 0.3704 -0.61321 0.43981 -1.9119 -0.52813 -0.33553 -0.63784 0.23925 
産経新聞 1.8553 0.15437 -0.39554 0.82776 0.85864 -1.4705 0.58175 -1.5918 1.6613 -0.15878 -1.2647 -0.82548 -0.20833 0.45582 -0.72823 
have 0.38976 -0.80807 -0.4796 -1.0036 -0.021896 0.10076 0.042177 0.27557 -0.083453 -1.5395 -0.4301 -0.079722 0.46476 -0.64984 -0.17343 
law 0.22969 -0.71707 -0.1704 -0.54163 -0.50631 0.13873 -0.25337 0.26345 -0.1753 -0.86639 -0.80022 -0.091037 0.015143 -0.4331 -0.59549 
first 0.13038 -0.30355 -0.21787 -0.24919 -0.18863 0.12075 0.05311 0.18778 -0.42442 -0.89506 -0.99531 0.20144 -0.040497 -0.49111 -0.18718 
9月 0.61566 3.2061 2.3187 -1.3456 -0.76427 -1.396 0.54371 1.1313 -1.3825 0.039569 0.94315 -1.2253 0.8822 -2.4125 -1.3463 
x 0.41632 -0.17002 -0.35958 0.10491 -1.4211 -1.8396 -0.60004 0.034627 0.062265 -0.83173 0.89541 -0.14419 -0.66956 -0.98541 1.3886 
city 0.062897 -0.60867 0.2882 -0.073847 -0.56335 -0.25483 0.1448 -0.12435 -0.20386 -0.36994 -0.96387 0.089461 -0.85332 -0.25571 -0.36123 
survey 0.01128 -1.3082 0.62955 -0.33358 -1.1032 -0.22463 -0.20876 0.28096 -0.76082 -0.33316 -0.21205 0.11335 -1.1185 -0.91043 -0.21644 
プレスリリース 1.0925 -0.65095 -0.54401 0.44022 0.59647 -0.81387 1.0777 -1.0203 0.34142 0.43851 -0.56158 -0.20412 -0.33529 -0.14472 -0.38087 
language -0.60096 -1.0052 -0.091761 -0.61494 -0.018892 0.0075982 -0.21236 0.82374 -1.0076 0.24632 -0.66573 -0.91843 0.19499 -1.1338 -0.064381 
18 0.3131 -0.0048165 0.182 0.52129 -0.65615 0.030038 -0.0071168 0.58667 -0.015077 0.063406 -0.095003 1.319 0.58406 -0.6629 -0.16208 
21 0.15232 0.39601 -0.47401 0.35964 -1.5944 0.29339 0.20492 0.47377 0.31145 0.53928 -0.10594 1.2838 0.70328 -0.52582 -0.29395 
work 0.15681 -0.97857 -0.68371 -1.2288 0.17962 0.10454 -0.1425 0.32341 -0.022683 -1.3079 -0.42914 0.051623 0.42675 -0.72768 -0.26008 
commons -0.11801 -1.0555 -1.4046 -0.68578 1.5336 -0.39855 -0.17156 -0.28398 0.33555 -0.2598 -0.010785 0.53725 0.28091 -1.6206 -0.10646 
july 1.0079 -0.60702 0.083185 0.2425 -0.73245 0.47561 -0.10377 -0.18182 -0.89278 -0.24989 0.13393 0.66384 0.19182 -0.84608 -0.32447 
19 0.8085 0.034217 -0.06361 0.62491 -1.0329 0.031131 0.21619 0.39878 -0.30073 0.1938 0.072762 0.84747 0.64977 -0.36729 -0.21764 
go 1.0473 -0.1071 -0.46691 -0.20407 0.266 -0.72339 1.1377 -0.89884 -0.23428 -0.31651 -0.72868 -0.48024 -0.1087 0.25573 0.061214 
war -0.28571 -0.14548 -0.051499 -0.082809 -0.75224 0.24345 -0.18552 0.27688 -0.78684 -0.87278 -1.5121 0.081304 -0.17822 -0.11417 -0.0074381 
× -0.15999 0.31755 -0.90408 0.37822 -0.79528 -1.2345 0.43102 0.75357 1.0759 0.90233 0.15044 -0.27038 1.1558 -0.95351 0.74698 
james -0.27845 0.2959 -0.0028327 0.43344 -0.73074 0.18251 -0.36828 -0.4181 -0.29372 -1.0464 -1.116 0.14724 -0.61783 -0.63337 -0.062082 
1998 -0.29697 0.24184 -0.10974 0.76266 -0.61812 0.037902 -0.34328 0.13318 -0.30944 -0.71203 -0.80482 0.26642 -0.17826 -0.68344 0.10658 
‎106 -0.72136 -0.85412 0.61489 0.82795 -1.1364 0.51364 0.79226 -0.79818 1.4838 0.48013 0.10208 -1.6907 1.788 -1.2493 -0.23454 
june 0.63058 -0.38988 0.069982 0.37677 -0.31192 0.18783 0.19033 0.20477 -0.47947 -0.5182 -0.35941 0.89774 0.19485 -0.63339 -0.23397 
page 0.21365 -0.55387 -0.21753 -0.26006 -0.29999 0.20376 -0.0097638 0.31069 -0.30269 -0.63929 -0.68028 -0.0093212 0.68575 -0.59831 0.093824 
y 0.36341 -0.38558 -0.50171 0.59433 -1.1865 -1.0314 -0.38939 -0.18422 -0.4281 -1.1647 0.70206 -0.54381 -0.47411 -0.47231 1.0815 
if 0.29725 -1.016 -0.64445 -1.6248 0.16587 0.017614 0.015584 0.36793 -0.052855 -1.5247 -0.39731 0.14529 0.92766 -0.78773 -0.16267 
ip:106 -0.50904 -0.93276 0.50432 0.24741 -1.5179 0.20085 0.05274 0.48854 1.477 1.118 -0.34051 -0.73566 1.492 -1.0779 -0.62681 
system 0.2991 -0.71542 0.12272 0.16649 -0.056331 0.064571 0.14098 0.73606 -0.34037 -0.62876 -0.46365 -0.024335 -0.22063 -0.64539 -0.64973 
life -0.15636 -0.077765 -0.1991 0.28006 -0.3434 0.10505 -0.301 0.41582 -0.40053 -1.04 -0.8014 -0.12157 -0.29597 -0.73806 -0.45497 
108 -0.68398 -0.29739 0.30048 0.62857 -1.4388 0.30393 0.17659 -0.38445 1.1548 0.23226 0.39743 -1.0041 1.0136 -1.1608 -0.039433 
york: -0.13135 0.36394 -0.10703 0.21092 -1.0338 -0.23334 -0.51187 0.3105 -0.70048 -0.87019 -1.7312 -0.074444 -0.25663 -0.32339 0.18373 
issn 1.2036 -0.22935 -0.80388 1.1959 -0.99692 -0.72102 -0.032903 0.72144 -0.15572 0.16065 -0.044389 -0.32908 0.25955 0.055904 -0.53064 
december 0.75106 -0.36791 0.13823 0.36322 -0.63465 0.32121 0.055069 0.32435 -0.40779 -0.39046 -0.48435 0.93146 -0.11569 -0.81356 -0.15737 
歴史 -0.60337 0.070153 0.9377 -0.13012 -0.11014 -1.2046 -0.3493 0.15247 0.05332 -0.17202 0.65522 0.91173 1.0544 0.54032 -0.92607 
one 0.24629 -0.52401 -0.47459 -0.61336 0.018982 0.17478 0.15325 0.35886 -0.51536 -1.3388 -0.5678 0.065027 0.43402 -0.4931 -0.23528 
robert -0.083616 0.28107 -0.24398 0.62148 -0.4628 -0.15647 -0.31115 -0.31072 -0.36088 -1.1002 -1.0048 0.1183 -0.45559 -0.66677 0.3361 
guide -0.28131 -0.33347 -0.036013 0.0014231 -0.22736 0.18165 -0.23148 0.12599 -0.65646 -0.58309 -1.2359 0.2178 -0.41049 -0.67632 -0.47519 
politics -0.18471 0.076892 0.06665 0.10139 -0.94276 0.28106 -0.20238 -0.12159 -0.71472 -0.97586 -1.1217 0.11338 -0.61132 -0.6155 -0.23108 
service 0.21147 -1.4348 0.46582 -0.0032387 -0.31673 -0.061008 0.55805 -0.026746 -0.51788 -0.2354 -0.45314 0.51919 -0.72878 -0.53869 -0.34539 
al 0.036113 -0.036105 -0.13746 1.1528 -0.55916 0.35299 -0.035388 0.23432 -0.81382 -1.1263 0.18687 -0.1874 -0.40698 -1.0407 0.34201 
web 0.40443 -0.73523 -0.0061216 0.016933 0.71572 -0.053061 0.70571 0.31692 -0.21392 -0.17104 -1.0049 0.34988 0.17975 -0.69902 -0.22814 
"the 0.10282 0.0064119 -0.11394 0.43353 -0.46571 -0.023347 -0.076514 -0.0095115 -0.54006 -1.011 -1.0023 0.19917 -0.058953 -0.41284 0.0090229 
america -0.2369 -0.187 -0.037365 0.13299 -0.67099 0.099721 -0.10708 0.27974 -0.70197 -0.49731 -1.1801 -0.14269 -0.38914 -0.55667 -0.13042 
any 0.16987 -1.2011 -0.73275 -1.6793 -0.056085 0.12613 -0.19075 0.45309 0.074137 -1.7647 -0.44313 -0.0071384 0.51337 -0.64288 -0.36808 
economic 0.6587 -1.084 0.27585 0.16991 -0.84699 0.29503 0.032141 -0.22631 -0.45097 -0.49249 -0.23105 0.25341 -0.61976 -0.4925 -0.96527 
its 0.010426 -0.50368 -0.36287 -0.23364 -0.1434 0.1883 0.027258 0.34781 -0.31261 -1.0102 -0.66965 0.10703 -0.25753 -0.5559 -0.36012 
naid 0.78144 -0.19952 -1.3074 1.4378 -1.099 -1.0389 -0.18073 0.10883 -0.10278 0.4373 0.046345 -0.73562 0.84329 0.66565 -0.48505 
187 -0.79138 -0.95138 0.35017 0.67343 -1.1858 0.72607 0.28304 -0.49864 1.068 0.84905 0.3031 -1.0838 1.3341 -1.1836 -0.45663 
publishing 0.0039767 0.0059474 -0.3279 0.24633 -0.57324 -0.4821 -0.53103 0.50075 -0.56197 -0.36216 -1.4873 0.0052988 -0.2821 -0.58741 -0.079866 
1999 -0.17412 0.089554 -0.19252 0.8224 -0.5094 -0.14018 -0.32479 0.40855 -0.4102 -0.58504 -0.62255 0.072254 -0.34152 -0.80153 0.13548 
encyclopædia 0.78519 -0.28259 -0.71663 1.7327 1.1405 -0.28284 0.085254 0.02896 -1.5341 -0.046216 -1.4806 0.29091 0.96585 -0.35563 -0.083365 
· -3.2589 -2.3031 1.0103 -0.26991 -0.34738 -1.7345 -1.1443 1.2472 0.63404 0.7758 -0.79388 -0.70526 0.65777 0.67743 -1.3158 
[リンク切れ] 2.0371 -0.085975 -0.020288 0.47669 0.32545 -0.99863 0.97946 -0.62788 1.0196 0.23506 -1.8608 -0.7539 -0.58232 -0.021402 -1.1132 
22 0.53043 -0.052638 -0.11896 0.53683 -0.83269 0.12026 0.20913 0.51743 -0.016497 0.012896 0.059352 0.82142 0.39667 -0.7307 -0.19089 
project 0.13435 -0.46159 -0.36603 -0.34272 0.71994 0.095999 0.18896 0.1322 -0.2702 -0.56383 -0.42972 0.14407 -0.33466 -1.0783 -0.53223 
school 0.13175 -0.66553 0.35813 0.16255 -0.27998 0.24981 0.16021 0.28198 -0.39454 -0.43789 -1.3865 -0.012393 -0.1892 -0.38009 -0.4946 
2010年7月31日閲覧。 0.57601 -0.82614 0.11474 -0.2588 0.099053 -0.11235 0.67587 -0.10223 -0.60571 0.54849 -0.6887 -0.046186 -0.76438 -0.11466 -1.2955 
government -0.22334 -0.87345 0.0094774 -0.57544 -0.8319 0.21331 -0.22131 0.24318 -0.62523 -0.33221 -0.79299 0.35235 -0.85108 -0.31569 -0.56903 
education 0.23239 -0.91973 0.20088 0.043574 -0.26456 0.025292 0.26811 0.43163 -0.46309 -0.17614 -0.57073 0.29443 -0.73192 -0.76359 -0.5893 
april 0.76233 -0.68899 0.023134 0.16627 -0.5984 0.36387 0.0067597 -0.15451 -0.832 -0.27512 0.081226 0.86113 0.10213 -0.74294 -0.247 
1996 -0.40596 0.29718 -0.072556 0.44638 -0.62526 -0.017499 -0.34287 0.32507 -0.62944 -0.82099 -0.48997 0.15452 -0.42667 -0.75822 -0.084253 
php 0.91876 -0.69555 0.041725 0.46136 0.40048 -0.66872 1.1006 0.39734 0.10827 0.51925 -1.0895 -0.64871 -0.052825 0.14556 -0.48913 
social 0.078224 -0.37451 0.18266 0.26245 -0.62816 0.37413 0.045954 0.23839 -0.5849 -0.70799 -0.47173 -0.27568 -0.55082 -0.82355 -0.71951 
health 0.54855 -0.89312 -0.033415 0.46913 -0.47085 0.42877 0.26474 0.42718 -0.64097 -0.67188 0.15063 0.19246 -0.51724 -0.45423 -1.2113 
— -0.050371 -0.58166 -0.58654 -0.32001 0.12875 -0.11765 -0.075575 -0.27418 -0.51898 -0.086094 -0.32088 0.32167 0.15069 -0.34107 -0.54883 
charles -0.44978 0.0551 -0.11741 0.60596 -0.74571 0.073 -0.2268 -0.17018 -0.72112 -1.139 -1.0896 0.10781 -0.39337 -0.27451 0.11683 
michael 0.069526 -0.10707 -0.24154 0.53514 -0.475 -0.004866 -0.1471 -0.41302 -0.31338 -0.89017 -0.561 0.23603 -0.35229 -0.65653 0.065057 
january 0.58266 -0.40066 0.19704 0.33725 -0.54021 0.20907 0.18914 0.32014 -0.26396 -0.40317 -0.67799 0.66937 0.043976 -0.8074 -0.041739 
ロイター 2.2288 -0.13707 0.76614 0.47893 0.20683 -0.68494 2.5152 -0.45035 1.6055 -0.2053 -1.2794 -1.2142 -1.3738 0.16879 -1.1296 
october 0.8695 -0.52712 0.11627 0.39528 -0.47716 0.26084 0.072993 0.000989 -0.28989 -0.55474 -0.37816 0.76598 0.13665 -0.71756 -0.28531 
island -0.37187 -0.19177 -0.1505 -0.17517 -0.56497 -0.21388 0.20836 0.24864 -0.75691 -0.51831 -0.68447 -0.1472 -0.86255 -0.40813 -0.11935 
その他 0.13905 0.50996 1.2464 0.35128 0.019409 -1.2339 0.31404 -0.14094 -0.44495 -0.35595 0.61491 1.2431 1.0907 -0.030238 -0.60086 
version 0.26403 -1.0109 -0.87665 -0.77099 0.57308 -0.35401 -0.64621 0.53145 0.012494 -0.66848 -0.052324 0.18971 0.51681 -1.0278 -0.69207 
was 0.094758 -0.60736 -0.37529 -0.68202 -0.34076 0.07975 0.04011 0.14279 -0.263 -1.2524 -0.93403 -0.045374 0.25498 -0.51803 -0.24028 
under 0.35596 -0.71728 -0.60809 -1.2202 0.099829 -0.060262 -0.48117 0.15004 -0.25779 -1.6939 -0.19963 -0.18174 0.4288 -0.82778 -0.26701 
will 0.10868 -0.87205 -0.37523 -1.0245 0.22343 -0.0071909 0.15202 0.31003 -0.10961 -1.4543 -0.68502 -0.094309 0.66167 -0.48431 -0.34848 
great -0.3138 0.13141 0.023669 0.12983 -0.52638 0.054215 0.093882 0.040246 -0.62579 -0.94672 -1.1288 0.12616 -0.33958 -0.26374 -0.1404 
who 0.28998 -0.55511 -0.28984 -0.40867 -0.45366 0.23694 0.27971 0.20791 -0.19482 -1.2821 -0.58693 0.10997 0.21983 -0.27615 -0.14295 
30 0.56349 -0.18272 -0.2876 0.35892 -0.55144 -0.0076945 -0.011378 0.32508 -0.17335 -0.11965 -0.17354 0.53533 0.70665 -0.59844 -0.085623 
institute 0.11137 -0.84432 0.30498 0.35813 -0.35204 0.14468 0.19184 0.58203 -0.50943 -0.38442 -0.56173 -0.15811 -0.35539 -0.42001 -0.77083 
election 0.29683 -0.33598 0.25998 -0.29419 -0.57145 0.55102 0.61741 -0.51735 -0.84392 0.18067 -0.41798 0.15269 -1.1294 -0.96755 -0.70375 
edition 0.028401 -0.029967 -0.178 0.5424 -0.45615 -0.11177 -0.48483 0.20986 -0.7949 -0.70905 -1.2123 -0.0042181 -0.027309 -0.25051 -0.33065 
george -0.11629 0.30503 -0.052927 0.441 -0.71867 0.14977 -0.20852 -0.22415 -0.29789 -1.1773 -1.0407 0.12943 -0.55374 -0.73954 0.095006 
bibcode 0.43491 -0.0015679 -0.38259 1.2186 -0.82788 -0.38226 -0.19068 1.757 0.28056 -0.2671 0.14331 -0.39714 0.19018 -1.0562 -0.96892 
」 0.59677 0.40993 -1.121 0.57486 -0.99348 -1.3276 0.30944 -0.97539 -0.35917 -0.34708 0.31063 -0.93124 0.074342 1.0713 0.25214 
der -0.019905 -0.31153 -1.0832 1.0671 -0.7276 -0.46005 -0.46623 -0.024032 -1.8521 -0.80858 -0.35448 -0.37689 0.80932 0.10883 0.27753 
list 0.42226 -0.92953 -0.5928 -0.349 -0.20828 0.12202 -0.34291 -0.22143 -0.18248 -0.69923 -0.73649 0.38497 -0.10509 -0.049335 -0.90266 
accessed 0.74858 -0.45576 0.46029 0.21775 -0.66192 0.65101 0.30761 0.4455 -0.44041 0.084564 -0.77026 1.436 -0.21988 -0.94991 -0.21159 
185 -1.0086 -0.63056 -0.09925 0.41043 -1.7709 0.50507 -0.096771 -0.09477 1.4301 0.6401 0.10117 -1.2256 1.314 -0.7244 -0.88719 
but 0.59856 -0.6676 -0.48828 -1.0607 0.18243 -0.18682 0.004404 0.13925 -0.32488 -1.3581 -0.48171 -0.17583 0.59206 -0.66208 -0.1476 
company 0.12655 -0.17656 -0.28623 0.28654 -0.40043 -0.50767 -0.41087 -0.084657 -0.42523 -0.39408 -1.2782 0.073806 -0.28424 -0.41491 -0.35133 
van 0.09166 0.31289 -0.6046 0.51652 -0.36346 -0.045028 -0.25356 -0.6804 -1.503 -1.2742 -1.2034 -0.1528 0.23997 -0.13094 0.57259 
use 0.27099 -0.80695 -0.54163 -0.64033 0.13982 0.40211 -0.057446 0.1074 -0.23047 -0.92665 -0.26724 -0.050528 0.082678 -0.82024 -0.35274 
creative 0.036611 -1.0119 -1.2089 -0.65669 1.2327 -0.22844 -0.039533 -0.37062 0.15628 -0.27911 0.2617 1.0043 0.034442 -1.6012 -0.2706 
com/books 0.28947 0.089616 -0.56667 -0.45986 -1.5125 -0.97396 -1.4104 0.087883 -0.3609 0.59401 -1.9181 -0.65176 -0.36828 -0.7288 0.13984 
time 0.43583 -0.59129 -0.35691 -0.58038 -0.11648 -0.21405 0.27813 0.2575 -0.069548 -0.4935 -1.0086 0.19345 0.30934 -0.37797 -0.052592 
rights 0.13697 -0.80961 -0.43377 -1.0946 -0.11443 0.22201 -0.2649 0.35356 -0.16579 -1.3675 -0.57114 0.14903 0.12118 -0.72447 -0.21709 
1995 -0.15997 0.13733 -0.11337 0.52109 -0.69774 -0.10074 -0.19482 0.0044032 -0.31885 -0.86471 -0.70974 0.10317 -0.52301 -0.65622 0.081445 
your 0.27471 -0.79346 -0.62485 -0.89021 0.31633 0.13158 0.081928 0.13065 -0.15703 -1.2558 -0.44773 -0.05783 0.517 -0.66222 -0.37298 
people -0.097145 -0.20504 -0.23215 -0.36724 -0.53478 0.16518 -0.12606 0.12964 -0.46091 -0.9757 -0.85872 0.019223 -0.30582 -0.49834 -0.15772 
west -0.28479 -0.0856 0.29389 0.027809 -0.88694 0.35049 -0.2407 0.025775 -0.25664 -0.96856 -1.2122 0.02436 -0.78348 -0.46851 -0.53403 
court -0.45758 -1.2236 0.31891 -0.4956 -1.2647 0.14121 -0.004319 -0.286 -0.60076 -0.9842 -0.70758 -0.14783 -0.78669 0.1471 -0.15956 
federal -0.013381 -1.4244 0.55967 -0.34255 -0.59351 -0.13535 0.46816 0.0044625 -0.62927 -0.29372 -0.42721 -0.18661 -0.70581 -0.050217 -0.55136 
wikimedia 0.10217 -0.96154 -0.3788 0.26339 1.0054 -0.03397 0.65002 0.18604 -0.29767 0.0012443 -0.41956 0.41119 0.6186 -0.75349 -0.18953 
statistics 0.49527 -1.4751 0.27016 0.023072 -0.67781 0.082908 0.40605 -0.13741 -0.89268 0.16001 0.11703 -0.01419 -0.79799 -0.59513 -0.82895 
gnu 0.033213 -0.0095885 -1.225 -0.59883 1.4599 0.0196 -0.15303 0.19629 -0.0977 -0.51033 0.1323 0.24976 0.045574 -1.6811 -0.83941 
（英語） -0.014944 -1.3855 -0.131 0.43115 0.025699 -1.1939 0.75468 -0.13101 -1.4145 0.19038 -0.75626 -0.55399 0.17358 0.56079 -0.026612 
county -0.14677 -0.70971 0.29266 -0.15581 -0.57818 0.17614 0.068367 -0.10266 -0.47129 -0.47918 -0.97192 0.21176 -0.87022 -0.60106 -0.4477 
hawaiian -0.51054 -0.75613 0.39795 0.10638 -0.020049 -0.32846 -0.11059 0.56997 -0.42975 -0.47861 -0.83345 0.26914 -0.6031 -1.0003 0.0010734 
nasa 0.6183 -0.48607 0.31184 0.7107 0.31437 -0.29923 0.72795 0.56869 -0.069562 -0.66254 -0.17524 -0.44465 -0.50146 -0.95989 -0.84872 
dakota -0.61743 -0.60188 0.40625 -0.26832 -0.61927 0.32452 -0.023199 0.037972 -0.55283 -0.28797 -1.2688 0.054874 -1.1676 -0.6644 -0.90406 
business 0.5596 -0.82293 0.11779 0.1656 -0.015303 0.13552 0.14751 0.075646 -0.46292 -0.29449 -0.82949 0.33887 -0.26055 -0.66545 -0.73163 
q 0.087733 -0.44709 0.055919 0.84611 -1.3648 -1.1784 -1.5355 -0.65701 0.37572 -1.2815 0.34637 0.12745 -0.52373 -1.1402 1.5417 
review 0.12367 -0.5113 -0.21755 0.11474 -0.21503 0.11875 -0.034191 0.42777 -0.088854 -0.63019 -0.57958 0.2314 0.027842 -0.47455 -0.59573 
yomiuri 1.9281 0.48115 -0.29017 0.46966 -0.012706 -1.3669 0.78419 -0.90895 0.35087 0.63574 -1.6978 -1.0875 -0.50457 0.54154 -0.76886 
2014 0.66441 -0.56464 -0.042013 0.78324 -0.69874 0.26194 0.1655 0.40725 -0.37077 -0.279 0.356 0.22054 0.49041 -0.7591 -0.27601 
house 0.10601 0.057734 -0.037785 -0.17578 -0.945 0.06279 0.16332 -0.22401 -0.83329 -0.85278 -1.0876 -0.33649 -0.26616 -0.29016 0.16074 
会話‎ -1.0109 -0.72095 -0.024963 -0.1054 -1.9446 0.19559 0.75642 -0.56411 0.92366 0.24498 0.38695 -0.80951 1.4089 -0.44579 0.88306 
bbc 1.3101 0.091114 -0.41871 0.50971 0.40572 -0.44781 0.80677 -0.22136 0.055762 -0.34201 -1.398 -0.074308 -0.22492 -0.60493 0.15047 
civil -0.39926 -0.11405 -0.19798 -0.28439 -0.90245 0.15931 -0.2831 0.37446 -0.50365 -0.91659 -1.2887 0.0629 -0.34959 -0.47582 -0.059155 
can 0.39584 -0.78725 -0.55022 -0.96915 0.40501 -0.054443 0.085591 0.079036 -0.20614 -1.4995 -0.65488 -0.2216 0.53088 -0.84591 -0.21657 
peter 0.026885 0.15642 -0.37247 0.6985 -0.43106 -0.086518 -0.08384 -0.29412 -0.4091 -1.0534 -0.92194 0.02392 -0.047261 -0.40134 0.1545 
has 0.31034 -0.64731 -0.44662 -0.72722 0.21545 0.25587 0.3643 0.42842 -0.12144 -1.2034 -0.58299 0.15206 0.57493 -0.66419 -0.10798 
100 0.71623 -0.40186 -0.53588 -0.18458 -1.0759 -0.18275 0.18224 0.25483 -0.048536 0.5367 0.059275 0.52914 1.0271 -0.93811 0.39415 
post 0.78168 -1.1617 0.064878 0.089465 -0.24696 -0.27026 0.55165 0.045253 0.18829 -0.70386 -1.3962 0.44665 -0.12195 0.38035 0.043872 
book -0.023955 -0.53 0.015329 0.17378 -0.10752 -0.028487 -0.11362 0.11844 -0.40052 -0.57263 -1.2362 0.24492 -0.027966 -0.52638 -0.00082545 
march 0.60174 -0.40925 0.14627 0.37495 -0.46075 0.33832 0.14058 0.20791 -0.21164 -0.26873 -0.43604 0.87297 0.10239 -0.94725 -0.24004 
museum -0.21166 -0.25516 0.082713 0.099983 -0.41873 0.053014 0.24733 0.20392 -1.2361 -0.49639 -1.3006 0.045305 -0.28716 -0.077032 -0.076625 
28 0.51956 -0.20355 -0.1228 0.36175 -1.1452 0.21649 0.077698 0.1245 0.075552 0.049148 -0.012618 0.68157 0.27496 -0.66593 -0.13524 
estimates 0.97138 -1.2418 0.028364 -0.52747 -0.90548 0.78646 -0.14727 -0.76961 -1.5615 -0.22276 1.4264 -0.24823 -0.34757 -1.2231 -0.97705 
pacific -0.21933 -0.69127 0.20311 0.24529 -0.34461 -0.27911 -0.025993 0.62961 -0.7601 -0.50644 -0.78125 0.14636 -0.5862 -0.31668 -0.24261 
msn 2.1051 -0.44115 -0.042275 0.664 0.45116 -2.0183 0.096965 -1.4767 1.3599 -0.16573 -1.4302 -1.5461 -0.38406 0.59612 -1.1288 
“a 0.15129 -0.29603 -0.26849 0.33206 -0.10944 -0.055604 -0.049601 0.0080413 -0.12669 -0.88034 -0.65747 0.21778 -0.34754 -0.73479 -0.09973 
energy 0.43568 -1.024 0.39532 -0.16158 -0.34372 0.10365 0.43974 0.11048 -0.29972 -0.085753 -0.24855 -0.17936 -0.7891 -0.67582 -0.77072 
nytimes 1.005 -0.89856 0.18917 0.26982 0.12233 -0.7878 0.51702 -0.0022275 0.5357 -0.11221 -2.4889 0.81363 -0.1098 0.31942 0.27196 
more 0.40798 -0.557 -0.43667 -0.98613 0.016222 0.064095 0.2427 0.48687 -0.3064 -1.3407 -0.55562 -0.053716 0.39236 -0.7526 0.079749 
community 0.065102 -0.8653 0.34825 -0.44017 -0.55387 0.12971 0.17474 0.053645 -0.52801 -0.76752 -0.35 -0.36727 -0.52425 -0.63303 -0.62896 
minnesota -0.04184 -0.90605 0.57982 0.26158 -0.24693 0.37365 0.10748 -0.069864 -0.63042 -0.33133 -1.0128 0.042546 -0.64829 -0.3969 -1.0715 
site 0.30005 -0.775 0.17788 -0.29014 0.67151 0.20587 0.75967 0.42134 -0.42522 -0.5643 -1.1828 0.33198 0.35993 -0.66671 -0.11079 
reuters 2.1504 -0.3078 0.35153 0.53846 0.19836 -0.76201 2.1308 -0.6368 1.2858 -0.35851 -1.1531 -0.78324 -0.89881 -0.049223 -1.0079 
時事通信社 1.1145 0.47951 -0.27891 0.70481 0.81819 -0.68167 1.7294 -1.543 1.7148 0.11275 -0.99331 -0.42597 -0.3989 -0.025284 -0.50683 
yahoo -0.1073 -0.074294 -1.4235 -0.93162 0.14336 -1.1893 -0.077339 -1.4726 0.53304 1.5625 -2.5407 0.35097 -0.57844 -0.46757 0.27706 
southern -0.39959 0.069151 0.14537 0.059758 -0.74842 0.11581 -0.19554 0.38686 -0.64198 -1.0101 -1.1865 -0.016801 -0.41736 -0.50929 -0.23696 
2015 0.66728 -0.33946 0.023405 0.8145 -0.48274 0.21991 0.013256 0.11441 -0.35003 -0.4199 0.11166 0.52181 0.43582 -0.75141 -0.077561 
their -0.06849 -0.58006 -0.34536 -0.18556 -0.23721 0.0093046 -0.067656 0.45212 -0.39411 -1.1237 -0.45223 0.01327 -0.059917 -0.54203 -0.4315 
最新 -0.56896 -0.9738 0.13361 0.37225 -0.88055 0.2071 0.42571 -0.82985 1.064 0.76457 0.099033 -1.2599 2.321 -0.92227 0.57339 
1997 -0.22942 0.088594 -0.20498 0.60046 -0.61626 -0.019958 -0.36554 0.073944 -0.51044 -0.88287 -0.62757 0.052536 -0.25898 -0.68332 -0.051064 
2013 0.46331 -0.21349 -0.097923 0.8018 -0.39883 0.17803 0.3531 0.021897 -0.50944 -0.51118 0.088252 0.32197 0.35977 -0.49016 -0.16586 
25 0.43196 0.090398 -0.34145 0.59636 -0.78406 0.13281 0.20026 0.4355 0.18112 0.28616 -0.24484 0.5767 0.75792 -0.77052 -1.5765e-05 
division 0.55247 -1.2456 0.51286 -0.41577 -0.83211 0.17813 0.10314 -0.57754 -0.72231 -0.046507 0.39256 -0.1155 -0.97999 -0.96085 -0.84065 
development 0.15447 -0.78336 -0.074587 0.096618 -0.22091 0.27141 0.066132 0.34117 -0.30842 -0.52223 -0.27673 0.28561 -0.51337 -0.82879 -0.84692 
thomas -0.034261 0.18127 -0.31334 0.57814 -0.55588 0.011351 -0.427 -0.42303 -0.39178 -1.261 -0.93837 0.19875 -0.36444 -0.42463 -0.14949 
texas -0.44734 -0.85116 0.25902 -0.022361 -0.1805 0.36563 0.1811 0.25696 -0.63396 -0.20156 -1.2399 -0.15346 -0.54221 -0.24352 -0.85307 
2007年 -0.099717 -0.67936 0.65423 0.37767 0.20178 -0.17129 0.67018 -0.076932 -0.51118 0.017938 -0.42831 0.15749 -0.50127 -0.44534 -0.52358 
） -0.1699 0.79229 -0.38948 0.23749 0.47088 -0.96836 1.0242 -0.38828 -0.41783 0.71697 -0.49177 0.014015 0.0063984 -0.34212 0.42907 
nature 0.55347 -0.06772 -0.53309 0.75478 -0.28809 -0.18186 -0.078276 1.2985 -0.20675 -0.68647 -0.38543 0.12555 -0.11193 -0.74628 -0.57585 
1990 0.10909 -0.057398 0.14808 0.093965 -0.90152 0.053417 -0.33084 -0.30944 -0.74957 -0.4815 -0.33705 0.0012925 -0.48757 -0.91509 0.2391 
california -0.20952 -0.12591 0.071774 0.067071 -0.47816 -0.017137 -0.27782 0.070844 -0.57721 -0.73177 -0.92676 -0.032943 -0.46672 -0.62172 -0.61314 
political -0.17151 -0.20099 0.13906 0.16333 -0.7927 0.31961 -0.027501 0.38832 -0.46529 -1.0167 -0.97567 -0.0099813 -0.49351 -0.58857 -0.3943 
books 0.0066528 -0.083989 -0.46572 0.10848 -0.45798 -0.26188 -0.55256 0.18833 -0.45619 -0.50966 -1.3481 -0.1358 -0.011758 -0.40505 -0.19408 
* -1.3807 0.10411 0.31403 1.4089 0.69723 -0.88097 0.40656 -0.51702 0.37267 1.1169 -1.1268 0.42374 1.1287 -1.162 0.96735 
2008年 -0.046246 -0.44069 0.54039 0.24189 -0.10757 -0.19261 0.68283 -0.41506 -0.43348 0.083372 -0.019035 -0.070624 -0.41222 -0.28543 -0.69714 
26 0.53019 -0.10195 -0.18007 0.54277 -0.7643 0.06133 0.04918 0.32041 0.13642 0.18873 -0.15502 0.60417 0.57608 -0.72438 -0.28813 
england -0.19808 0.21914 0.28399 0.044521 -0.84278 0.32444 -0.2189 0.089221 -0.10366 -0.94345 -1.5144 0.096946 -0.61999 -0.65966 -0.28297 
september 0.65189 -0.404 0.091134 0.46568 -0.39329 0.22512 -0.045482 0.45898 -0.40996 -0.46914 -0.45189 0.6632 0.075177 -0.78587 -0.41935 
college -0.0081859 -0.7608 0.44353 0.036543 -0.61153 0.15634 0.10985 0.19102 -0.30738 -0.5515 -0.70733 0.1069 -0.63749 -0.5696 -0.8163 
www 0.78663 -0.39478 -0.72051 0.20052 0.84593 -0.41659 0.83457 -0.23603 -0.28653 0.1445 -0.3725 -0.10522 -0.16516 -0.50624 -0.55471 
official 0.31393 -0.66719 -0.006284 -0.14133 -0.027159 0.23569 0.33093 -0.056886 -0.65274 -0.25597 -0.86199 0.50483 -0.26279 -0.58682 -0.36689 
184 -1.1776 -1.0703 0.16821 0.64084 -1.406 0.6784 0.041651 -0.14216 1.5328 0.69838 0.24806 -1.0293 1.2181 -0.9984 -0.70269 
des -0.024915 0.01632 -0.78639 1.1205 -0.58308 -0.011042 0.44808 0.96614 -1.7731 -0.2162 -0.22506 -0.40255 0.55932 -0.27305 0.32642 
part -0.15104 -0.69317 -0.42428 -0.15724 0.037283 -0.20327 -0.17356 0.45002 -0.54703 -0.87221 -0.46616 0.35949 0.36652 -0.33865 -0.15509 
media 0.53394 -0.39585 -0.45311 0.32669 0.36777 -0.19948 0.22145 -0.27389 -0.69961 -0.016143 -0.49117 0.27976 0.048562 -0.80732 -0.54936 
oxford -0.25865 0.4236 0.077309 0.35149 -0.96253 -0.14402 -0.72881 0.31186 -1.132 -0.59599 -1.3204 -0.25766 -0.10878 -0.70472 0.091475 
例： -1.2036 0.31297 -1.1307 -1.8783 -0.75916 -2.6008 1.2637 2.0664 0.18989 2.1136 -0.3109 0.1318 -0.53567 -0.94091 1.6711 
resources -0.32239 -1.2096 0.51102 -0.38493 -0.66438 -0.24365 -0.45688 0.96759 -0.30784 -0.47488 -1.0368 -0.097777 -1.0714 -0.56207 -0.70174 
geological -0.022487 -1.2987 0.91011 -0.30196 -0.80559 -0.27976 -0.043844 0.12066 -0.64139 -0.31753 -0.29728 -0.27271 -1.3924 -1.1976 -0.28039 
• -0.75217 1.3079 -0.2099 0.6873 1.5757 1.6513 3.1756 -0.65348 -0.40907 -0.76699 -1.551 0.46709 2.7584 -2.3842 2.2216 
jr -0.32478 -0.046785 -0.1878 0.73187 -0.49609 0.013639 -0.2287 -0.41131 -0.24428 -1.2408 -0.56382 0.33957 -0.48333 -0.61351 0.2026 
magazine 0.51199 -0.38849 -0.12292 0.44771 0.14218 -0.20348 0.20847 0.36628 0.073996 -0.34916 -1.1155 0.16745 0.057022 -0.51354 -0.53821 
we 0.38016 -0.57118 -0.49813 -0.79011 -0.045526 0.083359 0.13094 0.1341 -0.21794 -1.3586 -0.74432 -0.24255 0.6738 -0.54712 0.03135 
http://jp 1.9162 -0.31365 0.13487 0.56968 0.12198 -0.33314 2.1533 -0.69459 1.1219 0.46385 -1.1823 -1.0407 -1.0481 0.15048 -1.2848 
24 0.2666 -0.058885 0.012097 0.2404 -0.7256 0.072061 0.49825 0.47378 0.19141 0.42259 -0.1059 0.92352 0.40441 -0.94317 -0.16525 
2005年 -0.49951 -0.34685 0.23572 0.035299 0.32505 -0.36422 0.36811 -0.49303 -0.33507 0.34935 0.24135 0.31974 -0.50894 -0.64469 -0.63553 
日本中央競馬会 1.336 -0.30464 0.1541 0.89139 -0.50423 -1.3725 1.4464 -2.3581 0.53173 -0.018245 2.3475 0.35496 -1.0294 -0.23615 0.018666 
digital 0.54148 -0.20825 -0.40474 0.13557 0.27151 -0.37116 0.17761 -0.18037 -0.20457 0.057878 -0.63575 0.47327 0.0038901 -0.8897 -0.50834 
{\displaystyle -0.27007 -0.44307 -0.76081 -0.17843 -1.0899 -2.1176 -0.22742 0.11108 1.1765 0.17005 0.37842 0.81802 -0.52998 -1.0591 2.4277 
2017 0.84934 0.080851 -0.19795 0.82749 -0.64551 0.020693 0.55644 -0.22413 0.086247 -0.23562 -0.0068667 -0.098046 0.013479 -0.56383 -0.24842 
what 0.2117 -0.51979 -0.67044 -0.91399 0.25233 0.075585 0.1653 0.079987 -0.1762 -1.2532 -0.56184 -0.020185 0.51893 -0.70153 0.014213 
asahi 1.8208 0.35946 -0.0099112 1.0331 0.4141 -0.89198 1.4141 -0.67494 1.1731 0.4609 -1.2788 -0.7038 -0.40619 -0.10812 -0.71364 
story -0.061437 0.14117 0.099416 0.2774 -0.39168 0.17722 -0.23229 -0.13798 -0.42919 -1.0811 -1.3645 0.3464 -0.064856 -0.32187 -0.20502 
27 0.085367 0.39871 -0.16903 0.6227 -0.60147 -0.26168 0.2282 0.53199 0.25494 0.3818 0.30284 0.66545 0.17514 -1.1115 -0.3728 
internet 0.92001 -0.1242 -0.41017 -0.27909 0.61908 -0.32446 1.1268 0.48092 -0.21695 0.16705 -0.92567 -0.080499 0.51969 -0.74446 -0.10157 
global 0.46851 -0.8128 -0.31483 0.33504 0.12909 0.070817 0.30415 -0.0083038 -0.70872 -0.40619 -0.31884 0.34176 -0.17277 -0.76456 -0.65153 
group 0.1462 -0.031088 -0.58231 0.011396 -0.29202 -0.39548 0.33466 0.29005 -0.38851 -0.035138 -0.58446 0.13099 0.14262 -0.098966 -0.33045 
year 0.49295 -0.74272 -0.22323 -0.2176 -0.33323 0.63854 0.19294 -0.0021882 -0.55842 -0.91384 -0.8585 0.36967 0.33872 -0.36549 -0.30965 
』 -0.071982 0.18055 -0.61395 0.81984 -0.54964 -0.21164 1.4693 -0.42774 -0.43555 -0.15614 0.1338 0.062895 -0.17675 0.37306 0.51765 
indiana -0.32096 -0.5212 0.58254 0.19195 -0.74014 0.23701 -0.65664 -0.16741 -0.61122 -0.67606 -1.511 0.077258 -0.67634 -0.55934 -0.50638 
1993 -0.19846 -0.0079369 -0.39929 0.67162 -0.82054 -0.038752 -0.24993 0.26316 -0.3317 -0.74679 -0.55473 0.028975 -0.49255 -0.46884 0.26911 
1994 -0.25905 0.26788 0.033172 0.48868 -0.83096 0.14581 -0.29159 -0.079053 -0.25826 -1.1385 -0.72264 0.14447 -0.53317 -0.72982 0.11431 
black -0.35683 0.15272 -0.21527 0.038096 -0.58676 0.17175 0.079753 -0.063224 -0.60935 -0.97963 -1.0112 0.07102 -0.65595 -0.54704 0.055468 
human 0.011996 -0.26397 -0.38469 0.13675 -0.59689 0.074684 0.028241 0.64141 -0.41433 -1.1078 0.060743 -0.013708 -0.20714 -0.64233 -0.5538 
23 0.49043 0.33513 -0.19424 0.58221 -1.0085 0.21659 -0.020324 0.5789 -0.028584 0.10046 -0.15548 1.04 0.19135 -1.0977 -0.14663 
と -0.024416 -0.25475 -0.87034 -0.23257 -0.22836 -1.3619 0.24958 0.35897 0.24291 -0.37624 0.26194 0.46131 0.44372 -0.26253 1.2092 
mm -0.20295 0.35421 -1.5543 -0.041899 -1.9017 -0.42094 -0.30644 1.4698 0.41083 0.54635 0.47676 0.2903 1.2117 -0.99457 0.54967 
massachusetts -0.36518 -0.32137 0.44374 0.10618 -0.52129 0.21927 -0.16063 -0.04209 -0.41259 -0.54324 -0.69794 0.073094 -0.77831 -0.67446 -0.77833 
document 0.015166 -1.0805 -0.81326 -1.1912 0.030541 -0.18373 -0.26659 0.17099 -0.29539 -0.9746 -0.32041 0.35365 0.25798 -0.57344 -0.65319 
space 0.45999 -0.3815 0.13691 0.57966 -0.07197 -0.097024 0.32491 0.73207 -0.2623 -0.82534 -0.39447 -0.48915 -0.24608 -0.84388 -0.73888 
illinois -0.2955 -0.15412 0.26889 0.362 -0.68118 0.28586 -0.36946 0.19637 -0.66467 -0.50498 -1.2613 0.1236 -0.61603 -0.50163 -0.41655 
kentucky -0.36019 -0.0050509 0.17192 0.16543 -0.61762 0.093768 -0.46207 -0.091344 -0.49715 -0.65939 -1.115 0.096569 -0.86254 -0.56206 -0.49461 
2006年 -0.089854 -0.21096 0.37969 0.25681 0.1349 -0.41575 0.47375 -0.071536 -0.43186 0.11601 -0.20335 0.06797 -0.34947 -0.48056 -0.36909 
article 0.15819 -0.60485 -0.28717 -0.5107 0.20748 0.12739 0.19556 0.5261 -0.20398 -0.99336 -0.69823 0.16602 0.50289 -0.49729 -0.13404 
his 0.13594 -0.31906 -0.2233 -0.073645 -0.16119 0.33181 0.18082 0.23417 -0.37857 -1.5455 -1.0699 0.022584 0.11697 -0.47275 0.10952 
years 0.27145 -0.2255 -0.16074 0.18355 -0.27336 -0.13953 0.048797 0.28975 -0.34691 -0.5612 -1.0163 0.035236 0.34922 -0.46338 -0.10241 
my 0.39611 -0.39969 -0.63494 -0.39469 0.15964 -0.084181 0.26893 0.055433 -0.29523 -1.3116 -0.64161 -0.26258 0.73696 -0.31286 -0.01417 
usgs -0.33696 -1.8405 1.297 -0.24258 0.43129 -1.3101 -0.17526 0.91779 0.28089 -0.17679 -0.54903 0.33528 -1.2221 -0.8484 0.044226 
29 0.53687 0.12544 -0.27733 0.44455 -0.92282 0.22924 -0.06051 0.46248 0.16372 -0.07937 -0.31669 0.70397 0.082162 -0.83173 -0.30153 
modern -0.66805 -0.60674 0.02539 -0.18608 -0.37635 -0.014088 -0.38464 0.84636 -0.92056 -0.049683 -0.88218 -0.78445 -0.18439 -1.0625 -0.19847 
投稿記録 -0.9947 -0.92821 0.75355 0.52612 -0.33273 0.38207 1.2294 -0.84355 1.0409 0.82245 -0.33491 -1.3033 1.9196 -0.91774 0.90138 
technology 0.38881 -0.64803 0.37156 0.60491 -0.15382 0.22234 0.059006 0.67723 -0.61433 -0.42474 -1.1216 0.06089 0.037381 -0.29494 -0.98074 
administration 0.37184 -1.3864 0.4148 0.0323 -0.45651 -0.13959 0.40632 0.3704 -0.56905 -0.18536 -0.23138 -0.21769 -0.87537 -0.41031 -0.72239 
honolulu 0.6458 -0.60257 0.17461 -0.34327 -0.35849 -0.16563 1.1203 0.65267 -0.36102 -0.066727 -1.3687 0.016245 -0.43443 -0.10475 0.05971 
日本経済新聞 1.405 0.53461 0.20671 0.95026 0.45809 -1.077 1.1907 -0.44947 1.2165 -0.4542 -0.5185 -0.89167 -0.61566 -0.10109 -0.59906 
毎日新聞 1.9795 -0.1267 -0.10674 0.46628 0.41068 -0.82451 1.8664 -1.1139 1.367 -0.086361 -0.67441 -0.60708 -0.12552 0.23895 -0.18695 
act -0.14981 -0.76204 -0.11418 -0.64891 -0.64157 0.041007 0.016535 0.0066054 -0.17271 -0.72064 -0.26611 0.33356 -0.31812 -0.29629 -0.33587 
com/ 0.53875 -0.30345 -0.69568 -0.22669 -1.1074 -0.8485 -0.54545 -0.01772 -0.33499 0.9896 -2.3228 -0.37978 -0.41917 -0.31669 0.38038 
le -0.2937 0.11139 -0.76616 0.78604 -0.42065 -0.36873 0.41196 0.80172 -1.4988 -0.49567 0.17467 -0.39394 0.35981 -0.39992 0.88426 
study -0.045899 -0.27068 -0.09972 0.14368 -0.38209 0.25128 0.0044151 0.36649 -0.58126 -1.0094 -0.57829 0.067666 -0.34646 -0.69283 -0.35545 
2016 0.74527 -0.52431 0.0018338 0.7071 -0.58463 0.33938 0.28785 0.028649 -0.20343 -0.41899 0.047371 0.34169 0.000413 -0.64521 -0.52852 
map -0.63089 -1.1718 0.15475 -0.35756 -0.10135 -0.064219 -0.36096 0.71389 -0.61409 0.3193 -0.84312 -0.79507 -0.57593 -1.2875 -0.58857 
february 0.56652 -0.3846 -0.070387 0.50603 -0.2726 0.28879 0.095362 0.10821 -0.35183 -0.50282 -0.52689 0.74164 0.11803 -0.66785 -0.19591 
august 0.61514 -0.38706 0.16359 0.25816 -0.41279 0.28626 0.034757 0.32166 -0.35991 -0.51824 -0.6459 1.1122 0.038018 -0.72915 -0.16996 
vermont -0.16923 -0.54313 0.11425 0.43665 -0.28275 0.22658 -0.295 0.14084 -0.23166 -0.63711 -0.97154 0.25039 -0.18169 -0.56918 -0.37129 
paul -0.36398 0.082063 -0.067504 0.74383 -0.21517 -0.17088 -0.242 -0.089462 -0.48051 -0.91973 -0.92721 0.10995 -0.3497 -0.58899 0.097824 
after 0.26635 -0.306 -0.14357 -0.17333 -0.25933 0.11661 0.23517 0.33981 -0.48616 -1.1193 -0.91521 0.096742 0.098097 -0.56086 -0.12319 
presidential 0.40135 -0.23181 0.11736 -0.084196 -0.82167 0.61569 0.19679 -0.46894 -0.86455 -0.37361 -0.54831 0.2742 -0.80671 -0.92178 -0.60593 
dictionary -0.29864 -0.01389 -0.23501 0.40267 -0.053864 -0.1068 -0.45282 0.21107 -1.1537 -0.43821 -1.3911 -0.21027 -0.065876 -0.58504 -0.013854 
+ -0.44547 -0.31302 -0.93713 -0.5552 -0.71731 -2.2551 -0.16829 0.24125 0.82295 0.84706 -0.22255 -0.35393 0.33102 -0.69583 1.7145 
do 0.51002 -0.83494 -0.76049 -1.0995 0.019938 -0.17855 0.078281 0.091755 -0.19115 -1.4804 -0.63627 -0.31851 0.70604 -0.55173 0.31067 
congress -0.044318 -0.6782 0.11525 -0.23081 -0.82852 0.50399 -0.20377 0.074972 -0.79378 -0.37837 -0.98816 0.45736 -0.56815 -0.031999 -0.77572 
central 0.16984 -0.99929 0.16994 -0.16798 -0.60982 -0.35262 0.40519 0.32631 -1.2056 -0.25255 -0.67832 -0.34518 -0.7697 -0.082742 -0.47703 
50 0.53736 -0.20173 -0.33815 0.018551 -1.029 -0.17332 0.059163 0.47907 -0.1624 0.48391 -0.27364 0.21163 1.1178 -0.85191 0.64133 
> -0.20371 -1.387 -0.22975 -0.27576 0.2411 -0.43202 1.1932 -1.1931 0.39287 1.4123 -0.19343 1.2889 -0.056229 -0.95211 0.54374 
oklahoma -0.28688 -0.70395 0.43005 0.016884 -0.52912 0.12885 -0.14844 -0.17147 -0.61859 -0.1774 -1.0901 0.21569 -0.72351 -0.32845 -0.6756 
park -0.086228 -1.2082 0.29727 0.52382 -0.35608 0.029898 0.18165 -0.28739 -0.74456 -0.20952 -0.59427 0.47839 -0.89187 -0.52464 -0.15339 
most 0.2053 -0.57027 -0.41108 -0.49935 -0.070648 0.090605 0.11975 0.077673 -0.60216 -0.80608 -0.65915 0.079546 0.057804 -0.69133 -0.35952 
jh -0.14715 0.55644 -1.3645 0.36203 -1.0947 -1.0704 0.044047 1.2446 1.5109 0.28254 0.21721 -0.16767 1.2618 -0.74239 0.3654 
november 0.61569 -0.33352 -0.023032 0.21055 -0.4993 0.37946 0.045991 0.15509 -0.45572 -0.38138 -0.31356 0.89732 -0.0083442 -0.70374 -0.33392 
500 0.44158 -0.41453 -0.97916 -0.21241 -0.84767 -0.45804 0.24268 0.56314 -0.1866 1.1695 -0.15652 0.64835 1.0443 -0.84166 0.85659 
weather 0.16829 -1.0921 0.20779 0.52505 -0.5283 -0.20628 0.65838 0.23937 -0.52816 0.31371 -0.35868 0.46577 -1.1348 -0.6086 -0.46206 
‎211 -0.78003 -0.2632 0.67237 0.68967 -0.6654 0.26257 1.0296 -0.87216 1.6107 0.28425 0.34473 -1.7657 1.6588 -1.438 0.29499 
57 -0.41907 -0.23768 -0.1148 0.8128 -1.1986 -0.16325 -0.20773 0.24031 1.3108 0.54668 0.68075 -0.96192 1.085 -1.3751 -0.42753 
president 0.1786 -0.42473 -0.32514 -0.26003 -0.64336 0.2268 0.37939 -0.26073 -0.65016 -0.58367 -0.61872 0.22691 -0.41867 -0.42143 -0.069662 
ref 0.98473 1.8034 -1.5575 -0.26695 -1.8844 -1.311 1.2532 -2.2637 -0.0095605 -1.0141 0.64582 -1.2967 -0.080911 1.9307 -0.35441 
georgia -0.18347 -0.21163 0.18239 0.12543 -0.72159 0.12633 -0.26527 -0.1003 -0.53438 -0.67139 -1.1505 0.22497 -0.51448 -0.43157 -0.40839 
日本 -1.0823 0.48363 0.28388 -0.64493 -0.80951 -0.43717 0.47828 0.21196 0.77697 -0.26777 0.0081882 1.2705 1.0137 0.87342 -0.85529 
‎111 -0.93891 -0.23836 0.39932 0.66734 -1.3049 0.19301 0.75584 -1.098 1.3017 0.26021 0.22486 -1.7262 1.3723 -1.3172 0.43838 
union 0.075444 -0.67953 -0.20246 0.3949 -0.85832 0.025953 -0.26884 0.65147 -0.38294 -0.23923 -1.0908 -0.51849 -0.23682 -0.1342 -0.71384 
できごと -0.38057 1.9873 1.7967 -0.29138 -0.16075 -3.004 -1.6563 0.70263 0.073338 0.13551 -1.3047 -1.4065 1.701 -0.52496 -0.44443 
1992 -0.29023 0.13805 -0.10012 0.4715 -0.57057 -0.056863 -0.43034 0.21784 -0.64003 -1.0782 -0.85962 0.099999 -0.26982 -0.56936 -0.024715 
archives 0.11914 -0.9837 0.36954 0.12838 -0.27261 0.23852 0.15119 0.4666 -0.67818 0.011785 -0.80182 0.067738 -0.58247 -0.46564 -0.76454 
network 0.813 -1.1829 -0.53242 0.045079 0.44521 -0.29903 0.51277 -0.10765 -0.18544 0.26527 -0.84819 -0.0099364 0.059286 -0.68397 -0.58677 
tax 0.31605 -1.2916 -0.088833 -0.24401 -0.13425 0.69571 0.42163 -0.31362 -0.59396 -0.19255 -0.10802 0.41433 -0.67852 -0.70997 -1.1216 
now 0.43282 -0.43097 -0.23937 -0.51446 0.37963 -0.29428 0.16036 -0.13456 -0.38879 -1.243 -0.81988 -0.18199 0.36196 -0.58797 0.19011 
volume 0.031357 -0.24539 -0.2708 0.335 -0.61905 0.10929 -0.49733 0.32196 -0.36643 -0.8399 -0.91902 0.24868 0.036483 -0.44371 -0.33148 
このページはbotにより生成されています。編集は可能ですが、次回の更新時に上書きされてしまいますので、恒常的な変更が必要な場合や、未作成記事の情報交換をなさりたい場合などにはノートをご利用ください。未作成記事の日本語版での題名はwikipedia:多数の言語版にあるが日本語版にない記事にお寄せください。 -1.3518 0.19097 -0.06199 0.44287 0.96472 -0.048406 0.85832 -0.24043 0.37367 0.37658 0.15962 -0.58506 0.64771 -0.25288 0.54296 
「日本語版記事」欄が丸括弧入りの赤リンクとなっているものは、wikipedia:多数の言語版にあるが日本語版にない記事から抽出された暫定の記事名です。 -1.2865 0.1151 0.15199 0.49234 0.94449 0.067168 0.8629 -0.27136 0.28295 0.63502 -0.26883 -0.071584 0.70372 0.16079 0.42962 
du -0.34264 0.29054 -0.7844 1.0008 -0.56755 -0.13952 0.59519 0.74137 -1.9772 -0.70865 -0.19452 -0.53443 0.28797 -0.14891 0.9579 
than 0.37228 -0.69339 -0.42108 -0.75413 0.15966 -0.0063329 0.29258 0.34456 -0.21334 -1.0672 -0.6275 -0.0064669 0.41835 -0.70342 -0.051389 
言語間リンクを基に作成していますが、言語間リンク自体が不適切である場合もあります。この場合は、記事の言語間リンクの方を修正することもご検討ください。 -1.3427 0.14541 0.078582 0.34115 1.3003 -0.03717 1.3609 -0.48459 0.098589 0.32963 0.25643 -0.55098 1.1767 -0.12832 0.94666 
1983 -0.1072 0.30537 -0.072601 0.52399 -0.92632 0.11848 -0.47747 0.027116 -0.5764 -0.64711 -0.56281 0.042943 -0.63741 -0.92339 -0.029441 
表はソートボタンでソートできます。初期状態では、日本語版に記事のあるものではサイズの隔りが大きい順、日本語版にないものでは言語版数が多い順に表示されています。 -1.0505 0.46412 -0.31399 0.5434 0.89606 -0.38156 0.66879 -0.25584 0.24282 0.68207 0.03731 -0.49547 0.70705 -0.012629 0.39563 
999⋯ -0.22902 -0.025121 -0.85667 -0.36015 0.082015 -2.3404 -0.17382 1.4351 0.7966 -0.14108 0.072125 0.55243 0.15469 -1.3181 1.9772 
commission 0.31049 -0.93904 0.48493 0.14952 -0.70834 0.0019727 0.26395 0.17029 -0.67472 -0.48798 -0.62081 0.1983 -0.59737 -0.45597 -0.50182 
音楽 0.30947 0.7725 1.8485 0.34405 -0.86601 -0.85196 0.41775 -0.23915 0.070249 -1.0174 0.66186 1.7251 0.77715 -0.20549 -0.059397 
iowa -0.024226 -0.69625 0.3041 -0.26551 -0.79631 -0.23191 -0.26849 0.11401 -0.51862 0.031366 -0.93925 0.23064 -0.82971 -0.35784 -0.64277 
alabama -0.5849 -0.49188 0.64618 0.14466 -0.30853 0.1766 -0.23428 0.50303 -0.83823 -0.40125 -0.97938 0.20456 -0.83967 -0.61729 -0.75689 
スポーツ 0.10794 0.24824 2.166 0.31263 -0.77193 -0.76372 0.65789 -0.070728 0.54617 -0.18829 0.65232 1.5176 0.95535 -0.40416 -0.31898 
early -0.16755 -0.10522 0.095343 0.27016 -0.36735 0.091639 -0.11944 0.53378 -0.21811 -0.93719 -1.3348 -0.0041629 -0.075468 -0.61895 -0.14273 
nikkei 1.7494 0.14113 0.11064 0.5222 0.60291 -1.126 1.2842 -0.2315 1.2217 0.34788 -1.0887 -0.91695 -0.83618 -0.32713 -0.81677 
読売新聞 1.6901 0.25778 -0.62444 0.78903 0.44845 -1.2106 0.73285 -0.93517 0.81037 0.83219 -1.8166 -0.95928 -0.35654 0.20681 -0.7293 
ii -0.10305 -0.27326 -0.5915 -0.29792 -0.67026 -0.25074 -0.38062 0.24406 -0.20719 -0.97891 -0.74102 0.029427 0.04697 -0.17507 -0.044639 
into 0.26587 -0.73821 -0.1559 -0.15518 -0.021312 -0.0077033 0.22148 0.4793 -0.19196 -1.2194 -0.59106 -0.084339 0.099371 -0.52738 -0.37625 
am 0.33397 -0.50319 -0.76129 0.19617 -0.3808 0.12605 0.11717 0.5653 -0.045746 -1.4624 0.76813 0.12683 0.13906 -0.61792 -0.3996 
church -1.1598 -0.16937 -0.29611 -0.13391 -0.084482 -0.15772 -0.80515 -1.003 -0.88432 0.07506 -1.1475 0.46567 0.13913 -0.53464 -0.11245 
culture -0.14465 -0.2829 0.034059 0.17147 -0.39917 0.23529 -0.21759 0.39686 -0.7232 -0.51389 -1.0557 0.3708 -0.34416 -0.75453 -0.34164 
31 0.56229 -0.068487 -0.19532 0.34537 -0.70417 -0.17024 0.17478 0.32234 0.18779 0.079102 0.016009 0.49994 0.46886 -0.63789 -0.21207 
agriculture 0.25099 -1.0211 0.23098 -0.049713 -0.75349 0.21067 0.13681 -0.0078266 -0.58497 -0.32352 -0.18424 0.19301 -1.0248 -0.79646 -0.75738 
http://web 1.7233 -0.22973 0.056183 0.48161 0.16858 -0.89083 0.92698 -0.091054 0.64799 0.31041 -1.3943 -0.63209 -0.38172 -0.024954 -0.82832 
our 0.0043901 -0.58993 0.087352 -0.33611 -0.1632 -0.0083427 0.050303 0.18551 -0.49336 -1.0833 -0.77399 0.26544 -0.051682 -0.66342 -0.22527 
40 0.22789 0.066448 -0.22324 0.44335 -0.8659 0.13424 -0.15955 0.15893 0.26716 0.2816 -0.021068 0.3006 1.1482 -1.0523 -0.12347 
http://sankei 1.9903 -0.82561 -0.093766 0.4438 0.32672 -1.6201 0.13074 -1.1959 1.2808 0.26316 -1.6974 -1.7446 -0.46243 0.38643 -0.83114 
alexander -0.44364 -0.064496 0.1518 0.51352 -0.46201 0.045566 -0.43905 -0.086749 -0.37145 -1.3176 -1.4435 -0.1436 -0.33781 -0.55179 0.12268 
映画 0.29472 0.84208 1.7682 0.16735 -0.54076 -0.50691 0.66757 -0.8065 0.23531 -0.86678 0.74364 1.0398 0.93411 -0.65781 0.15891 
2018年2月9日閲覧。 0.5217 -0.28997 -1.0746 -0.18673 1.3835 0.0071501 0.29898 -0.10974 0.35283 -0.32093 0.25311 0.43066 0.095117 -1.5928 -0.90174 
2010年 -0.11331 -0.23103 0.46721 0.085098 -0.28218 -0.44117 0.71391 -0.43309 -0.51558 0.43171 0.26646 -0.0038173 -0.53336 -0.43767 -0.4226 
朝日新聞 1.9505 0.65996 -0.30327 1.0033 0.33928 -0.69368 1.1559 -1.1836 1.3412 0.20599 -1.2021 -0.34489 -0.28762 -0.17919 -0.53901 
200 -0.090697 0.25625 -0.65525 -0.044425 -0.81863 -0.47664 0.24031 0.51421 0.36864 0.35796 0.26638 0.16265 1.1592 -1.1898 0.66099 
lincoln -0.31897 0.038198 0.07013 0.12135 -0.84798 0.15451 -0.17583 0.24501 -0.79891 -1.1117 -1.4521 0.19107 -0.48207 -0.47944 0.30754 
smith -0.13996 0.16005 -0.23378 0.43716 -0.62031 -0.1715 -0.43822 -0.37165 -0.48588 -0.98132 -0.59957 0.084493 -0.40824 -0.76117 0.33218 
country -0.13144 -0.61575 0.16018 -0.082749 -0.20924 0.18221 0.026419 -0.12771 -0.45607 -0.54283 -0.68891 0.14081 -0.15204 -0.52312 -0.30248 
1991 -0.21916 0.35419 -0.032742 0.55186 -0.79427 -0.022357 -0.53189 -0.045715 -0.59287 -0.90664 -0.96291 0.16599 -0.21393 -0.53311 -0.01027 
heritage -0.16495 -0.65653 0.086471 0.18768 -0.30134 -0.22314 -0.22214 0.13971 -0.8943 -0.39339 -1.0665 -0.13031 -0.39243 -0.3634 -0.39054 
reference 0.10769 -0.59243 -0.28703 0.20432 0.43301 -0.3913 -0.36731 0.29441 -0.54596 -0.26187 -0.63556 0.22571 0.32372 -0.66302 -0.43482 
columbia -0.58898 -0.74284 0.6811 -0.23851 -0.74638 0.12645 -0.13541 0.10634 -0.6231 -0.62929 -1.319 0.19848 -0.80067 -0.2264 -0.31759 
two -0.086555 -0.72235 -0.5279 -0.53573 0.11804 0.057588 0.11401 0.37905 -0.27242 -1.1544 -0.5802 0.040274 0.34422 -0.52854 -0.20948 
itmedia 0.72426 -0.08472 -0.51186 0.20178 1.6624 -1.021 1.0391 -1.4337 1.342 0.18975 -1.8894 -0.087082 0.00075238 0.017656 -0.35424 
座標: -0.75395 -0.35973 -0.25616 -0.2706 -1.3327 -0.37132 0.78502 0.87773 1.5345 0.90015 -0.51592 0.62826 0.76685 -0.075403 0.1331 
chicago 0.062497 -0.041605 -0.080764 0.25105 -0.41218 0.074274 -0.1074 0.3149 -0.41234 -0.21895 -1.4728 0.5495 -0.31224 -0.53403 -0.23902 
series 0.17523 -0.38305 -0.26941 0.19385 -0.62971 -0.0022878 -0.29913 0.30879 -0.41136 -0.78651 -0.78053 -0.11429 0.2292 -0.20096 -0.47781 
which 0.12429 -0.76731 -0.7364 -1.1327 0.15275 0.088393 -0.054914 0.41497 -0.25949 -1.5467 -0.52273 -0.022908 0.42826 -0.64572 -0.22689 
4月1日 -0.90735 2.1532 0.25856 -1.423 0.40755 -0.7615 1.6294 -0.19382 -0.44085 0.56394 -0.054408 -0.93545 -0.33102 -1.9146 -0.28965 
eds -0.33588 0.14927 -0.090168 0.56891 -0.44846 -0.014052 -0.51656 -0.1869 -0.77314 -0.98328 -0.77243 0.13552 -0.74887 -1.0027 0.063443 
[1] -0.083656 -0.67084 -0.060373 -0.088631 -0.33714 0.11526 0.48504 0.24138 -0.75183 0.14765 -0.42847 0.28804 0.057031 -0.50709 -0.061848 
joseph -0.037669 0.16506 0.00070121 0.40072 -0.4819 0.044436 -0.31186 -0.18852 -0.25163 -1.1099 -0.93352 0.051983 -0.31758 -0.8581 0.18132 
boston 0.4713 -0.18754 -0.044812 -0.17567 -0.45254 -0.15935 0.12818 0.10311 -0.074623 -0.66002 -1.5386 0.13413 -0.29887 -0.32314 -0.13607 
white -0.058228 0.147 -0.26354 0.084021 -0.75135 0.11451 -0.028651 -0.11394 -0.33036 -0.998 -1.0353 -0.086414 -0.36741 -0.57013 -0.012473 
so 0.4321 -0.77668 -0.5004 -1.0209 0.017519 -0.011428 0.13705 0.19026 -0.14811 -1.5135 -0.43627 -0.43547 0.75305 -0.57114 0.099896 
： -0.30788 1.1959 -0.55039 0.41814 -1.2047 -0.45849 0.43586 -0.18822 1.1457 0.42169 0.11405 1.2752 0.77231 -0.3457 -0.46532 
mark 0.3743 -0.29167 -0.4115 0.63763 0.034942 -0.052976 -0.042465 -0.30827 -0.48244 -0.73131 -0.60833 0.31178 -0.14226 -0.69282 -0.11803 
2009年 0.10252 -0.23148 0.45607 0.30787 0.16286 -0.44807 0.82911 -0.18908 -0.68023 0.24018 -0.30519 -0.12798 -0.52974 -0.53076 -0.56845 
analysis 0.33809 -1.0697 -0.040719 0.40027 -0.68913 -0.20016 -0.25417 0.066789 -0.68415 -0.38778 -0.10937 -0.16355 -0.44957 -0.58505 -0.45664 
sandman 0.39428 -0.29219 -0.555 0.29334 -0.096374 0.3249 -0.14675 -0.25573 -0.27504 -1.7817 -1.1822 0.47605 0.64346 -0.24363 0.087596 
section 0.20375 -0.77837 -0.47298 -1.2268 -0.17067 0.10777 -0.23696 0.52663 -0.10403 -1.3183 -0.11529 -0.029672 0.47436 -0.52442 -0.34326 
ac 1.0962 -0.43493 -0.69139 0.43373 -1.3011 -1.1184 0.20255 0.096281 0.17658 -0.80291 0.62619 -0.46227 -0.58188 -0.19485 0.60806 
プロテスタント -1.435 0.78851 -2.0951 -0.50036 -0.1522 -0.37243 -1.2934 -2.1065 -1.348 1.1161 -0.61342 1.4394 0.95772 -0.39619 -0.96491 
1989 -0.30468 -0.00044187 -0.083024 0.35296 -0.83333 0.0024826 -0.48203 0.10207 -0.52184 -0.97593 -0.73302 -0.11585 -0.3603 -0.59906 0.028231 
board 0.31552 -0.84611 -0.21453 0.33949 0.28818 0.0080346 0.30223 -0.21883 -0.62459 -0.0034786 -0.81083 0.41534 -0.49853 -0.60912 -0.73392 
flight 1.0215 -0.93238 -0.26787 0.48833 -0.18257 -0.43475 0.062115 -0.28109 -0.13616 -0.08296 -0.46538 -0.39378 0.037188 -0.42672 -0.46177 
how 0.34977 -0.55894 -0.5952 -0.66098 -0.098843 0.15741 -0.049322 0.03678 -0.22335 -1.2296 -0.81383 0.10736 0.26038 -0.59501 0.071968 
ohio -0.022053 -0.35862 0.098752 0.013479 -0.56516 0.23858 -0.27477 0.10891 -0.49362 -0.52652 -1.1011 0.10168 -0.75558 -0.62948 -0.49144 
les -0.19176 -0.031883 -0.69835 0.92801 -0.36047 0.0024373 0.73049 0.85897 -1.7878 -0.64971 -0.29569 -0.37929 0.058886 -0.2714 0.59137 
z 0.56372 0.090869 -0.40255 -0.078205 -1.8278 -1.7751 -0.51811 -0.70015 -0.097597 -1.4045 0.82343 -0.32747 -0.95456 -0.77302 1.5845 
32 0.27613 0.63397 -0.38142 0.31323 -1.4095 -0.43574 0.035644 0.74214 0.3483 0.46639 0.0023477 0.55769 0.58788 -0.74747 -0.33832 
」p -0.4369 0.38364 0.12293 1.1938 -1.5699 -2.4584 -1.3358 -0.28775 1.7195 -1.2197 -0.60336 -0.6612 0.26203 2.3948 -1.5404 
music -0.012935 -0.26618 -0.38483 0.34276 0.12913 -0.18057 -0.26516 0.095513 -0.97884 -0.60805 -0.80543 0.4545 0.32283 -0.30491 -0.26162 
river -0.32307 -0.40304 0.15158 -0.25317 -0.86799 -0.20426 0.077029 0.46485 -0.55361 -0.99708 -1.1128 -0.096821 -0.38178 0.10875 -0.37052 
-- 0.23424 -0.64933 -0.62426 -0.56594 -0.095748 -0.43069 0.26472 0.17837 -0.24498 0.15109 0.36136 -0.54872 0.84624 -0.65017 -0.29973 
change 0.23607 -0.66194 0.0051743 -0.18002 -0.37901 0.23996 0.24292 0.079287 -0.77878 -0.65706 -0.33939 -0.16439 -0.43064 -0.59581 -0.50267 
food 0.39618 -0.32111 -0.22772 0.1553 -0.48485 0.19583 0.38442 0.21702 -0.39948 -0.58459 0.16614 0.10269 -0.60858 -0.82728 -0.62078 
産経新聞社 1.1848 0.69626 -0.14226 0.95228 0.96585 -0.8384 1.4198 -1.1622 1.8467 -0.0079295 -1.2374 -0.42808 -0.091014 -0.20917 -0.43005 
iso 0.44275 -1.3675 -0.40369 -0.33223 -0.26845 -1.1423 -0.18622 0.25467 0.21576 -0.24189 0.32304 0.46195 0.026634 -0.005209 -0.77057 
geographic 0.10668 -1.5069 0.73977 -0.24297 -0.82963 -0.36126 -0.58722 0.5846 0.095281 -0.36817 -0.42318 -0.32274 -0.8539 -0.72602 -0.56562 
associated 0.50416 -0.65879 -0.12834 0.11334 -0.091271 -0.017522 0.5372 0.34896 -0.19722 -0.69111 -1.0383 0.069852 -0.20225 -0.10933 -0.12807 
name 0.048919 -0.8727 -0.099935 -0.76681 -0.17812 -0.018145 0.1119 0.32244 -0.32252 -1.173 -0.5545 -0.29994 0.35999 -0.36051 -0.098109 
copyright 0.29951 -1.0419 -0.81922 -1.0679 0.21319 -0.06971 0.0032942 0.36995 -0.094682 -1.1971 -0.31915 0.18305 0.27926 -0.73271 -0.49374 
2011年 0.19232 -0.18613 0.0032485 0.20883 0.12964 -0.26505 0.99984 -0.42263 -0.38914 0.26471 0.45226 -0.13371 -0.69537 -0.57037 -0.57111 
oclc -0.12048 -0.15387 0.016004 0.11566 -0.86654 -0.34957 -0.61387 0.25834 -0.54051 -0.078018 -1.4299 -0.33086 -0.28627 -0.12181 -0.20841 
original -0.23666 -0.91975 -0.33669 -1.0051 -0.43237 0.36317 -0.21062 0.60791 -0.12022 -1.1485 -0.7587 0.22157 0.2249 -0.51735 -0.39033 
net 0.68094 -0.45909 -0.17054 0.46114 0.47306 -0.31783 0.60037 -0.10621 0.21247 0.18098 -0.75496 -0.19544 0.018002 -0.58163 -0.67599 
power -0.050799 -0.30597 -0.10976 -0.32517 -0.8059 0.28305 0.043975 0.039117 -0.53443 -0.7595 -0.52032 0.11015 -0.52557 -0.62093 -0.47002 
islands -0.50514 -0.71359 0.11535 -0.0503 -0.043033 -0.35625 0.16546 0.64268 -0.94331 -0.24178 -0.75649 0.15771 -0.58829 -0.2173 0.03014 
bell -0.22237 0.064891 0.019816 0.48926 -0.39193 0.13806 -0.39882 0.14805 -0.3168 -1.4765 -1.8135 0.0079775 -0.029596 -0.46714 0.060181 
district -0.53389 -1.5405 0.73051 -0.90171 -0.77481 0.24922 -0.10947 0.090134 -0.48529 -0.59369 -1.088 0.34223 -0.85376 -0.22748 -0.48719 
land -0.31086 -0.34848 -0.09048 -0.050863 -0.64199 0.34283 -0.12381 0.084197 -0.81115 -0.80296 -0.55809 -0.1404 -0.36592 -0.4245 -0.2396 
4% -1.1233 0.49337 -1.3503 -0.59545 -0.41979 -0.031441 -1.2407 -0.84917 -1.2049 1.429 -0.36909 1.0862 1.0904 -0.75453 -1.022 
secretary -0.17188 -0.57454 0.43987 -0.16729 -0.30671 0.15033 0.5131 -0.28105 -0.32398 -0.11095 -0.82435 0.38688 -1.4523 -0.41765 -0.90134 
例: -0.54274 -0.3859 -0.9831 -0.50902 -1.1437 -3.1246 1.1844 -0.081552 -0.47257 2.3921 0.18963 0.016246 -0.33655 0.31222 1.3681 
louisiana -0.24324 -0.94901 0.39308 -0.1287 -0.67577 0.072939 -0.47035 0.4021 -0.77074 -0.53741 -1.1603 0.16152 -0.75507 -0.47757 -0.39517 
washingtonpost 0.71538 -1.3511 0.21323 0.058582 -0.23688 -0.35886 0.81912 0.089376 0.47355 -0.3118 -1.8033 0.44879 -0.61121 0.5886 0.042469 
burlington 0.26994 -0.9301 0.061301 0.75441 0.24705 0.37773 -0.46119 0.055246 -0.54695 -0.089287 -1.3059 0.13644 0.36824 -0.9506 -0.96503 
second 0.090238 -0.2787 -0.51565 -0.028108 -0.46758 -0.11824 -0.21003 -0.10057 -0.56539 -0.87862 -0.44951 -0.075731 0.05152 -0.23795 -0.050572 
scientific 0.13381 -1.2701 0.44757 -0.0663 -0.77279 -0.46324 -0.66791 1.1681 -0.114 -0.92141 -0.74929 -0.30206 -0.54817 -0.5077 -0.51427 
} -0.14286 -0.58498 -0.84222 -0.11512 -0.76727 -2.7501 0.61593 0.10953 1.3381 0.56027 -0.17278 1.2141 -0.68239 -1.0548 3.4255 
french -0.18532 -0.25192 -0.3835 0.28411 -0.24151 -0.083021 0.20454 0.78521 -1.0562 -0.95113 -0.51352 -0.66601 0.26725 -0.59405 0.44816 
2019年1月30日閲覧。 0.66851 0.21726 -0.29668 0.67904 0.73057 -0.70042 0.85728 -0.50279 0.19672 -0.12898 -0.56485 -0.713 0.15573 -0.27476 -0.40296 
3% -1.4896 0.81812 -1.7021 -0.67353 -0.6734 -0.19831 -1.3981 -1.3932 -1.3585 1.7279 -0.76658 1.0681 1.2137 -0.72028 -1.1731 
such 0.12674 -1.1111 -0.70605 -1.6563 0.18177 0.11069 -0.065188 0.53875 -0.0048155 -1.5486 -0.36126 0.033638 0.52412 -0.54799 -0.36055 
indian -0.6267 -0.15034 0.31756 -0.097495 -0.76229 0.3079 -0.22472 0.3864 -0.41804 -0.89364 -1.1682 0.10032 -0.50414 -0.51699 -0.63107 
jpg -0.6294 0.098286 -0.5713 0.35892 0.59881 -0.79184 0.66239 0.059821 0.14155 0.54704 -0.55338 -1.4504 1.8477 -0.64719 0.044086 
und -0.22941 -0.69243 -1.2737 1.071 -0.43531 -0.51338 -0.3216 0.12098 -1.9377 -0.8251 -0.12124 -0.3603 1.3047 0.65223 0.1837 
annual -0.053033 -1.223 -0.54771 0.10156 -0.37083 0.30307 0.29154 0.045341 -0.80701 0.1536 0.035797 0.40104 -0.53992 -0.46554 -1.1998 
final 0.13822 -0.61319 -0.077636 0.33611 -0.40003 0.18051 0.48496 -0.26941 -0.83838 -1.1284 -0.54526 -0.20039 0.067356 0.35165 -0.30997 
facts 0.29912 -1.1011 0.20346 -0.29099 -0.51812 0.2166 0.27548 -0.1833 -0.62602 -0.21541 -0.69823 0.25373 -0.93848 -0.44896 -0.84159 
180 -0.78163 -0.54605 0.54665 0.38566 -1.4257 0.37483 0.26774 -0.38069 0.96203 0.2275 0.40118 -0.70868 1.4129 -0.97095 0.31423 
see 0.212 -0.56369 -0.19734 -0.48138 -0.20689 0.068452 0.13233 0.19475 -0.54809 -0.8296 -0.77017 -0.045968 0.28967 -0.41815 0.067069 
は -0.3633 -0.060461 -0.8847 -0.11848 0.060778 -1.7798 0.55882 0.52659 0.33782 0.051042 0.20665 0.76116 -0.030817 -0.72678 1.4864 
nations 0.054899 -1.015 0.057031 -0.16231 -0.86505 0.063862 0.041141 0.11441 -0.82563 -0.27552 -0.029096 -0.18714 -0.89118 -0.43385 -0.34429 
agency 0.29231 -1.349 0.35226 0.19972 -0.59582 -0.3798 0.45209 0.50111 -1.1891 0.13525 -0.55169 -0.56357 -0.77572 -0.05618 -0.68059 
up -0.01689 -0.37376 -0.35678 -0.33508 -0.1849 -0.019176 0.21064 0.44633 -0.44661 -0.89305 -0.80328 0.075868 0.24279 -0.39249 -0.0089727 
organization 0.67584 -0.98214 -0.55112 0.067751 -0.10271 0.016939 0.049947 0.49146 -0.59397 -0.6307 -0.27598 -0.085429 -0.20048 -0.24781 -0.95786 
）。 -0.26014 -0.48385 -0.47651 -0.78443 0.08799 -0.041226 0.44334 0.057386 -0.41371 -0.74048 -0.45388 0.0065338 0.61362 -0.14076 0.2091 
game 0.41638 -0.55494 -0.32873 -0.28478 0.12144 -0.086638 0.50723 -0.089295 -0.43194 -0.42573 -1.0394 0.34395 0.29655 -0.027064 -0.12241 
nhk 1.5798 0.22161 0.31132 0.22236 0.65029 -0.77694 1.8413 -0.71492 0.65694 0.3306 -1.2733 -1.186 -0.78693 0.015241 -0.96068 
industry 0.14858 -0.63349 -0.36029 0.084985 -0.09508 0.17295 0.041675 0.29584 -0.91533 -0.40097 -0.75214 0.3116 -0.40849 -0.49366 -0.65145 
solar 0.084346 -0.26961 0.11893 0.75163 0.067173 -0.27514 -0.26367 0.94584 -0.1971 -1.0211 -0.32844 -0.51608 -0.36448 -1.07 -0.84081 
transportation 0.50698 -1.1277 0.35889 -0.0054231 -0.26423 0.25615 0.61365 0.082757 -0.45168 0.17789 -0.5237 0.25853 -0.96465 -0.70434 -0.98412 
over 0.17137 -0.60743 -0.24143 -0.1948 -0.33406 -0.03702 -0.0054902 0.21725 -0.50124 -0.7905 -0.79857 0.19355 0.13913 -0.6576 -0.22201 
natural -0.28251 -0.7799 0.45223 0.33627 -0.46998 0.03592 -0.091204 0.87095 -0.5779 -0.51863 -1.0908 0.20513 -1.0323 -0.63635 -0.66825 
program 0.066506 -0.99739 -0.13615 -0.49292 0.31557 0.035267 0.32853 0.42687 -0.30315 -0.69193 -0.26219 0.14764 -0.048664 -0.86896 -0.40287 
1987 -0.39654 0.25795 -0.098479 0.41118 -0.59099 0.040312 -0.39563 0.33579 -0.28521 -0.84328 -0.59146 -0.046502 -0.39642 -0.72707 -0.14447 
adobe 0.37267 -2.252 0.093671 -0.33396 0.88793 -1.9424 -0.57989 0.1775 0.036625 0.44537 0.45132 -0.5743 -0.052857 -0.88349 -1.1896 
please 0.42216 -0.77568 -0.46736 -1.2989 0.2196 0.070367 0.23166 -0.012963 -0.37459 -1.3281 -0.20305 -0.37294 0.6393 -0.69383 -0.079014 
he 0.33917 -0.75569 -0.44321 -0.68502 -0.1467 0.025705 0.2044 0.082222 -0.13576 -1.2296 -0.86388 0.16071 0.43145 -0.37769 0.12905 
neil 0.28467 -0.19592 -0.52736 0.25774 -0.26923 0.59211 0.10924 -0.23458 -0.23449 -2.0413 -1.2124 0.63648 0.80518 -0.46855 0.15269 
best 0.36178 -0.36886 0.030869 -0.090018 0.1873 0.19692 0.26934 -0.23328 -0.3726 -1.0237 -0.71898 0.4649 0.010483 -0.8584 -0.085516 
help 0.33509 -0.84929 -0.13057 -1.0919 0.1159 0.2282 0.2979 0.042016 -0.2485 -1.2833 -0.57584 -0.55625 0.71801 -0.43132 -0.034278 
wisconsin -0.29845 -0.14943 0.24904 0.21986 -0.56831 0.15711 -0.46942 0.057386 -0.26435 -0.69026 -1.2206 7.2525e-05 -0.51413 -0.38414 -0.6688 
standard -0.098845 -0.42027 -0.40652 -0.055762 -0.07633 -0.14559 -0.55166 0.14841 -0.4536 -0.70052 -0.57258 0.10007 -0.054119 -0.35066 -0.64595 
sankei 2.1158 -0.13205 -0.3466 0.78626 0.74451 -1.39 0.7027 -1.3213 1.4819 -0.082209 -1.256 -1.1007 -0.56365 0.084231 -0.63289 
works 0.043837 -0.42273 -0.5301 -0.78968 0.3078 0.021821 -0.15271 0.68771 -0.36182 -1.1649 -0.76383 0.11335 -0.069324 -0.88034 -0.25935 
volcano -0.58619 -1.2654 0.70727 0.073978 0.33699 -0.67348 0.24812 0.99746 0.024353 -0.48485 -0.10652 0.98019 -1.2721 -1.62 -0.015206 
mexico 0.093935 -0.5609 0.083147 -0.022714 -0.61019 0.13344 -0.074189 0.055223 -0.69997 -0.10608 -1.0186 0.22062 -0.55496 -0.455 -0.67083 
1986 -0.34433 0.22291 0.085282 0.69866 -0.62928 0.16444 -0.35568 0.22663 -0.31793 -0.82658 -0.92705 0.023905 -0.37315 -0.67532 -0.17856 
cambridge -0.121 0.246 -0.079507 0.727 -0.79229 -0.011558 -0.65165 0.49572 -0.90205 -0.53486 -1.1208 -0.31073 0.034067 -0.5348 -0.27102 
top 0.61041 -0.71296 -0.22481 0.21676 -0.13119 0.084297 0.22525 -0.18743 -0.56683 -0.15161 -0.4675 0.62706 0.18173 -0.87273 -0.47623 
2004年 -0.4368 -0.24925 0.42977 0.19227 0.065158 -0.38165 0.14278 0.041272 -0.28599 -0.23704 -0.092669 -0.010356 -0.3842 -0.62643 -0.28778 
party -0.25561 -0.50101 -0.14178 -0.44124 -0.29761 0.25976 0.046141 0.12805 -0.21584 -1.0678 -0.7322 0.042087 -0.41713 -0.44984 -0.38933 
教育 -0.32971 0.25355 0.94084 -0.22036 -0.38717 -1.2688 -0.15158 0.095999 -0.38746 -0.22341 0.79766 0.90532 1.3904 0.24295 -1.2006 
area 0.17235 -1.3598 -0.072252 -0.11082 -0.23028 0.25359 0.35995 0.038127 -1.1946 -0.048973 0.094917 0.18361 -0.41492 -0.66911 -0.7243 
century -0.068203 -0.071586 -0.0033163 0.25081 -0.70475 0.39452 -0.29216 0.19062 -0.35985 -1.1784 -1.3455 -0.042631 -0.37026 -0.4378 -0.59232 
uk 1.0526 -0.61766 -1.1064 0.30556 -0.16889 -0.3135 0.23224 -0.069938 -0.91714 0.065365 -1.3232 0.035217 0.12732 -0.034083 -0.40062 
historic -0.18447 -0.80815 0.59604 0.19509 -0.45607 0.066848 0.19711 0.15582 -0.7801 -0.60267 -1.3128 0.086474 -0.70656 -0.29047 -0.18807 
number 0.4944 -1.0117 -0.30765 -0.30724 -0.1174 -0.17102 0.080724 0.35869 -0.21524 -0.52782 -0.21339 0.21645 0.26662 -0.58656 -0.34229 
today 0.66566 -0.98461 -0.24134 -0.25486 -0.1976 -0.059467 0.61317 0.11751 -0.16804 -0.028863 -1.3047 0.30786 -0.26162 -0.11306 -0.47278 
territory -0.32499 -1.148 0.17256 -0.56734 -0.41267 -0.27403 -0.095008 0.32311 -0.49049 -0.26828 -0.84201 0.36065 -0.28973 0.17585 -0.48004 
home -0.23181 -0.64791 0.16245 -0.17412 0.12577 -0.0069769 0.48297 -0.12255 -0.90264 -0.19878 -1.1873 0.31887 -0.2761 -0.70625 -0.11124 
ltd 0.64317 -0.3288 -0.66068 0.89537 -0.15412 -0.49268 -0.07715 -0.02919 -0.91288 0.0036277 -1.3993 -0.43579 -0.05183 -0.051754 -0.32058 
art -0.33429 -0.13156 -0.33179 0.18941 -0.17605 0.21956 0.046402 0.067499 -0.9144 -0.42385 -0.99294 0.12586 0.015392 -0.44204 -0.08244 
2% -1.1265 0.37113 -1.686 -0.89238 -0.78224 -0.34422 -1.6307 -1.0341 -1.5788 1.7301 -0.36325 1.2479 1.417 -0.88137 -0.92512 
day 0.049563 -0.23372 -0.2443 -0.051935 -0.12718 0.28094 0.17237 0.078625 -0.38706 -0.95542 -0.93679 0.16398 0.028183 -0.27602 -0.14299 
arts -0.075471 -0.23823 -0.24822 0.46476 -0.058526 0.16583 0.40566 0.79216 -1.4461 -0.12817 -0.67274 -0.59176 -0.30339 -0.70477 -0.36448 
“new 0.49611 -0.31129 -0.22268 0.13938 -0.27782 -0.032798 0.30416 0.11322 -0.22205 -0.6638 -0.78296 0.28107 -0.35863 -0.72251 -0.37265 
safety 0.86086 -1.4735 0.1821 0.67789 0.07137 -0.15025 0.55671 -0.025548 -0.67266 0.45302 -0.82966 -0.28224 0.26884 -0.31041 -0.57092 
die 0.040671 -0.11728 -1.3045 1.1225 -0.79036 -0.2137 -0.013478 0.0066708 -2.0249 -0.7203 -0.53753 -0.44177 1.0952 0.446 0.46565 
pages 0.063618 -0.10502 -0.18057 0.030329 -0.60364 0.25646 -0.52794 0.46129 -0.43199 -0.63432 -0.75287 0.17885 0.52366 -0.75511 -0.11316 
china 0.29457 -0.64068 0.014949 -0.25194 -0.45458 -0.0932 0.24745 0.52755 -0.1289 -0.84833 -0.59186 0.11937 0.13905 0.0070653 -0.47882 
交通 0.93626 0.8694 0.40704 -0.40182 -1.1586 -1.5013 -0.59682 -1.0937 -0.53324 -0.3422 0.2005 0.26732 1.3914 0.69807 -1.2713 
regions 0.26769 -1.1781 0.1763 -0.75846 -1.0982 0.64345 -0.28515 -0.28099 -1.6425 -0.14176 0.82082 0.091786 -0.56126 -1.1278 -0.50546 
atlas -0.013967 -0.084731 0.57175 0.16481 -0.75661 0.098324 -0.28884 -0.39447 -0.87972 -0.41662 -0.79529 0.0093073 -1.0198 -0.90498 -0.44996 
studies 0.073013 -0.24604 0.089251 0.45123 -0.69792 0.089183 -0.27627 0.69884 -0.81458 -0.61721 -0.5924 -0.087789 -0.042382 -0.60844 -0.463 
me 0.40017 -0.74143 -0.56004 -1.0376 0.015907 -0.018004 0.20824 -0.11333 0.015317 -1.6482 -0.43122 -0.41693 0.8746 -0.2876 0.28787 
history: 0.20301 -0.49448 -0.16205 0.54004 0.40792 -0.041799 -0.53897 -1.1621 -1.0462 -0.51572 -1.1003 0.79028 -0.2592 -1.0059 -0.61472 
2012年 0.22297 -0.14877 0.33357 0.20712 0.26132 -0.76862 0.43533 -0.42831 -0.28053 0.37082 0.39797 0.072158 -0.20817 -0.90034 -0.58395 
37 -0.21171 0.19328 -0.72551 0.43916 -1.0984 -0.37166 0.1211 0.6756 0.60267 0.22785 0.45702 0.51694 0.21704 -0.51523 -0.53279 
曖昧さ回避 -1.3677 -0.067959 1.7986 -0.057865 -0.81365 0.45178 1.955 -1.3339 0.53953 -0.10864 0.35518 -0.36142 0.75022 -0.99637 0.99676 
names -0.17367 -0.55536 0.38188 -0.24812 -0.66731 -0.053928 -0.14014 0.50092 -0.51564 -0.94137 -0.44069 -0.41563 -0.60187 -0.74219 -0.50995 
sanger 0.64351 -0.53208 -0.39877 -0.19126 0.64834 0.33828 0.73918 0.59404 0.47011 -1.5079 -1.1047 0.04903 0.44394 -0.46624 0.13071 
billboard 0.70674 -0.8568 -0.6486 1.0981 0.86412 0.14587 -0.36203 -2.2081 -1.8804 0.25485 -1.2611 1.0223 0.51388 -1.8763 -0.79306 
religion -0.29079 -0.51405 -0.020592 0.37198 -0.16693 0.25359 -0.21263 0.29181 -0.91722 -0.078114 -0.49129 -0.15975 -0.22691 -0.94828 -0.79588 
1985 -0.20589 0.18513 -0.21208 0.62789 -0.55865 0.1419 -0.3183 0.15815 -0.58337 -0.77562 -0.70177 -0.22976 -0.23405 -0.65057 -0.063554 
michigan 0.045456 -0.78498 0.26436 0.056203 -0.52096 0.25631 -0.10784 0.23195 -0.62221 -0.37293 -0.73854 0.35183 -0.73467 -0.69799 -0.54107 
58 -0.20827 -0.24746 0.16761 0.99051 -1.2 0.26281 -0.15948 0.13326 0.96353 0.10085 0.13989 -0.4166 1.1349 -0.90022 -0.57459 
london 0.25681 -0.033258 -0.11436 0.60504 -0.46568 -0.23519 -0.25312 0.31976 -0.49583 -0.62151 -1.291 -0.19323 -0.15149 -0.24844 -0.18692 
microsoft 0.3085 -0.32378 -0.70328 -0.081653 0.88612 -0.27692 0.76355 0.32542 -0.6947 0.2273 -0.31339 0.20412 0.3016 -1.1142 -0.11172 
make 0.29536 -0.60681 -0.61221 -0.78355 0.35111 0.057327 0.11605 0.22247 -0.15957 -1.1507 -0.61947 0.065802 0.41682 -0.58943 -0.16707 
gpl 0.10937 -0.51292 -1.245 -0.5675 0.94379 0.063468 -0.14437 -0.063257 -0.046249 -0.87638 0.036439 0.191 0.15047 -1.162 -0.45001 
text 0.10308 -0.61086 -0.83925 -0.88437 -0.30012 0.06551 -0.47212 0.49383 -0.88058 -1.1476 -0.71898 0.096242 0.37712 -0.4996 -0.086112 
1988 0.05399 0.14195 0.058803 0.69792 -0.77261 -0.01023 -0.4079 -0.024116 -0.53854 -0.73679 -0.69891 0.11198 -0.38338 -0.67061 -0.16999 
maryland -0.13211 -0.48265 0.28044 -0.14188 -0.51614 0.39814 0.008707 0.20916 -0.31821 -0.54528 -1.0275 0.17559 -0.77698 -0.71537 -0.51229 
code 0.093511 -0.63456 -0.72593 -0.74138 0.40132 0.096403 0.028394 0.27511 -0.23115 -0.79195 -0.4824 0.12561 0.074979 -0.67516 -0.57448 
systems 0.34763 -0.97377 -0.23046 0.25729 -0.023503 -0.49488 -0.37526 0.69261 -0.5416 -0.46422 0.11589 -0.16765 -0.16428 -0.84711 -0.69498 
legal 0.27545 -0.76023 -0.53461 -0.54953 0.134 -0.030362 0.052249 0.13828 0.0020066 -1.0858 -0.26111 0.083257 -0.047646 -0.67969 -0.38294 
cm 0.13787 0.24417 -0.97453 -0.19977 -1.8766 -0.46439 -0.6112 1.1275 0.58513 0.33117 0.20141 0.63021 1.2152 -0.87349 0.027524 
1% -1.0952 0.53571 -1.4141 -0.83762 -0.52274 -0.26272 -1.1797 -0.81507 -0.88617 1.5913 -0.51214 1.004 1.4178 -0.84153 -0.85407 
local 0.3661 -1.1154 -0.061482 -0.48381 -0.21821 0.40054 0.33763 0.1206 -0.69924 -0.48578 -0.27743 0.11586 -0.079082 -0.72895 -0.46421 
initiative 0.40184 -0.43768 -1.3198 0.078808 1.4777 0.43479 0.28164 0.075219 -0.27114 -0.80344 0.078125 0.62203 0.23511 -1.6709 -0.981 
tennessee -0.21927 -0.21977 0.27049 0.37221 -0.55994 0.39048 -0.53233 0.16587 -0.78189 -0.64779 -1.1837 0.48547 -0.53038 -0.47725 -0.5669 
mit 0.11573 -1.0149 -0.80991 0.92627 0.34808 -0.2694 -0.16377 0.37353 -0.84828 -0.20675 -0.49234 -0.026169 0.63952 -0.27459 -0.37007 
1982 -0.29329 0.16529 -0.1594 0.66924 -0.75164 -0.11499 -0.45502 0.14998 -0.54879 -0.66769 -0.86323 -0.056631 -0.38475 -0.62197 0.037928 
through -0.037723 -0.24633 -0.19211 -0.50819 -0.33839 0.0090615 -0.13619 0.34367 -0.13428 -1.1879 -1.1148 -0.049703 0.024121 -0.5813 -0.29908 
39 -0.41273 0.10482 -0.37231 0.25694 -1.0938 -0.27887 0.067489 0.29014 0.87556 0.34673 0.081094 0.38004 0.34194 -0.66946 -0.09967 
these 0.12321 -0.79052 -0.51702 -0.95554 0.034265 0.25393 0.021429 0.42686 -0.29103 -1.4861 -0.68237 -0.25063 0.68474 -0.6096 -0.13345 
also 0.23688 -0.69361 -0.3973 -1.0322 -0.23728 0.17574 0.00063904 0.37797 -0.18926 -1.3426 -0.70864 -0.10541 0.695 -0.51277 0.063725 
35 -0.28952 -0.14305 -0.70529 0.15308 -1.3783 -0.28501 -0.13924 0.90842 0.47013 0.4313 0.17296 0.48748 0.47088 -0.4487 -0.37419 
flightglobal 1.8934 -1.1235 -0.52841 1.1248 0.17842 -0.9177 0.1085 -1.0566 0.026226 0.56713 -0.5381 -0.46033 0.13501 0.010708 -1.0201 
iii -0.5322 0.27951 -0.52702 0.039454 0.040598 -0.50092 -0.36234 -0.15083 -0.2431 -1.1549 -0.97075 -0.17441 0.055693 -0.13958 0.098318 
watch 1.171 -0.44506 -0.37092 -0.045239 0.47579 -0.6603 1.142 -0.60386 0.16857 -0.041665 -0.80156 0.95434 -0.18345 -0.57393 0.41788 
usa 0.50496 -0.85804 -0.4522 -0.23361 -0.33976 -0.0619 0.47301 0.36997 0.27053 0.24508 -1.1315 0.39099 -0.18639 -0.23197 -0.70087 
“state 0.33906 -0.96904 0.16952 -0.13143 -0.34261 0.40543 0.34355 -0.41871 -0.71816 -0.02513 -0.31617 0.19811 -0.88375 -0.66473 -0.99999 
documents -0.17728 -0.91852 -0.54434 -0.83669 -0.33423 0.058695 -0.68795 0.19799 -0.55054 -0.52321 -0.99695 0.19978 -0.46389 -0.42321 -0.71432 
puerto 0.48659 -1.1725 0.29536 -0.40199 -0.88461 0.56822 -0.14474 -0.7981 -2.5014 0.17944 1.08 0.48049 -0.02742 -1.1059 -0.061478 
transit 0.80461 -0.54762 0.6357 0.1331 -0.661 0.051559 1.032 0.92766 -0.58201 -0.6302 -0.81362 0.50908 -0.72924 -0.55617 -0.25567 
gaiman 0.44827 -0.45651 -0.42987 0.35428 -0.059348 0.4453 -0.2363 -0.39874 -0.087736 -2.2357 -1.1026 0.58784 0.55799 -0.40596 0.41202 
モバイル編集、モバイルウェブ編集 -1.7513 -2.0601 0.44728 0.88751 -2.1988 0.52102 0.73917 -1.3941 2.0096 0.65898 -0.31233 -1.5548 1.9276 -0.11705 1.5968 
stephen -0.12726 0.068136 -0.40479 0.66949 -0.23283 0.14623 -0.14816 -0.37456 -0.31089 -1.2242 -0.71706 0.069948 -0.24415 -0.69061 0.069773 
europa 0.39035 -0.34361 -0.002689 0.93948 0.066639 -0.081417 0.10811 0.7901 -0.29614 -0.88025 -0.23011 -0.3841 -0.054929 -0.92406 -0.70229 
been 0.1822 -0.92771 -0.6041 -0.9727 0.051246 0.37804 0.022846 0.40299 0.20678 -1.4898 -0.70312 0.16849 0.7628 -0.56979 0.13594 
255 -0.12673 0.64489 -0.71467 0.39328 -0.17203 0.019465 1.419 0.1541 1.0335 0.64524 0.51877 -0.46365 2.2039 -1.5565 0.71997 
2001年 -0.31276 0.14793 0.4103 0.46551 0.017772 -0.37312 0.41521 -0.05598 -0.44781 -0.29303 -0.22362 0.058837 -0.63332 -0.44119 -0.15802 
80 -0.44547 -0.11808 -0.054431 0.46501 -1.4143 -0.14386 0.095388 0.29501 0.53606 0.51775 -0.0061658 -0.22381 0.53551 -0.90539 0.22808 
1976 -0.14476 0.13274 -0.15557 0.36498 -0.65116 0.26221 -0.26869 0.05813 -0.76089 -0.781 -0.60461 0.017479 -0.12256 -0.53581 0.037175 
some 0.29517 -0.63813 -0.48677 -0.99885 0.087733 -0.098465 0.076245 0.15981 -0.19595 -1.3763 -0.47759 -0.11541 0.4433 -0.71532 -0.092807 
2011年5月5日閲覧。 0.58996 -0.64101 0.08017 0.8835 0.51769 -0.21512 0.44738 0.75403 -0.28899 -0.49252 -0.64967 -0.040627 -0.43075 -0.72412 -0.59012 
air 0.44718 -0.95102 -0.021924 0.070943 -0.53473 -0.0096359 0.57168 0.30207 -0.74894 -0.20212 -0.35862 0.12197 -0.015387 -0.34048 -0.30192 
cultural -0.17239 -0.32673 -0.23709 0.17696 0.038885 0.1362 -0.17006 0.40908 -0.51128 -0.5558 -0.99181 0.18018 -0.28114 -0.77749 -0.59692 
access 0.35663 -0.65516 -0.42509 -0.10269 -0.027707 0.2268 0.10445 0.69049 0.064206 -0.45147 -0.35662 0.20764 -0.062193 -1.1084 -0.53758 
database 0.99767 -1.2021 -0.13987 0.27914 -0.41819 0.37367 0.15134 -0.13665 -0.02624 -0.82672 -0.24491 0.5568 -0.09434 -0.37173 -0.93797 
when 0.45893 -0.874 -0.56136 -1.1123 0.06127 0.13356 0.016558 0.098385 -0.10628 -1.5704 -0.73829 0.050253 0.46491 -0.72315 -0.0087694 
67 -0.28925 -0.32702 0.03686 0.75454 -1.1952 0.083453 -0.015996 0.19269 1.0595 0.55267 0.29766 -0.4889 1.328 -1.0006 -0.33543 
10月1日 -0.87023 2.7285 0.63903 -1.4269 0.28294 -0.93172 1.7008 -0.67875 -0.10483 0.21196 -0.0041859 -1.0832 -0.19481 -2.0537 -0.44204 
arizona -0.1601 -0.58444 0.11471 0.21765 -0.47093 0.056778 -0.13349 0.42982 -0.28277 -0.3438 -1.1005 -0.19097 -0.60878 -0.4758 -0.62171 
34 -0.14898 0.22206 -0.56964 0.44896 -1.4026 -0.33563 -0.1164 0.38496 0.85951 0.43105 0.19118 0.4673 0.53448 -0.31141 -0.57621 
jersey 0.25161 -0.14254 -0.15478 -0.063238 -0.66248 -0.29193 -0.11734 0.31651 -0.079403 -0.27941 -1.2364 0.71478 -0.56705 -0.29765 -0.2 
arkansas -0.27284 -0.50533 0.36699 -0.087109 -0.6701 0.064573 -0.47055 0.15737 -0.8591 -0.43346 -0.91339 0.24222 -0.59103 -0.5235 -0.52845 
2018年6月17日閲覧。 0.49108 -0.54875 0.39085 0.74171 0.18359 -0.33778 0.45566 0.22866 0.043785 -0.63053 -0.18454 -0.89952 -0.23277 -0.88302 -0.56154 
や -0.10542 0.089452 -0.72165 -0.039795 -0.011885 -1.3687 0.47904 0.34998 -0.18759 -0.46871 0.46043 0.61978 0.17542 -0.83924 0.983 
bot 0.24526 -0.75719 -0.32892 -1.3131 -0.25288 0.53856 0.092985 0.017149 0.40127 -1.9279 -0.46882 -0.45763 0.99534 -0.67448 0.31691 
1016/j 1.0522 0.283 -0.86162 1.4646 -1.5177 0.0087269 0.043976 1.2192 0.209 -0.07381 0.95309 0.23142 0.31602 -1.0378 -1.1232 
florida 0.083155 -0.7271 0.081984 -0.094931 -0.60989 0.18971 0.047544 0.30655 -0.34365 -0.50756 -1.0492 0.24309 -0.60533 -0.33144 -0.47788 
mississippi -0.40212 -0.16738 0.13008 0.073391 -0.64764 0.047074 -0.63869 0.13617 -0.43808 -0.85465 -1.2247 0.027257 -0.52127 -0.60281 -0.53405 
－ -1.4675 -0.30282 -2.5375 0.088699 1.2743 -1.9245 0.73283 0.61255 2.2076 0.11726 2.8876 -1.1072 0.44047 -0.24556 -2.5987 
licenses 0.22149 -0.48362 -1.4049 -1.2227 0.84559 0.27157 -0.091275 0.40946 0.0010176 -1.187 -0.0031891 0.19034 0.31487 -1.194 -0.81294 
https://books 0.10474 0.42543 -0.50108 -0.28233 -1.0503 -0.88808 -0.81427 0.2901 -0.66979 0.5406 -1.8063 -0.51241 0.083644 -0.56654 0.31546 
塩尻駅 -2.8322 0.88281 -0.2956 0.50893 1.2299 -3.0313 0.94125 1.078 0.29158 1.4348 2.4177 -1.4718 -0.2151 -2.1031 -0.98031 
state” 0.49589 -1.0364 0.14427 -0.12122 -0.27954 0.1571 0.13431 -0.75027 -0.60448 -0.16747 -0.28069 0.06337 -0.80313 -0.5879 -1.3509 
factfinder 1.0261 -1.4827 0.18252 -0.3884 -1.4572 0.1839 -0.33422 -1.2354 -1.1468 -0.2243 1.0209 -1.6905 -1.4596 -0.80323 -1.0289 
sciences 0.10192 -0.27339 -0.21105 0.53162 -0.46222 0.1101 0.13347 1.3855 -0.94055 -0.4416 -0.64672 -0.50974 -0.33961 -0.54794 -0.6319 
2nd -0.36067 0.18482 -0.16168 0.60098 -0.25079 -0.050632 -0.57098 0.30388 -0.80835 -0.69045 -1.382 -0.18043 -0.27151 -0.74743 -0.44175 
british 0.051181 -0.38109 -0.45844 0.34222 -0.60583 -0.26782 0.11272 0.09286 -0.87902 -0.70017 -1.0452 -0.53869 -0.33491 -0.0586 -0.23816 
46 -0.17396 0.62364 -0.60054 0.61853 -1.2198 -0.09732 -0.17401 0.93207 0.66466 0.27794 -0.11736 0.57957 0.25485 -1.0276 -0.10375 
wales 0.05508 -0.31891 -0.58061 -0.27886 0.39855 0.18373 0.95433 0.45138 0.10668 -0.79124 -1.2343 0.43037 0.28962 -0.6856 0.4684 
+4‎ -0.81051 -0.48728 0.64218 0.85714 -0.74134 0.57067 1.1466 -1.6306 1.4299 -0.041621 0.1538 -2.0622 1.9298 -1.1912 0.081689 
返信 0.1083 0.014547 -0.3353 0.57761 -0.069939 0.29335 1.6046 -0.96858 1.4108 0.0071641 0.28045 -2.077 1.7193 -0.96638 0.13129 
