27685 15
. -0.14186 0.021034 -0.13907 -0.30865 -0.28798 0.20629 -0.26938 0.076312 -0.11901 0.11077 -0.34724 -0.11073 0.17646 0.32183 0.075344 
</s> 0.032698 -0.026469 -0.19389 -0.4976 -0.14622 0.31372 0.10784 -0.10031 -0.24261 -0.11945 0.080109 -0.21711 -0.15567 0.25264 0.12521 
- -0.1068 0.20981 -0.61828 -0.40466 0.56472 -0.019843 0.58906 -0.86552 -0.56359 -0.25312 0.7611 -0.39867 0.33517 0.39511 0.46258 
^ -0.22347 -0.35567 -0.20954 -0.34147 -0.37599 0.50575 -0.61477 0.056726 -0.24778 -0.41528 0.085338 0.14411 -0.18222 0.38917 0.1013 
2 -0.19279 -0.14561 -0.64686 -0.59407 -0.55047 -1.0275 0.2552 -0.59947 -0.35167 1.3376 -0.0051514 0.24852 1.051 0.3996 -0.13934 
1 -0.44272 0.16042 -0.53186 -0.54397 -0.40119 -0.68274 0.1114 -0.37595 -0.16946 1.4047 0.096996 0.1075 1.08 0.30565 -0.11874 
3 -0.324 0.027199 -0.57362 -0.82219 -0.061799 -0.53749 0.27074 -0.83659 -0.43823 1.5365 0.10486 0.34837 0.74274 0.40269 -0.12952 
the -0.62518 0.068761 -0.024386 0.54604 -0.50862 0.50894 -0.84214 0.022997 0.16462 0.16715 -0.038074 -0.4312 0.011844 0.35093 -0.45778 
of -0.48556 0.16702 -0.053849 0.59693 -0.24508 0.27725 -0.81024 -0.10095 0.06141 0.15069 0.099096 -0.32424 -0.34669 0.82515 -0.34009 
4 -0.21514 -0.078201 -0.7556 -0.77437 -0.36093 -0.74287 0.28397 -0.87914 -0.28531 1.5855 -0.05579 0.32196 0.6485 0.45189 -0.18525 
a -0.41379 -0.31921 -0.17637 0.29601 -0.16507 0.47103 -0.9475 0.0024765 -0.24808 -0.18586 -0.074831 -0.17789 0.12442 0.30459 -0.26712 
and -0.65307 0.085889 -0.13387 0.61082 -0.27695 0.30607 -0.88042 -0.089264 0.058314 0.076263 -0.1955 -0.37223 0.024335 0.79686 -0.38293 
5 -0.20686 -0.081343 -0.41584 -1.1217 -0.22474 -0.51063 0.35552 -0.81092 -0.33524 1.6356 0.049561 0.55539 0.72869 0.59788 -0.20872 
6 0.010852 0.073235 -0.43641 -1.0729 -0.019572 -0.48471 0.34242 -0.80758 -0.35293 1.3269 0.17516 0.37329 0.91591 0.62756 -0.23934 
b -0.25858 -0.26007 -0.21322 -0.37175 -0.10656 0.16844 -1.12 0.065651 -0.51077 -0.52519 -0.039659 0.18025 0.14637 0.24392 0.28035 
in -0.69442 0.12677 -0.03555 0.67799 -0.55486 0.49542 -0.83543 -0.088376 0.071621 0.12888 -0.031885 -0.40172 0.048208 0.60415 -0.54991 
/ 1.3203 1.1699 0.44121 -0.91147 0.46078 -0.95849 0.58226 -0.59544 0.12386 0.099007 0.395 -2.2462 -0.13147 1.6186 0.068743 
7 -0.10158 0.019473 -0.29814 -1.3325 0.080158 -0.49268 0.21404 -0.75534 -0.55525 1.5752 -0.17165 0.15857 0.74761 0.86485 -0.39316 
c -0.33775 0.061339 -0.18313 -0.1081 -0.41461 0.083966 -1.3052 0.33453 -0.7367 -0.60376 -0.23317 0.12503 -0.0052725 0.30481 0.16666 
8 -0.15938 0.074514 -0.75458 -1.028 -0.064206 -0.36368 0.28888 -0.81128 -0.069553 1.6607 0.062103 0.42391 0.81981 0.7459 -0.2725 
utc 0.68844 -0.96564 0.29948 -1.6329 0.056668 0.16492 0.6919 -0.42667 -0.28798 -0.95351 -1.0573 -2.1097 0.40705 0.16369 -0.0982 
to -0.41508 -0.36894 0.19873 0.56365 -0.17192 0.69129 -0.65071 -0.026539 0.25229 0.20523 0.11223 -0.55742 0.054298 0.56866 -0.32799 
isbn -0.98933 0.88302 0.26776 0.16373 -1.2697 0.41295 -0.36643 -0.086929 0.10378 0.35326 -0.49947 -0.08158 -0.25227 0.0068159 0.014411 
テキストはクリエイティブ・コモンズ 0.29325 -0.68799 -1.1838 -1.0129 1.3276 2.0353 -0.66587 0.58645 0.95063 -0.5337 1.8929 -1.0545 -1.399 -1.1841 -1.5112 
表示-継承ライセンスの下で利用可能です。追加の条件が適用される場合があります。詳細は利用規約を参照してください。 0.57583 -0.36987 -0.29481 -1.3276 1.2911 1.5182 0.49454 -0.04892 1.0875 -0.71487 1.2085 -3.6636 -1.4643 -1.72 -2.5351 
p -0.63785 0.8406 -0.23279 -0.27064 -0.54797 0.20371 -0.88831 0.16977 -0.26995 0.16061 -0.59633 -0.17172 0.40774 0.13924 0.11775 
http://www -0.10371 -0.49029 -0.22655 -0.3501 -0.85079 1.0689 0.25835 0.41218 -0.30194 -0.52859 -0.080836 0.43259 -0.18628 0.81573 0.16802 
pp -0.6261 0.82689 -0.36271 -0.038097 -0.80721 0.21087 -0.48626 0.084914 -0.21061 0.23829 -0.84288 -0.168 0.086809 0.17346 0.23014 
9 -0.3774 -0.091012 -0.75148 -1.1735 0.11517 -0.28331 0.069797 -0.39534 -0.36743 1.5627 -0.197 0.025778 1.226 0.3885 -0.46814 
for -0.42126 -0.15987 -0.088241 0.5297 0.00077908 0.21593 -0.50334 -0.064935 0.080987 0.19477 0.12634 -0.45188 -0.054668 0.91078 -0.11081 
pdf -0.20006 -0.20975 -0.28512 -0.1042 -0.15224 0.18341 -0.1052 0.35368 -0.45568 -0.095614 -0.085279 0.3417 -0.19629 1.2142 0.28561 
” -0.33631 -0.49645 -0.049921 -0.13739 0.13182 0.55136 -0.55085 0.18138 -0.17967 0.121 0.099633 0.1861 -0.22353 0.93625 0.21402 
10 -0.18679 0.32543 -0.47435 -0.88157 0.064574 -0.17575 -0.25054 0.091966 -0.2757 1.3391 -0.20407 -0.045031 1.1786 0.64557 -0.36459 
d -0.46274 0.14027 0.081575 -0.27377 -0.42003 0.065886 -1.6881 0.42301 -0.59435 -0.48314 -0.43782 0.19924 0.070693 0.51502 -0.0027781 
: 0.066425 0.50672 -0.34354 0.3568 -0.44231 0.37714 -0.28035 0.16808 -0.4489 0.46839 -0.68705 -0.12642 0.26704 0.62097 0.53093 
履歴 1.3545 0.415 0.75167 -1.8089 0.35835 -0.85665 0.57743 -0.32116 -0.10815 -0.60435 -0.26223 -2.4338 0.035177 1.5769 -0.071593 
html -0.13811 -0.85263 -0.082205 -0.48451 -1.0002 1.3409 0.35405 0.54158 -0.16407 -0.80449 0.0057304 0.55483 -0.32473 0.59759 0.21933 
new -0.592 0.26952 -0.0086279 0.17711 -0.963 0.47544 -0.73594 0.0033857 0.29373 -0.096749 -0.25415 -0.34158 -0.14002 0.29989 -0.37686 
m -0.37326 0.59093 0.15169 -0.53175 -0.23035 0.00097299 -1.5371 0.094196 -0.34953 -0.011154 -0.45001 -0.42423 0.56568 -0.014557 0.4025 
on -0.51839 -0.055221 -0.15608 0.49869 -0.29091 0.69867 -0.68102 0.22332 0.089069 0.16614 -0.04649 -0.46256 0.13634 0.77725 -0.50708 
university -0.91307 0.81163 -0.083441 0.32942 -1.1006 0.19405 -0.58586 -0.16815 0.26908 0.2069 -0.22856 -0.34694 -0.63271 0.34481 -0.51488 
s -0.75785 0.27412 0.15585 -0.15785 -0.24997 0.021522 -1.1962 0.32564 -0.2581 -0.39357 0.11235 -0.022565 0.34002 0.79692 -0.24364 
| 0.72826 0.36929 1.4433 -2.3307 -0.75062 1.1381 0.13025 0.39329 1.2866 0.42501 0.073579 -0.81137 0.12729 0.67635 0.59946 
– 0.61398 0.52086 0.28477 -0.35609 -0.11665 0.75289 -0.84598 -0.42647 0.10642 0.52299 1.2763 0.3008 -0.21271 0.49845 -0.093955 
state -0.7572 0.42225 0.038699 0.4318 -0.50064 0.2129 -0.7039 0.090818 0.21228 -0.043357 0.51453 -0.31575 -0.36857 0.68238 -0.54507 
e -0.46796 0.28014 0.04635 -0.17582 -0.66741 -0.012012 -1.9228 0.25016 -0.64821 -0.35133 -0.37263 0.0465 0.4439 -0.036871 -0.012995 
‎ 1.1353 0.75981 1.8841 -3.0559 -0.15323 0.19778 -0.55672 0.21562 0.54146 0.64006 -0.81121 -1.9227 0.54929 1.1787 0.8171 
press -1.013 0.97734 -0.060975 0.34572 -1.0979 0.37887 -0.65799 -0.10505 0.28344 0.35967 -0.51691 -0.331 -0.44964 0.20532 -0.19937 
11 -0.4698 0.27113 -0.99201 -0.78782 0.33965 0.057967 -0.12539 -0.083954 -0.1801 1.6103 -0.21092 0.10974 1.0833 0.45183 -0.53992 
by -0.49859 -0.070579 0.065671 0.35837 -0.14985 0.33782 -0.95903 -0.21113 0.27509 0.079 0.20132 -0.30432 -0.085739 0.68929 -0.12841 
j -0.40176 0.17008 0.0077026 -0.0095525 -0.18735 0.0090229 -1.7479 -0.17683 -0.41291 -0.19787 -0.64405 -0.055819 0.31171 0.35897 0.12602 
history -0.69037 0.48608 -0.042505 0.41653 -0.87292 0.18716 -0.87182 -0.13411 0.1221 0.077442 -0.18362 -0.40836 -0.38796 0.34436 -0.50704 
12 -0.26145 0.38499 -1.3661 -0.96258 -0.090918 0.15007 -0.16803 -0.14835 -0.037026 1.6021 -0.21606 0.13198 0.8696 0.29186 -0.6345 
会話 1.0072 0.3594 1.3 -1.8797 -0.29796 -0.13812 -0.26147 0.048424 -0.023169 0.24282 -0.54486 -2.3596 0.43648 0.33103 0.36606 
com -0.23253 -0.33679 -0.29143 -0.0012302 -0.54164 0.6809 -0.2438 0.2608 0.041615 -0.19102 0.1892 0.21482 -0.46166 0.82951 0.17233 
united -0.70389 0.32193 0.24815 0.045019 -0.34036 -0.022088 -0.66098 0.57654 0.393 -0.046887 0.64113 -0.14849 0.01527 1.2459 -0.67344 
ログ 2.1577 1.2183 0.52528 -0.87895 0.55359 -1.568 0.75268 -0.73706 -0.036751 0.18749 0.30432 -2.5024 -0.55322 2.209 -0.00055995 
states -0.89088 0.42918 0.27061 0.2291 -0.28153 0.031425 -0.77001 0.50534 0.46884 0.021528 0.74648 -0.012777 0.24926 1.2323 -0.4828 
co -0.27854 -0.41508 0.022906 -0.59948 -1.1333 1.5515 0.18686 0.36346 -0.32778 -0.91284 -0.085159 0.587 -0.46297 0.28152 0.44382 
at -0.11091 0.092454 -0.54943 0.49414 -0.2752 1.0634 -0.48585 0.15607 0.31239 -0.15285 -0.10364 -0.404 -0.071109 0.42066 -0.69359 
i -0.25162 -0.33481 0.14554 0.32154 -0.09859 0.2814 -1.5448 0.14219 -0.19299 -0.046145 0.10141 -0.59851 0.73092 -0.27317 0.063883 
f -0.38844 0.090255 0.092994 -0.34841 -0.19746 -0.025507 -2.0506 -0.036644 -0.60763 -0.50534 -0.63243 0.015859 0.20561 0.23057 0.13583 
news 0.034483 -0.70522 -0.39993 -0.30382 -0.80085 0.94021 0.19958 0.40171 0.064812 -0.75385 0.022622 0.17816 -0.033912 0.66982 -0.12673 
is -0.4987 -0.56618 0.13507 0.648 0.070135 0.91942 -0.58065 -0.07555 0.26523 0.27372 -0.043761 -0.61287 0.047498 0.66191 -0.36042 
h -0.51997 0.083503 0.15883 -0.28338 -0.66675 -0.13127 -2.1112 0.070437 -0.39658 -0.42947 -0.41743 -0.035699 0.39545 -0.1307 0.062437 
& -0.60418 0.10675 -0.13094 -0.0056601 -0.65125 0.28723 -0.56429 -0.05264 0.014571 0.0057943 -0.10457 -0.18446 -0.41633 0.46301 0.070626 
g -0.53064 -0.32058 -0.011179 -0.23319 -0.17125 -0.12828 -2.059 0.30553 -0.63639 -0.44734 -0.32404 -0.094642 0.21963 0.13255 0.18546 
from -0.44245 -0.018885 -0.14793 0.62454 -0.040953 0.46416 -0.80319 -0.02917 0.17529 0.21688 -0.05293 -0.51424 -0.069202 0.78963 -0.18702 
doi:10 0.21218 0.99767 -0.83548 0.30415 -0.097688 0.31332 -0.32979 0.39835 -0.36743 0.76499 -1.0546 -0.36779 0.44792 1.148 0.62729 
american -0.72981 0.69618 0.0053948 0.6492 -0.62949 0.15707 -0.76324 0.13245 0.20282 0.09919 0.14587 -0.24335 -0.012589 0.72756 -0.32139 
u -0.60635 0.40737 0.18176 -0.11977 -0.20992 0.071075 -0.98893 0.52463 -0.071065 -0.47722 0.54847 0.092573 0.20406 0.87773 -0.48641 
de -0.77729 -0.08412 -0.93877 0.67371 -0.87702 -0.24591 -0.56839 0.60825 -0.247 0.53345 0.061214 -1.0416 -0.015595 -0.20218 0.52969 
0 -0.53785 0.55902 -0.30405 -0.72262 0.60192 0.77138 -0.02928 0.47207 -0.48337 0.68716 0.045099 -1.0747 0.3483 -0.053965 1.1236 
or -0.35347 -0.66216 0.094558 0.58744 0.26826 0.91591 -0.67469 -0.12774 0.18169 0.40101 0.13075 -0.58294 0.34558 0.56865 -0.19296 
census -0.94864 0.61087 -0.033683 -0.089852 -0.018438 0.29388 -0.43439 0.88242 0.80976 -0.6135 0.88704 0.32765 0.30891 1.7176 -0.34912 
“the -0.64689 -0.070753 -0.14397 0.20465 -0.38587 0.54306 -1.0781 0.14399 -0.14642 0.10378 -0.13466 -0.3284 -0.14595 0.33094 0.012165 
編集 1.2315 0.39756 1.6349 -2.5809 -0.36775 0.28626 -1.1293 0.51586 1.4149 1.114 -0.40913 -1.4063 0.37886 0.66611 0.64728 
← 1.2508 0.45648 1.5394 -2.7937 -0.50304 0.52754 -0.56251 0.4537 1.7717 1.0116 -0.51861 -1.334 0.12381 0.93955 0.94422 
13 0.040871 0.35293 -0.92093 -1.1612 -0.0038785 0.087322 -0.47659 0.14878 0.076183 1.2546 -0.26968 0.17456 0.93196 0.45761 -0.33402 
r -0.95394 0.60742 -0.022113 -0.20098 -0.49895 0.053829 -1.8199 0.12694 -0.51218 -0.37318 -0.60746 -0.37609 0.40843 -0.01784 -0.15401 
national -0.47918 0.33552 -0.30855 0.51009 -0.24499 0.17263 -0.38179 0.48831 -0.30931 -0.063268 0.44484 -0.29643 -0.51122 1.2699 -0.45093 
英語 -0.28222 -0.46321 -0.30669 0.044808 -0.65929 0.5851 -0.21825 0.55748 -0.40396 -0.22947 0.39268 -0.072914 -0.4312 0.91989 -0.23515 
リンク 2.2871 0.46835 1.7569 -3.017 -0.59194 0.027325 -0.59868 0.42106 1.6158 0.99495 -0.20532 -1.1929 0.51974 1.3892 0.35452 
with -0.50447 -0.4097 0.12154 0.67589 -0.35024 0.58399 -0.69314 -0.030249 0.032197 0.30548 -0.066004 -0.56009 0.092254 0.55372 -0.2158 
retrieved -0.11135 0.20999 -0.71651 -0.18962 -0.45204 0.83753 -0.4619 0.70536 0.31205 -0.012654 0.03236 -0.010929 0.043058 0.8214 -0.41112 
日 0.96291 -1.1976 0.41327 -1.8208 -0.1216 -0.01824 0.46448 -0.35814 -0.034307 -0.78469 -1.0404 -1.9085 0.40674 0.53571 -0.13122 
土 0.76179 -1.0152 0.64631 -1.757 -0.065244 0.040042 0.57123 -0.52026 -0.022253 -0.96198 -0.81853 -2.0198 0.49249 0.21936 0.013715 
as -0.42509 -0.44625 -0.036085 0.8647 -0.014191 0.76235 -0.77874 -0.1602 0.22375 0.35236 -0.048664 -0.60585 0.23769 0.63878 -0.30842 
archive -0.027877 -0.58758 -0.36019 -0.38861 -0.7759 1.5659 0.29657 0.71939 -0.21849 -0.52419 -0.30253 0.19491 -0.32759 0.46375 -0.31417 
2008 -0.32434 0.59253 -0.54302 0.041419 -0.27212 0.33413 -0.91741 0.39568 0.40789 0.28799 -0.34583 -0.16106 0.25229 0.56356 -0.016576 
差分 1.2993 -0.67864 0.94772 -2.3571 0.056948 -0.11619 0.22687 -0.27163 -0.1498 -0.78278 -0.92521 -2.5274 0.55941 0.76196 0.1293 
ed -0.84059 0.60572 0.01699 0.23281 -1.1496 0.13731 -0.92734 -0.0176 0.04757 0.25491 -0.57363 -0.25291 -0.11254 0.25871 -0.19958 
" -0.33721 0.068762 -0.18435 0.33073 -0.39774 0.64952 -0.59434 -0.058722 0.3715 0.092249 0.083904 -0.31628 -0.05174 0.37593 -0.29293 
free -0.62796 -0.26289 -0.40088 0.42957 0.46841 0.87888 -0.80832 0.13142 0.12151 0.7498 -0.13997 -0.42779 -0.57112 0.54363 0.39739 
l -0.63244 0.27204 0.22045 -0.36857 -0.40069 0.071134 -2.0377 0.19705 -0.5102 -0.49873 -0.55447 -0.27791 0.3412 0.066777 0.012918 
world -0.53576 -0.038777 -0.30908 0.55269 -0.67046 0.29029 -0.26765 0.089917 0.0039971 0.13709 -0.016002 -0.25623 -0.39845 0.92827 -0.28852 
2000 -0.71412 0.69038 -0.16541 0.26453 -0.38554 -0.14319 -1.042 0.32937 0.26665 0.15991 -0.16552 -0.12452 0.32555 0.57066 0.020242 
木 0.79523 -0.80662 0.46848 -1.8064 -0.067865 0.095756 0.39479 -0.34263 -0.0017364 -1.0634 -0.73519 -1.9628 0.24541 0.26637 0.06496 
km -0.3674 1.6825 -0.4794 -0.87103 0.26801 1.0593 0.42156 -0.39241 -0.24872 1.0181 -0.2874 -0.68713 1.3531 0.08991 0.58461 
w -0.86522 0.31568 0.49516 -0.13518 -0.67762 0.14899 -1.639 -0.10737 -0.31999 -0.29795 -0.5479 -0.11549 0.23475 0.14726 -0.087817 
n -0.45305 0.5369 0.54836 -0.87118 -0.27145 -0.14898 -1.5685 0.33797 -0.83833 -0.58019 -0.39128 -0.53105 0.56933 0.11274 0.13316 
an -0.70835 -0.17371 -0.063609 0.68631 -0.21569 0.58014 -0.90662 -0.14141 0.040304 0.15904 -0.28888 -0.50869 0.299 0.48773 -0.19942 
月 0.82295 -0.86549 0.40905 -1.7003 0.13069 0.27748 0.49204 -0.73432 -0.19745 -0.90501 -0.4624 -1.656 0.10237 0.093002 0.072869 
international -0.46533 0.21122 -0.17276 0.53158 -0.5152 0.38093 -0.5345 0.39276 -0.25104 0.38815 -0.1364 -0.23695 -0.28034 0.94763 -0.10343 
2007 -0.3123 0.32773 -0.39574 0.086111 -0.33425 0.44472 -0.90438 0.35218 0.1415 0.26092 -0.30925 -0.04145 -0.0076009 0.44818 0.16594 
afpbb 0.86312 -1.6243 -0.85363 -1.4133 -0.73502 1.3353 0.33673 0.35235 -0.41674 -1.5786 -0.13718 0.86371 0.16604 0.56924 0.47233 
k -0.49832 0.16031 0.41362 -0.44481 -0.55966 -0.039031 -2.3911 0.18849 -0.62173 -0.43324 -0.44408 -0.22159 0.63208 -0.20894 0.059246 
bureau -0.80384 0.33892 -0.1287 -0.2578 0.074167 -0.024563 -0.64151 0.75535 0.63609 -0.25811 1.0336 0.23486 -0.060887 1.7098 -0.31761 
that -0.52834 -0.73545 0.35462 0.86359 0.063455 0.96167 -0.67003 -0.21162 0.21668 0.49927 -0.13859 -0.84781 0.35291 0.46448 -0.28803 
2010 -0.42793 0.65988 -0.355 -0.071778 -0.13992 0.11964 -0.72218 0.72238 0.66346 0.086813 0.36342 0.14051 0.50464 1.2262 -0.0025569 
差分履歴 1.0212 -0.059261 0.96671 -1.8553 -0.029382 -0.26504 -0.31953 -0.26336 -0.21504 0.031745 -0.6369 -2.6986 0.43461 0.23886 0.63227 
火 0.97714 -0.83899 0.55674 -1.8828 -0.019516 -0.023377 0.48828 -0.66463 -0.27341 -0.89959 -0.77653 -1.9497 0.18206 0.33377 0.066172 
john -0.70901 0.045062 0.14532 0.066498 -0.7165 0.26989 -1.2172 -0.31309 0.048027 -0.2471 -0.30272 -0.27504 -0.10587 0.14605 -0.25878 
you -0.39353 -0.98273 0.51947 0.73441 0.43009 1.2437 -0.74864 -0.18174 0.42148 0.42971 -0.053362 -0.95739 0.5559 0.43101 -0.52999 
google -0.96297 1.0863 0.62522 0.26876 -1.1171 1.4823 0.034519 -0.2848 0.72541 0.14323 -0.45949 0.26827 0.038317 0.18681 0.43656 
department -0.69522 0.28142 -0.32779 0.41191 -0.15936 -0.09217 -0.63681 0.29271 0.18922 -0.15087 0.5013 -0.13367 -0.69686 1.3647 -0.40752 
population -0.69504 0.26516 0.15041 -0.037899 0.0073472 -0.041148 -0.47778 0.73665 0.64502 0.072433 0.91319 0.018602 0.33235 1.6256 -0.58836 
14 0.58851 0.53235 -0.99847 -0.47741 -0.12672 -0.042705 -0.44609 -0.088568 0.58244 1.0192 -0.12606 0.087143 0.9034 0.85743 -0.25156 
・ 1.7435 0.56054 0.48302 -1.2541 0.040868 -1.1395 0.61361 -1.1993 0.71673 -0.14959 -0.46734 -2.3393 -0.47074 1.8133 -0.61876 
2003 -0.59136 0.36999 -0.20951 0.34749 -0.53563 0.082801 -1.077 0.040357 -0.035476 0.080635 -0.69874 -0.23994 0.21817 0.38018 0.14267 
license -0.45759 -0.87805 0.20804 0.53765 0.8678 0.88562 -0.99257 -0.1258 0.23902 0.89384 -0.026978 -0.7258 -0.033091 0.62433 0.047159 
リンク元） 1.648 1.2905 0.91504 -1.4926 0.68479 -1.7895 1.3268 -0.43562 0.18876 -0.44883 1.2671 -2.1149 -0.18366 2.3346 -0.5801 
pmid 0.65753 0.93275 -0.95967 0.41523 0.033103 0.25841 -0.56221 0.17486 -0.47097 0.7752 -1.3491 -0.042618 0.24502 1.3509 0.82827 
2005 -0.46828 0.4533 -0.35148 0.40212 -0.40526 0.093645 -0.95224 0.22347 0.068835 0.10103 -0.46016 -0.20353 0.31187 0.49427 0.038194 
。 -0.96133 0.70826 -0.37824 -0.52993 0.35212 0.29699 -0.33165 -0.51396 -0.71539 0.42321 0.1392 -0.40686 0.2376 -0.46899 0.014135 
2006 -0.32097 0.49105 -0.38329 0.20192 -0.41176 0.23276 -0.96033 0.19025 0.096913 0.25253 -0.54899 -0.1098 0.18169 0.51607 -0.010261 
2009 -0.36449 0.41657 -0.53839 0.10851 -0.33637 0.41764 -0.92523 0.57767 0.30757 0.20462 -0.3149 -0.11765 0.36951 0.56302 -0.018117 
no -0.16245 0.19925 -0.3201 0.27609 -0.14442 0.47695 -0.3031 0.19923 0.10252 0.59084 -0.34836 -0.53532 0.31389 0.5457 -0.037561 
org -0.29769 -0.31066 -0.49484 0.19134 0.035121 0.59339 -0.21156 0.15289 0.065994 -0.052678 0.46799 -0.18382 -0.52175 0.84643 -0.095005 
水 0.87389 -1.0887 0.43642 -1.851 0.0035784 0.10956 0.50623 -0.63088 -0.18383 -0.89573 -0.99533 -1.8458 0.34361 0.42116 0.070313 
2004 -0.6374 0.39118 -0.17913 0.34368 -0.43056 0.069613 -0.96445 0.065153 0.045193 0.10503 -0.58518 -0.20959 0.13557 0.58085 0.094067 
public -0.2927 -0.23286 -0.37823 0.38217 0.30532 0.44965 -0.70353 0.047202 0.26037 0.51543 0.10502 -0.42849 -0.71104 0.94033 -0.17398 
ipv4 1.4139 1.2996 0.37667 -1.5349 0.67793 -0.28255 0.88944 -0.77179 0.20579 -0.47494 -0.23301 -2.0354 -0.40042 1.9019 -0.069971 
open -0.69601 -0.68184 -0.26198 0.1881 0.57174 0.55444 -0.69984 0.045993 0.13331 0.38116 0.13853 -0.64804 -0.64117 0.65945 0.53257 
data -0.49408 0.36225 0.30851 0.28163 0.027517 0.35789 -0.061665 0.39628 0.024425 -0.18857 0.79109 -0.10712 -0.084648 1.5432 -0.59743 
whois 1.554 0.68041 0.53002 -0.86017 0.60487 -0.86288 -0.042268 -0.62293 0.28205 0.0050769 -0.21463 -2.1426 0.21253 1.1433 -0.051633 
15 0.23677 0.75804 -0.69556 -0.41531 -0.45452 0.25139 -0.69454 0.13822 0.71091 0.87893 -0.20451 0.078095 0.88038 0.45416 -0.095898 
york -0.5041 0.054393 -0.041301 0.41164 -1.1467 0.76723 -0.40888 0.39213 0.32543 -0.12456 -0.22817 -0.23098 -0.35467 0.45473 -0.095031 
ipv6） 1.939 0.83729 0.0324 -1.2591 0.79169 -0.71642 0.06908 -1.328 0.59031 -1.0751 -0.085998 -2.5555 -0.035685 1.4583 -0.67481 
wikipedia -0.12227 -0.71502 -0.13693 0.43168 -0.42282 0.62512 0.091815 0.18567 0.41268 0.10885 0.2174 -0.70615 0.077175 0.51286 -0.016811 
this -0.51719 -0.7598 0.46208 0.84928 0.11741 0.90659 -0.81315 -0.095793 0.33528 0.54046 -0.14179 -0.81538 0.3486 0.45866 -0.44821 
htm -0.079257 -0.61712 0.024434 -0.65824 -1.1348 1.4973 0.23764 0.70753 -0.46492 -1.0531 0.011254 0.72599 -0.22713 0.41426 -0.0066248 
t -0.88085 0.40968 0.23543 -0.53111 -0.5902 0.012251 -1.8341 0.27806 -0.60231 -0.21619 -0.51185 0.012316 0.61578 -0.042134 0.13099 
journal -0.28525 0.48209 -0.20456 0.56262 -0.59463 0.57562 -0.53398 0.31697 -0.08265 0.21347 -0.48838 -0.34852 -0.026072 0.91223 -0.20581 
inc -0.48449 -0.0021976 -0.24659 -0.27006 -0.83876 1.07 -0.52656 0.22899 -0.42559 0.17474 0.22797 0.17186 -0.74074 -0.090427 0.27974 
online -0.56885 0.27041 -0.17483 0.2004 -0.80631 0.90713 -0.19616 0.30613 -0.061588 0.22349 -0.12879 -0.081865 -0.57006 0.46316 -0.14689 
society -0.43761 0.76814 -0.33354 0.506 -0.77249 0.42251 -0.6148 0.19394 0.084611 0.22547 -0.26402 -0.46588 -0.46973 0.68699 -0.5952 
south -0.87242 0.51699 -0.19369 0.38301 -0.60308 0.084626 -0.98539 -0.23114 0.30642 0.021385 -0.1309 -0.6944 -0.46412 0.30146 -0.61866 
金 0.75349 -1.0107 0.43293 -1.7607 0.085993 -0.15558 0.36678 -0.60182 0.08321 -0.91667 -0.69671 -1.6659 0.19447 0.45514 0.10683 
source -0.90202 -0.63721 -0.034742 0.20187 0.76693 0.74298 -0.87673 -0.17373 0.28068 0.38343 0.1045 -0.68088 -0.5981 0.49519 0.53658 
britannica -0.43188 0.10627 -0.23044 -0.098146 -1.142 0.89822 -0.91687 0.067652 -0.057532 0.36012 0.47392 0.13026 -0.95572 -0.68291 0.11336 
it -0.51924 -0.67198 0.34429 0.68007 -0.11467 1.14 -0.45023 -0.067096 0.26251 0.31841 -0.020751 -0.71896 0.37427 0.3925 -0.54083 
center -0.50876 0.28734 -0.37993 0.59899 -0.52975 0.27049 -0.52703 0.23427 -0.16842 -0.029352 0.011024 -0.20926 -0.54796 1.2139 -0.58968 
be -0.35013 -0.74885 0.18164 0.72877 0.18601 1.1153 -0.67805 -0.13183 0.30186 0.41801 -0.083796 -0.83014 0.62962 0.33873 -0.48026 
historical -0.67979 0.80119 -0.16712 0.45766 -0.6951 0.36374 -0.77699 0.11074 0.30351 0.15771 0.17531 -0.35955 -0.54269 0.56314 -0.61346 
vol -0.32397 0.58586 -0.062311 0.11637 -0.80023 0.31317 -0.61256 -0.078122 0.20002 0.57735 -0.7714 -0.2127 0.068893 0.59218 -0.16831 
https://web -0.078727 -0.53677 -0.44428 -0.48997 -0.85095 1.4166 0.53187 0.5198 -0.22517 -0.38415 -0.11627 0.47048 -0.17074 0.53625 0.0059405 
software -0.94616 -0.78834 -0.40098 0.23521 0.92219 0.93611 -0.88285 -0.031982 0.03022 0.46831 0.15319 -0.55694 -0.77261 0.32661 0.42061 
may -0.32308 -0.28794 -0.10989 0.45226 0.10743 0.85003 -0.78445 0.22499 0.44276 0.29973 -0.16809 -0.46293 0.40465 0.7153 -0.3422 
000 -0.23579 1.2579 -0.20144 -0.33697 -0.037334 1.0526 0.13649 0.42071 0.40002 1.1636 -0.33688 -0.80922 0.74076 0.2674 0.66215 
times -0.41638 -0.14601 -0.31508 0.26231 -1.2066 0.77365 -0.43934 0.42661 0.47406 -0.20455 -0.21965 0.0042226 -0.030589 0.4776 0.040188 
= -0.57789 -0.12516 -0.23228 -1.285 -0.16456 1.1048 -0.053021 1.1263 -0.7571 0.45837 0.46954 -1.2252 0.77042 -0.79738 1.4525 
日本語 0.22511 -1.1035 -0.42645 -1.0058 -0.61219 1.1136 -0.04181 0.43062 -0.56831 -0.78941 0.53585 0.42969 -0.28257 0.21864 0.6047 
not -0.44164 -0.77319 0.37066 0.71166 0.23787 1.0272 -0.51555 -0.093283 0.19626 0.49343 0.07643 -0.69805 0.42432 0.47544 -0.31838 
cnn -0.02443 -0.63936 0.24844 -0.46434 -0.99421 1.7727 -0.12154 0.45557 -0.090504 -0.94536 0.20632 0.78499 -0.33158 0.49977 0.19478 
v -0.9004 0.24988 0.40996 -0.39383 -0.51542 0.23164 -1.4268 0.14455 -0.72222 -0.013219 -0.33155 -0.089201 0.10234 0.016287 0.085171 
washington -0.38255 0.17371 -0.12649 0.55147 -0.86876 0.59314 -0.51818 0.50609 -0.024657 -0.36592 -0.0088203 -0.21129 -0.22072 0.63209 -0.56082 
タグ: 1.2824 0.62869 1.4748 -1.8702 -0.57664 0.062834 -0.43345 -0.049539 0.16516 0.38804 -0.63698 -2.9293 0.48461 -0.0063491 0.58025 
o -0.86837 0.23828 0.49146 -0.57337 -0.20372 0.03354 -2.0352 0.51364 -0.86171 -0.41179 -0.1931 -0.35091 0.53152 -0.14639 0.1534 
https://www 0.12746 -0.68024 -0.34923 -0.34054 -0.73152 1.1992 0.29534 0.52327 -0.42 -0.3542 -0.66286 0.44359 -0.09469 0.93642 0.45103 
投稿記録‎ 1.2141 0.04375 1.7182 -2.2961 -0.30895 -0.35888 -0.21657 -0.23777 -0.014325 0.066356 -0.84256 -3.1471 0.57733 0.15936 0.58906 
english -0.36599 -0.32024 0.065015 0.31879 -0.61539 0.5218 -0.30777 0.10929 0.16776 0.14866 -0.55505 -0.44065 -0.10434 0.62992 -0.16842 
la -0.68828 -0.35392 -0.82461 0.76923 -0.96282 -0.22543 -0.58924 0.63142 -0.45807 0.59372 0.18374 -0.8368 -0.26882 -0.098233 0.40266 
are -0.5843 -0.47044 0.20102 0.90258 -0.045987 0.93836 -0.62049 -0.057719 0.083621 0.32304 -0.067419 -0.84269 0.48715 0.59983 -0.56218 
north -0.92269 0.59776 -0.33941 0.40277 -0.79909 -0.079155 -0.80287 -0.26774 0.24122 0.12538 0.069207 -0.48056 -0.57981 0.27259 -0.59928 
archived 0.23263 0.24901 -1.0664 0.15023 -0.25471 1.1528 -0.50561 0.27345 0.57884 -0.40124 -0.079479 -0.26409 -0.27747 0.2948 -0.92195 
machine 0.40241 0.47806 -1.1824 0.068676 -0.26924 1.3839 -0.67127 0.21495 0.70346 -0.68825 -0.16104 -0.23801 -0.14422 0.27796 -1.0585 
et -0.70781 0.15031 -0.62438 0.50385 -0.85609 -0.38313 -0.80993 0.4931 -0.54503 -0.08335 -0.38279 -0.83686 -0.065206 0.26936 0.23727 
general -0.41521 -0.01567 -0.21672 0.44508 0.067515 0.37544 -0.97891 0.21923 -0.18091 0.35168 0.50838 -0.44659 -0.57684 0.78281 -0.14602 
foundation -0.72269 -0.60478 -0.47009 0.13228 0.59123 0.59299 -0.70297 0.082122 -0.099794 0.27521 0.26231 -0.30073 -0.68259 0.60111 0.25599 
17 0.2232 0.70593 -0.49902 -0.74656 -0.64818 0.0636 -0.033188 0.50095 0.49307 0.65459 -0.054816 -0.022356 0.79192 0.8869 -0.014185 
science -0.364 0.57903 -0.3834 0.67769 -0.58893 0.30764 -0.51834 0.21734 -0.25347 0.39714 -0.43528 -0.30606 -0.064479 0.84297 -0.21425 
en -1.3235 -0.48068 -0.44787 0.52707 -1.2255 0.24787 0.45052 0.75404 -0.58086 0.45406 -0.62131 -0.88347 0.11063 -0.16207 0.32847 
→ -1.3823 1.0524 0.3422 -0.42759 -0.12746 0.92867 1.2239 0.38396 -1.4063 0.33543 1.8519 -1.8441 0.19487 -0.54438 1.4526 
us -0.52583 0.084597 -0.069846 0.28949 -0.08869 0.62136 -0.49333 0.28916 0.49728 -0.24712 0.54583 -0.13884 -0.048091 1.022 -0.40386 
gov -0.35565 0.22316 -0.18969 -0.037109 -0.17037 0.60152 -0.4342 0.3495 0.47797 -0.5178 0.93529 0.38019 -0.33064 1.4828 -0.27968 
association -0.51177 0.71679 0.058191 0.603 -0.43644 0.39187 -0.18307 0.24269 -0.11011 0.11869 0.30964 -0.29894 -0.52934 1.0238 -0.59757 
david -0.77459 0.086515 -0.30626 0.060172 -0.15345 -0.075807 -1.3007 -0.20888 -0.056534 -0.27606 -0.073269 -0.35373 -0.1392 0.28176 0.058756 
2002 -0.6714 0.43477 -0.19216 0.45706 -0.45713 0.065679 -1.1013 0.13493 -0.1087 0.14088 -0.60053 -0.2803 0.15683 0.38879 0.10556 
wayback 0.70137 0.19371 -1.1234 0.024758 -0.25286 1.4812 -0.66585 0.45933 0.73268 -0.58871 -0.054044 -0.49403 -0.12486 0.14084 -1.2067 
william -0.75367 0.26081 0.07606 0.18563 -0.91906 0.092644 -1.2534 -0.34211 -0.049255 -0.21959 -0.35112 -0.28135 -0.21173 0.060037 -0.2272 
encyclopedia -0.49438 0.44011 -0.26259 0.34049 -0.81349 0.51725 -0.84752 -0.062575 -0.0080221 0.32917 -0.18111 -0.37457 -0.60719 -0.10322 -0.29449 
japan 0.13722 -0.55033 -0.10667 -0.031491 -0.72061 0.80555 -0.26229 0.082611 -0.21739 -0.21485 0.096895 -0.0016715 -0.11492 0.2044 -0.44742 
library -0.61629 0.64442 -0.2352 0.56196 -0.62329 0.3734 -0.40721 0.03551 0.013188 0.22256 0.16641 -0.24898 -0.72323 0.66732 -0.4287 
virginia -0.60778 0.65846 -0.23482 0.30379 -0.60252 0.28582 -0.78913 -0.11419 0.2668 -0.025586 0.10529 -0.37764 -0.70685 0.53784 -0.69307 
jp 0.20803 -1.1939 -0.085583 -1.2078 -0.63111 1.9694 0.23513 0.56938 -0.67025 -1.1383 -0.32019 0.9677 -0.07004 0.48468 -0.0031938 
other -0.90131 -0.2152 0.13215 1.007 0.081792 0.34123 -0.59083 0.099001 0.11514 0.2036 0.18249 -0.93293 0.31242 0.8048 -0.40018 
2001 -0.64363 0.4852 -0.38717 0.32037 -0.43232 0.047013 -0.97988 0.31304 -0.05329 -0.14355 -0.49996 -0.36224 0.096725 0.48276 -0.033321 
4月 -1.4528 0.46886 1.0186 -0.75116 1.1842 0.18278 0.67371 -2.0297 -2.8734 2.5432 1.4219 0.92923 -0.51695 0.11444 -1.2969 
hawaii -0.53109 0.35605 -0.50362 0.72485 -0.42777 0.21559 -0.37862 0.11261 0.30325 -0.1453 0.32831 -0.52584 -0.39444 0.46164 -0.44653 
carolina -0.85521 0.92464 -0.45715 0.5443 -0.77634 0.18095 -0.99977 -0.40223 0.38186 -0.0023913 -0.1886 -0.59748 -0.61717 0.21173 -0.57122 
report -0.35215 0.054292 -0.44198 0.37411 -0.37996 0.2031 -0.49116 0.41897 -0.068491 0.039624 0.087377 -0.061441 -0.079018 1.1761 -0.3401 
16 -0.042167 0.75202 -0.79323 -0.4429 -0.69098 0.077346 -0.19739 0.22639 0.60969 0.92085 0.02204 0.008767 1.0313 0.5537 -0.0071121 
research -0.39646 0.45295 -0.3759 0.49113 -0.24062 0.095237 -0.59397 0.29391 -0.099939 0.32597 -0.10653 -0.39516 -0.17059 1.0977 -0.27763 
3月 -1.4131 0.64071 1.5481 -0.89202 1.058 -0.10241 0.43175 -1.8108 -2.8877 2.3366 1.054 0.81953 -0.74109 0.10568 -1.4212 
10月 -2.0777 0.3352 -0.4082 -1.5827 1.8064 0.54928 0.92757 -0.67532 -1.5962 1.6441 0.73087 0.13378 0.47757 0.66666 -1.7876 
about -0.53366 -0.3863 -0.0003052 0.50377 0.12504 0.78527 -0.44342 0.105 0.1094 0.12639 0.17689 -0.50797 -0.039514 0.64113 -0.27006 
20 0.18678 0.73331 -0.12416 -0.46473 -0.31467 0.33118 -0.22292 0.45618 0.47303 0.7977 -0.26043 -0.44927 0.73969 0.54015 0.39048 
1月 -0.5988 0.87682 1.6443 -0.11497 0.65335 -0.14223 -0.086006 -1.7266 -2.6346 2.2479 1.1662 0.89376 -0.55239 -0.099053 -1.1152 
richard -0.69351 0.15325 -0.28975 0.10867 -0.34534 0.12083 -1.2935 -0.12411 0.012974 -0.089004 -0.35316 -0.24071 -0.18965 0.27951 0.12867 
7月 -1.6853 0.47933 0.11359 -1.8136 1.7354 0.25749 0.57445 -0.89474 -2.5072 1.8531 1.7291 0.65793 0.52284 0.40992 -1.6777 
2012 -0.35821 0.39561 -0.39151 -0.023204 -0.24302 0.30825 -0.64857 0.70864 0.57724 0.44096 0.098753 -0.14733 0.33569 0.80111 -0.068538 
12月 -2.2646 1.0212 -0.49752 -1.5113 1.5579 0.76599 0.64551 -0.83193 -1.3499 2.1161 0.44135 0.35567 0.18935 0.17086 -1.4571 
japanese -0.29826 -0.53525 0.1517 0.64528 -0.23946 0.74288 -0.40062 -0.0066339 0.046895 0.23798 0.10564 -0.62566 0.43478 0.42478 -0.46978 
6月 -1.6999 0.42558 0.78892 -0.89576 1.7029 -0.19492 0.78534 -1.1699 -2.5953 2.4216 1.5302 0.35968 0.080994 0.70609 -1.607 
2011 -0.55581 0.31936 -0.46616 0.066429 -0.21075 0.11061 -0.73552 0.87028 0.4822 0.20783 0.33017 0.0034709 0.53443 0.92471 -0.11426 
2月 -1.3428 0.71481 0.95653 -0.61747 0.85763 -0.0092952 -0.55069 -1.8406 -2.8223 2.6732 0.99692 1.1703 -0.51726 -0.38385 -1.0323 
information -0.65108 0.022891 -0.21981 0.53239 0.10356 0.43745 -0.31843 0.29614 -0.079188 0.18913 0.35588 -0.3317 -0.23856 1.0529 -0.25957 
office -0.52397 0.35888 -0.46856 0.60863 -0.025108 0.22798 -0.44402 0.55647 -0.23025 0.057099 0.63073 -0.16366 -0.36092 1.3213 -0.16375 
8月 -2.6061 0.098012 0.21468 -1.922 1.8888 0.2246 0.45467 -1.5258 -1.5464 2.1722 0.96582 0.6501 0.2866 0.51729 -1.4722 
km2 -0.15234 1.7271 -0.51818 -0.98405 0.10779 1.0054 0.36883 0.48298 0.03219 1.1277 -0.026222 -0.79811 0.95015 0.2739 0.93954 
11月 -2.2049 0.40351 -1.1506 -1.6789 1.8462 0.85398 0.31362 -0.63695 -1.6973 1.9456 0.50924 -0.067158 0.25904 -0.10737 -1.5094 
all -0.74075 -0.43307 0.14223 0.60771 0.1553 0.95333 -0.51366 -0.14882 0.16361 0.33275 -0.14515 -0.60384 0.18721 0.54492 -0.26001 
5月 -1.2899 0.61085 0.80246 -1.0664 1.4901 -0.46096 0.37488 -1.7177 -2.8749 2.4092 1.5398 0.42127 -0.689 0.40775 -1.2182 
℃ 0.29176 2.1492 -0.91466 0.066149 -0.47606 1.1299 1.1115 0.99167 0.10404 1.7639 0.020213 -1.5779 1.8125 0.53172 0.43786 
http://books -1.2097 1.2043 0.61547 0.13766 -1.3479 1.1436 0.24117 -0.12785 0.28051 0.36683 -0.38298 0.06032 -0.074981 0.076582 0.27393 
産経新聞 0.47265 -1.4649 -0.5915 -1.8997 -0.69554 1.986 -0.020376 0.2705 -0.92911 -1.5098 -0.75914 1.2321 -0.24361 -0.12273 0.01625 
have -0.40789 -0.62405 0.43679 0.79327 -0.047341 1.0109 -0.83529 -0.082275 0.065977 0.27951 -0.065067 -0.65734 0.52546 0.53441 -0.46869 
law -0.29788 0.10041 0.1226 0.81006 -0.15008 0.58682 -0.72617 0.09236 0.092092 0.48167 -0.13206 -0.40727 -0.12152 0.89672 -0.29365 
first -0.53119 -0.12105 0.044341 0.56094 -0.5249 0.59568 -0.61164 -0.068828 0.077889 0.29832 -0.11705 -0.44935 -0.33069 0.52341 -0.22023 
9月 -1.9185 0.56213 -0.71996 -1.5633 2.0558 0.75647 1.0419 -0.74771 -2.4242 2.533 0.63342 0.10606 0.02768 0.62056 -1.692 
x -1.0735 0.1831 0.58114 -0.31921 0.053533 0.45451 -1.2416 0.54669 -1.6097 0.264 -0.6865 0.0085471 1.2456 0.3601 0.91924 
city -0.51624 0.17597 -0.15728 0.21881 -0.73726 0.3337 -0.57489 0.26877 -0.13285 -0.28426 0.33489 -0.18432 -0.40282 0.67318 -0.38577 
survey -1.1682 0.70364 -0.027333 0.20177 -0.50364 0.022962 -0.61548 0.36561 0.21877 -0.26567 0.47166 -0.28811 -0.026111 1.2471 -0.58051 
プレスリリース 0.20694 -1.0339 -0.18469 -0.77718 -0.5056 0.9815 -0.27675 0.1276 -0.24455 -0.85174 0.16287 0.70333 -0.66517 0.75572 0.49985 
language -0.44291 0.30678 0.72877 0.77607 -0.48502 0.59118 0.18901 -0.090116 0.13635 -0.072291 0.31913 -0.80084 -0.02322 0.69829 -0.8115 
18 0.17322 0.86046 -0.73286 -0.30158 -0.21099 0.1869 -0.44133 0.030871 0.73339 1.0347 -0.20119 -0.36274 0.50194 0.56471 0.29119 
21 0.35115 1.5615 -0.86158 -0.066542 -0.14293 0.47392 -0.22021 0.25515 0.25044 0.77717 -0.35078 -0.56314 0.89192 0.76046 0.56614 
work -0.25024 -0.74131 0.52435 0.83333 0.35628 0.89931 -0.82616 -0.22435 0.37213 0.60288 -0.014754 -0.69382 0.1386 0.73719 -0.26068 
commons -0.51494 -0.87397 0.086194 0.15892 0.7665 0.92594 -0.76896 -0.154 0.32115 0.39044 0.26394 -0.474 -0.71378 0.49722 0.80686 
july -0.27059 0.31956 -0.18072 -0.11205 -0.15504 0.49538 -0.87236 0.73831 0.52441 0.38478 0.32128 0.18762 0.38892 1.1268 -0.31695 
19 0.15957 0.86356 -0.93561 -0.081973 -0.30577 0.50539 -0.31124 0.45782 0.53213 0.70212 -0.47226 -0.098846 0.55579 0.72465 0.16723 
go 0.12632 -1.0319 0.24898 0.086661 -0.84274 1.0805 -0.025541 -0.032071 -0.65556 -0.16499 0.44208 0.76023 -0.084329 0.42964 -0.010305 
war -0.67297 0.39056 -0.11609 0.70537 -1.0758 0.45593 -0.7133 -0.19246 0.2883 0.10666 -0.30748 -0.54096 -0.25815 0.055835 -0.62317 
× -0.25583 0.81667 0.05005 -1.3918 -0.27413 0.78407 0.74524 0.34726 -0.33855 0.57704 -0.29688 -1.295 0.51775 -0.13515 1.3127 
james -0.75191 0.35814 -0.023592 0.23537 -0.86233 -0.036574 -1.0609 -0.2843 0.024949 -0.13621 -0.48345 -0.3932 -0.14592 0.026543 -0.14195 
1998 -0.62079 0.57805 -0.27484 0.22264 -0.72324 0.26345 -1.0495 -0.030322 0.053702 0.23533 -0.65329 -0.36119 0.041885 -0.0082677 0.11986 
‎106 1.02 0.32026 1.105 -2.1378 -0.36722 -0.14634 0.18312 0.001012 -0.18246 -0.19075 -1.0763 -2.7651 0.90643 0.89103 0.084898 
june -0.23543 0.20204 -0.42204 0.053916 -0.36007 0.77778 -0.7465 0.47277 0.16245 0.27579 -0.081593 -0.1391 0.30848 0.54385 -0.38129 
page -0.3781 -0.17552 0.12553 0.47 -0.076674 0.87783 -0.4702 0.074308 0.27177 0.3445 -0.22104 -0.72461 0.40352 0.30863 -0.35133 
y -1.0483 -0.099773 0.32496 0.010616 -0.56301 -0.18226 -1.5504 0.69874 -1.1656 -0.13946 -0.67961 -0.24915 0.91638 0.2861 0.51841 
if -0.58955 -0.83738 0.52756 0.84191 0.31522 1.0211 -0.61693 -0.42792 0.53915 0.7439 0.083191 -0.86222 0.54257 0.61939 -0.26932 
ip:106 0.65002 0.957 0.96759 -1.008 -0.11088 -0.24783 0.60064 0.31864 -0.31637 0.41837 -0.43326 -1.7995 0.14578 1.3389 0.13038 
system -0.4805 0.085753 -0.24817 0.58242 -0.22827 0.4478 -0.54575 0.33391 -0.28489 0.22243 -0.12141 -0.36025 -0.14952 0.86393 -0.41127 
life -0.60225 0.34894 -0.11139 0.70055 -0.56708 0.20077 -0.7976 -0.27676 0.023849 0.064315 -0.43419 -0.47103 -0.128 0.448 -0.20347 
108 0.64406 0.99871 0.6203 -1.186 -0.1712 -0.26778 -0.47053 0.25749 -0.32406 0.13493 -0.48939 -1.7217 0.73235 0.74241 0.23391 
york: -0.90221 0.63174 0.18534 0.4223 -1.3235 0.40694 -0.80617 -0.33574 0.29203 0.27693 -0.4636 -0.22511 -0.31823 0.048073 -0.031856 
issn -0.29699 0.79521 -0.60545 0.20198 -0.5856 0.66351 0.0049539 0.65647 -0.49889 0.29539 -0.97002 0.053598 0.24686 0.99692 0.46991 
december -0.35399 0.51783 -0.57939 0.15081 -0.29137 0.5313 -0.85984 0.52608 0.26447 0.277 -0.093151 -0.068701 0.16806 0.72963 -0.084123 
歴史 -0.11584 -0.24965 -1.052 -0.76443 -0.31764 -0.63389 0.23117 -1.0001 0.60676 1.8505 -0.40995 0.40808 0.91559 0.079092 0.17253 
one -0.60265 -0.42278 0.098636 0.67901 -0.20872 0.84473 -0.59194 -0.030262 0.21393 0.35606 -0.040441 -0.62262 0.31882 0.54416 -0.51043 
robert -0.81213 0.24005 -0.081239 0.075793 -0.79868 0.12553 -1.2348 -0.095279 -0.049013 -0.23526 -0.36282 -0.27247 -0.0086387 -0.062844 -0.0010443 
guide -0.65715 0.14029 -0.32582 0.52937 -0.46133 0.1455 -0.86642 -0.25874 0.25515 0.11599 0.26545 -0.53029 -0.72452 0.13893 -0.25957 
politics -0.78625 0.58482 -0.10332 0.43737 -0.80613 0.12064 -0.98724 -0.10081 0.17011 0.053561 -0.31254 -0.31691 -0.3222 0.50183 -0.37687 
service -0.54081 0.20706 -0.43398 0.37867 -0.11832 0.28538 -0.55919 0.43668 -0.1245 -0.054688 0.42219 -0.30211 -0.44708 1.2257 -0.41479 
al -0.75738 0.067935 -0.78497 0.4884 -0.30019 -0.12831 -1.1047 0.38629 -0.30601 -0.24127 -0.79309 -0.59072 0.17453 0.51124 -0.13611 
web -0.33759 -0.40456 -0.28427 0.17406 -0.37188 0.90653 0.0454 0.116 0.24187 -0.10472 0.36553 -0.27481 -0.46872 0.57518 -0.14996 
"the -0.60239 0.085618 0.029117 0.20785 -0.88812 0.39548 -0.98881 -0.12639 0.090061 0.15921 -0.29989 -0.27634 0.10823 0.16133 -0.31082 
america -0.59946 0.58547 -0.12821 0.53435 -0.85464 0.33572 -0.67014 -0.028991 0.10995 0.004771 0.011294 -0.27261 -0.14345 0.35666 -0.30578 
any -0.4193 -0.86824 0.28832 0.94546 0.3751 1.1919 -1.0205 -0.30984 0.50501 0.52711 -0.062861 -0.80531 0.53725 0.57741 -0.57455 
economic -0.52757 0.32972 -0.25252 0.31628 -0.34934 0.11048 -0.64531 0.44546 0.27412 -0.047202 0.13975 0.078573 -0.057342 1.479 -0.2201 
its -0.5853 -0.039727 -0.0020544 0.68811 -0.44926 0.47716 -0.68841 -0.03173 0.1625 0.090569 -0.15531 -0.43276 -0.041775 0.63541 -0.26145 
naid -0.088578 0.46672 -0.7566 0.22595 -0.52896 -0.19068 0.46684 0.088287 -0.64961 0.19595 -0.72625 -0.364 -0.064238 0.51393 1.2094 
187 0.71785 0.82895 0.64725 -1.074 -0.027139 -0.42075 0.13305 0.02642 0.2319 0.19885 -0.6684 -2.0582 0.60609 1.0866 0.20561 
publishing -0.81498 0.58168 -0.045572 0.49109 -0.90557 0.63957 -0.47195 -0.20459 0.17142 0.19115 -0.39039 -0.25354 -0.24892 0.21515 -0.096287 
1999 -0.74338 0.55651 -0.40091 0.41664 -0.70101 0.10323 -1.0599 -0.047097 -0.066789 0.30525 -0.67955 -0.28533 -0.12223 0.041904 0.31345 
encyclopædia -0.31704 -0.079657 -0.2488 -0.18831 -0.89318 1.0401 -0.99812 0.022235 0.35473 0.46048 0.46765 -0.090712 -1.3424 -0.53687 0.46542 
· 0.86145 0.80727 -0.084938 0.052758 -0.97353 -2.3424 -1.629 -2.3122 1.251 2.0413 0.73304 -1.2129 0.048604 0.15507 0.9615 
[リンク切れ] 0.20391 -0.73482 0.12358 -1.2727 -1.1933 1.8061 0.45073 0.37448 -0.38309 -1.3092 -0.26195 1.1012 -0.44715 0.80467 -0.12864 
22 -0.11223 0.78512 -0.48173 -0.1963 -0.087707 0.40954 -0.50038 0.38476 0.33142 0.52978 -0.37702 -0.52406 0.69002 0.66187 0.15598 
project -0.7118 -0.31308 -0.29255 0.53662 0.22881 0.46601 -0.60327 0.20813 0.038209 0.14501 0.16883 -0.58144 -0.36295 0.61671 -0.044478 
school -0.21409 0.18903 0.0079621 0.47394 -0.5693 0.42396 -0.70291 0.04297 0.10572 0.046804 -0.1751 -0.29924 -0.55853 0.76988 -0.48528 
2010年7月31日閲覧。 -0.43511 -0.29461 -0.15521 0.21581 -0.42902 0.88261 0.12641 0.21078 0.063456 -0.28715 0.85727 0.63703 -0.56089 1.0564 -0.081192 
government -0.70733 0.49864 0.11791 0.79012 -0.47216 0.20983 -0.72058 0.075068 0.24329 0.17532 0.36496 -0.21699 -0.38495 0.72537 -0.35586 
education -0.68775 0.3399 -0.31876 0.52427 -0.21554 0.37793 -0.49727 0.20687 0.019362 0.045981 0.17851 -0.29356 -0.41702 1.0297 -0.32139 
april -0.60334 0.33894 -0.35491 -0.045779 -0.18872 0.38979 -0.71179 0.60462 0.56587 0.36126 0.11047 -0.012319 0.33013 1.0292 -0.36352 
1996 -0.79537 0.58068 -0.35548 0.42782 -0.59771 0.017222 -1.0979 -0.18483 0.016044 0.30023 -0.52518 -0.35239 -0.021428 0.10586 -0.050493 
php -0.046441 -0.44279 -0.48079 -0.013463 -0.91026 0.59458 0.56123 0.72319 -0.13743 -0.77394 0.1738 0.011349 -0.13462 0.77716 0.17603 
social -0.67959 0.47301 -0.040994 0.54285 -0.58615 -0.043063 -0.62755 0.18509 0.065649 0.01476 -0.1997 -0.44626 -0.24278 1.0581 -0.40488 
health -0.35258 0.12832 -0.59081 0.47501 -0.21569 0.020025 -0.6174 0.067381 0.011481 0.11954 -0.30992 -0.090394 -0.30785 1.2876 -0.35217 
— 0.0059149 -0.26903 0.19925 0.32936 0.0041225 0.42229 -0.55436 -0.40128 -0.053347 0.30513 0.47092 -0.063132 -0.17989 0.68295 0.1294 
charles -0.60776 0.3783 -0.12435 0.31935 -0.83616 0.0064714 -1.1509 -0.15238 -0.20974 -0.036107 -0.22763 -0.51242 -0.31159 0.080406 -0.11539 
michael -0.82159 0.12762 -0.73843 0.13263 -0.44409 -0.27566 -1.2726 -0.60689 0.59386 -0.43001 -0.35416 -0.42295 -0.027219 0.17117 0.25492 
january -0.32493 0.31016 -0.41282 -0.0073894 -0.41195 0.67853 -0.60951 0.44627 0.28245 0.20539 -0.15317 -0.24279 0.23347 0.54429 -0.32868 
ロイター 1.0224 -0.98531 -0.28254 -0.79326 -0.80919 1.9283 0.69604 0.29453 -0.91966 -1.7629 -0.36681 1.2727 -0.25528 1.5046 -0.032459 
october -0.2842 0.24979 -0.40471 0.052155 -0.38511 0.54036 -0.63214 0.4855 0.35164 0.23947 -0.36845 -0.025754 0.31188 0.9448 -0.22242 
island -0.89015 0.11943 -0.11612 0.48919 -0.65207 0.21992 -0.69759 0.0069032 0.1665 -0.08921 0.1912 -0.30044 0.025413 0.47705 -0.43627 
その他 0.18096 -0.30286 -1.059 -1.1026 -0.2499 -0.11089 -0.20896 -0.24163 -0.12836 1.5408 0.35903 0.50017 1.1465 0.25372 -0.52604 
version -0.73524 -0.4827 0.25335 0.35511 0.33971 0.72034 -0.57566 -0.083688 0.2037 0.88853 -0.0694 -0.42439 -0.14195 0.66681 0.2169 
was -0.48255 -0.3675 0.29504 0.69719 -0.29687 0.87328 -0.76064 -0.079645 0.15549 0.12414 -0.10885 -0.7191 0.23831 0.50393 -0.39778 
under -0.42691 -0.77761 0.6753 0.60507 0.13862 0.82386 -1.2462 -0.11048 0.2511 0.58995 0.015264 -0.64046 0.52523 0.4706 -0.39762 
will -0.35479 -0.85504 0.27714 0.68782 -0.1179 1.039 -0.71888 -0.23327 0.24387 0.18812 -0.000834 -0.67873 0.38216 0.57529 -0.62517 
great -0.7339 0.19669 0.013431 0.41613 -0.72298 0.35221 -0.90945 -0.13364 -0.13778 0.1185 0.024365 -0.37149 -0.062547 0.07679 -0.47434 
who -0.21917 -0.53506 0.18099 0.65269 -0.40001 0.49453 -0.5012 -0.087571 0.41233 0.15287 -0.259 -0.55989 0.19935 0.82022 -0.32897 
30 0.045347 0.4476 -0.32627 -0.31302 -0.069509 0.61247 -0.47013 0.29338 0.30363 0.51183 -0.16805 -0.32523 0.47883 0.51491 0.30569 
institute -0.56427 0.378 -0.17057 0.58201 -0.51805 0.21884 -0.41763 0.2248 -0.31428 0.2267 -0.047814 -0.30885 -0.39712 0.92843 -0.53817 
election -0.39582 0.38748 -0.12836 0.16928 0.02869 0.0345 -0.95258 0.1763 -0.15693 -0.15451 0.62402 -0.16473 -0.56268 1.0452 -0.51615 
edition -0.73601 0.3632 0.045657 0.34253 -0.88981 0.35881 -0.7246 -0.052804 0.13525 0.31338 -0.39449 -0.20191 -0.23438 0.42384 -0.17375 
george -0.75805 0.2305 0.051324 0.29755 -0.95109 0.22155 -1.0138 -0.12289 -0.012969 -0.15923 -0.3613 -0.4186 -0.00094243 0.093838 -0.2325 
bibcode 0.10408 0.97914 -0.55448 0.48378 -0.3526 0.3791 -0.30793 0.51061 -0.45295 0.6425 -0.59863 -0.55056 0.59554 0.88184 0.49383 
」 -1.4065 -0.23131 0.64177 -0.20776 -1.3524 -0.83849 0.4398 0.66121 -1.1813 0.24448 -0.4496 -0.28849 0.96876 0.49058 1.7712 
der -1.0791 -0.24739 -0.022002 0.38034 -1.3292 0.043618 -0.97307 0.25507 0.16914 0.53744 -0.042108 -0.59991 0.80858 -0.25094 0.49782 
list -0.78462 -0.15673 0.029794 0.44021 -0.18382 0.40629 -0.90842 0.012742 0.70647 0.21501 0.49093 -0.29317 -0.36543 0.66658 -0.0087279 
accessed -0.15825 0.89033 -0.93852 -0.11933 -0.060125 0.9733 -0.72477 0.59999 0.54897 0.37198 -0.17302 -0.14125 -0.11848 0.81978 -0.5369 
185 0.78039 0.85639 0.81186 -0.6648 -0.18807 -0.35285 0.19384 -0.28608 -0.002723 0.57714 -0.8164 -2.0206 0.62569 1.0948 0.42353 
but -0.38299 -0.91439 0.55753 0.54996 -0.054577 1.1228 -0.58349 -0.1553 0.18571 0.4855 -0.041869 -0.53266 0.31031 0.56761 -0.43658 
company -0.60057 0.34769 -0.069678 0.22514 -0.78306 0.51985 -0.63696 -0.21773 0.038255 0.045719 -0.23599 -0.112 -0.28599 0.41499 -0.089175 
van -1.1221 0.096115 0.43036 0.43323 -1.0744 0.37257 -1.1267 -0.11163 -0.24052 0.13427 -0.26004 -0.44641 0.35014 -0.27839 -0.29212 
use -0.53009 -0.44754 0.36368 0.60477 0.22343 0.69931 -0.83916 -0.022372 0.19011 0.22781 -0.019645 -0.5058 0.002937 0.72126 -0.24725 
creative -0.6514 -0.72816 0.023807 0.047746 0.71278 0.79796 -0.76147 0.0082509 0.20195 0.43289 0.40183 -0.40594 -0.56819 0.6116 0.46752 
com/books -1.5238 1.4118 1.0032 0.27522 -1.5325 1.2216 0.18132 -0.11068 0.70308 0.22169 -0.501 0.092169 0.20087 0.16465 0.65421 
time -0.32282 -0.23946 -0.049335 0.43318 -0.44327 0.79915 -0.37418 0.11182 0.09259 0.17331 -0.063693 -0.42805 -0.023574 0.50802 0.010087 
rights -0.53319 -0.40029 0.33212 0.67784 0.13178 0.64878 -0.897 -0.091599 0.189 0.39497 -0.071358 -0.48694 0.22977 0.63449 -0.29162 
1995 -0.66552 0.38278 -0.23401 0.28933 -0.65211 0.06676 -1.0915 -0.15 0.0058504 0.029975 -0.51331 -0.13253 -0.032494 0.22011 0.1017 
your -0.36748 -0.81043 0.22731 0.64815 0.1677 0.93786 -0.71442 -0.084543 0.20626 0.18112 0.070872 -0.71857 0.25252 0.50722 -0.34425 
people -0.76613 0.13631 0.092193 0.64644 -0.48256 0.28465 -0.71152 -0.16866 0.22266 0.03671 -0.24519 -0.60338 -0.081069 0.4248 -0.44402 
west -0.78975 0.56177 0.14075 0.3534 -0.74267 0.24077 -0.6466 -0.286 0.038058 -0.10893 -0.26547 -0.56031 -0.53001 0.35377 -0.52382 
court -0.32335 0.36528 0.053043 1.0218 -0.33794 0.2721 -0.83521 0.29893 -0.53709 0.28936 0.26764 -0.62399 -0.50578 0.92709 -0.50874 
federal -0.3249 -0.050893 -0.31944 0.64372 -0.34277 0.14679 -0.36253 0.39007 -0.18635 -0.018795 0.20872 -0.37931 -0.18997 1.1473 -0.65761 
wikimedia -0.1042 -0.66088 -0.48684 0.30105 -0.041531 0.66751 -0.1843 0.16528 0.049785 -0.14963 0.33792 -0.64726 -0.25631 0.42343 -0.022952 
statistics -0.64542 0.29282 -0.17028 0.25345 -0.16748 0.17467 -0.49129 0.54538 -0.018894 -0.13371 0.50476 -0.049535 -0.18941 1.4222 -0.42384 
gnu -0.55177 -1.0512 -0.63909 0.3258 1.2621 0.67617 -1.0763 -0.045057 0.047508 0.59949 0.038326 -0.55818 -0.47707 0.45889 0.4516 
（英語） -0.1444 -1.1992 -0.98962 0.6746 -0.95721 0.11219 -0.15847 0.62337 -0.58726 -0.084422 0.60011 -0.40562 -0.33324 1.1791 -0.53152 
county -0.52013 0.3929 -0.034825 0.38712 -0.46158 0.36335 -0.75134 0.020795 0.14401 -0.37117 0.21901 -0.32344 -0.4235 0.79698 -0.56222 
hawaiian -0.756 0.31098 -0.40766 0.38609 -0.60923 0.16179 -0.63789 0.00014239 0.23226 -0.41897 0.0056319 -0.69476 -0.0041313 0.3567 -0.7501 
nasa -0.51371 -0.12424 -0.20269 0.35917 -0.53351 0.57484 -0.27016 0.93575 -0.93072 -0.2223 0.26551 -0.19756 0.11814 0.86795 -0.47659 
dakota -0.68057 0.35953 -0.82272 0.52762 -0.31875 0.066564 -1.0004 -0.074944 0.25443 -0.42915 0.58416 -0.71746 -0.70595 0.41681 -0.53288 
business -0.56766 0.052106 -0.2681 0.22056 -0.36886 0.48696 -0.5625 0.16945 0.15701 0.074335 0.10845 -0.063101 -0.43449 0.8876 -0.20378 
q -1.0782 0.49712 0.87956 -0.95649 -0.38555 -0.023339 -2.0464 0.83983 -1.4461 -0.16701 -0.58617 -0.34823 0.82311 -0.23239 0.51137 
review -0.3152 0.17266 -0.16511 0.41366 -0.29947 0.40839 -0.62598 -0.081085 0.079274 0.24651 -0.15154 -0.34505 -0.1588 0.60768 -0.11039 
yomiuri -0.12255 -0.36334 -0.30822 -0.46791 -1.0694 1.3044 0.35101 0.8029 -0.7356 -0.94377 0.24334 0.89528 0.21222 0.11766 0.15365 
2014 0.0018429 0.079442 -0.53444 -0.081526 -0.1607 0.35616 -0.40499 0.66554 0.061537 0.12294 -0.60639 -0.36081 0.6527 1.0847 -0.056705 
house -0.68117 0.30109 0.13005 0.57467 -0.85878 0.24467 -0.67204 -0.060379 -0.047556 -0.021895 0.013446 -0.46034 -0.0028914 0.23776 -0.50174 
会話‎ 1.2058 0.5355 1.3946 -1.9458 -0.43962 0.081951 -0.21675 0.14818 -0.10091 0.4731 -0.88038 -2.5443 0.60014 0.44105 0.61026 
bbc -0.33451 -0.48395 -0.48482 -0.10462 -0.98306 1.3286 -0.079582 0.4216 -0.37345 -0.70524 -0.41132 0.37231 -0.18078 0.32501 0.17232 
civil -0.64168 0.41592 0.043428 0.49164 -0.69356 0.13666 -0.9087 -0.22633 0.18043 0.1704 -0.296 -0.72187 -0.42588 0.48486 -0.35918 
can -0.53351 -0.91056 0.30688 0.74963 0.14282 1.2801 -0.75985 -0.091837 0.15123 0.19016 -0.1709 -0.75588 0.53752 0.45645 -0.51243 
peter -0.69422 0.13192 -0.16663 0.11156 -0.86824 0.22884 -0.92826 -0.079197 -0.11907 -0.21437 -0.4871 -0.25456 0.21674 0.041691 -0.11463 
has -0.27147 -0.70651 0.092311 0.76649 -0.077449 0.81829 -0.53045 -0.0063446 0.17126 0.31836 -0.12978 -0.73086 0.37487 0.60644 -0.25834 
100 -0.082241 0.98335 0.52717 -0.32466 -0.33127 0.92311 -0.013399 0.27082 0.43153 0.89051 -0.15767 -0.56557 0.50762 0.68455 0.7013 
post -0.13546 -0.38726 0.012101 0.40018 -1.0218 0.83285 -0.16711 0.72024 0.1142 -0.35147 -0.088963 -0.24083 -0.13595 0.61099 -0.38845 
book -0.53121 -0.050355 0.20582 0.17722 -0.51201 0.49245 -0.74589 0.098248 0.086978 0.086627 0.21916 -0.36912 -0.43355 0.36849 -0.0064629 
march -0.24239 0.38205 -0.45641 -0.13059 -0.26957 0.67171 -0.76129 0.49035 0.35571 0.39118 -0.13845 -0.15937 0.0015873 0.69069 -0.20325 
museum -0.64318 0.17757 -0.10527 0.56296 -0.98743 0.30908 -0.51769 0.2521 0.090658 0.12876 0.17858 -0.48221 -0.25955 0.35247 -0.51056 
28 0.15731 0.74725 -0.52668 -0.20567 -0.045992 0.50669 -0.49621 0.37048 0.16602 0.44008 -0.23717 -0.47666 0.62893 0.59704 0.10077 
estimates -0.73704 0.22898 0.15204 0.084214 -0.0021789 -0.10494 -0.76898 1.0133 0.75689 0.073044 0.92301 -0.079366 0.49964 1.6389 -0.63793 
pacific -0.61472 0.36658 -0.47612 0.71512 -0.43995 0.068117 -0.40561 0.0067233 -0.063206 0.033997 -0.037111 -0.50581 -0.17502 0.80813 -0.39134 
msn -0.24397 -1.249 0.29947 -1.5064 -0.80603 1.8202 0.15078 0.47148 -1.1626 -1.2665 -0.86024 1.2093 -0.080635 0.57976 -0.31577 
“a -0.58365 -0.12151 -0.11316 0.17973 -0.29398 0.72907 -1.0406 0.09593 -0.14302 -0.050344 -0.055273 -0.1781 -0.14508 0.33869 -0.093272 
energy -0.60111 0.22161 -0.36813 0.25203 -0.31479 0.28212 -0.33195 0.42342 0.016067 -0.1933 0.2949 -0.13361 -0.40565 1.23 -0.19547 
nytimes -0.18206 -0.3844 -0.43274 0.13853 -1.4248 0.92726 -0.19331 0.45252 0.54951 -0.69567 -0.13937 0.19826 -0.343 0.41036 0.17502 
more -0.6212 -0.55722 0.11914 0.74998 -0.069433 0.89238 -0.57028 0.0613 0.22112 0.41182 0.019884 -0.8006 0.37029 0.41489 -0.29185 
community -0.60454 -0.0065341 -0.026809 0.43411 -0.29032 0.2489 -0.57919 0.1241 0.16693 -0.1466 0.2326 -0.53618 -0.06689 0.85441 -0.54586 
minnesota -0.60692 0.29049 -0.37843 0.28893 -0.3936 0.28114 -0.73499 0.12839 0.072299 0.063315 0.27092 -0.37456 -0.71773 0.65886 -0.57438 
site -0.45073 -0.32241 -0.2945 0.69853 -0.24375 0.9205 -0.2353 0.05771 0.098102 0.06771 0.31895 -0.47175 -0.12499 0.42986 -0.58554 
reuters 0.20962 -0.75169 -0.21821 -0.47575 -1.0354 1.2333 0.11366 0.29198 -0.80608 -1.1108 0.0022802 0.79069 0.16349 0.83615 -0.34087 
時事通信社 0.96361 -1.3439 -0.44317 -1.7536 -0.68999 1.358 0.3731 0.46888 -0.5613 -1.7389 0.035986 0.68081 0.12378 0.48119 0.035647 
yahoo 0.71376 0.31083 0.57 -0.047936 -1.3057 1.5652 -0.24277 -1.036 0.14903 -1.1979 -0.14278 0.91033 0.52482 0.16069 -0.22183 
southern -0.77061 0.33005 -0.13004 0.52334 -0.73054 0.34656 -0.78863 -0.21122 0.10018 0.091845 -0.31401 -0.57273 -0.1626 0.23504 -0.49208 
2015 0.14571 -0.025834 -0.39259 -0.098333 -0.28607 0.2713 -0.64782 0.6457 0.087888 0.22014 -0.4527 -0.25103 0.60189 0.84442 0.080981 
their -0.57534 -0.13936 -0.15716 0.8154 -0.32424 0.2376 -0.87765 -0.10615 0.14996 0.36339 -0.13207 -0.61718 0.059735 0.53982 -0.21095 
最新 1.3177 0.68009 1.9872 -2.2158 -0.42136 0.32361 0.46589 -0.32792 0.33374 0.65077 -0.37603 -2.0321 0.28586 0.56463 0.92439 
1997 -0.71322 0.44622 -0.12655 0.34217 -0.71873 0.25793 -1.0198 -0.12116 -0.049678 0.14937 -0.63511 -0.27488 -0.039333 0.10917 -0.070778 
2013 -0.1252 -0.099167 -0.47842 -0.17502 -0.31769 0.27239 -0.69766 0.49471 0.1265 0.18777 -0.38679 -0.16454 0.37726 0.62539 0.064642 
25 0.1343 0.68918 -0.5335 -0.3023 -0.2 0.6458 -0.30816 0.22821 0.41642 0.51536 -0.51583 -0.66215 0.57734 0.45859 0.45475 
division -0.71784 0.28968 -0.048485 0.20552 -0.060108 0.14299 -0.68129 0.64995 0.39421 -0.18196 0.69004 -0.01869 -0.045456 1.4294 -0.74824 
development -0.49333 0.04667 -0.32862 0.39614 -0.17126 0.25128 -0.55793 0.095222 0.061194 0.25485 -0.047518 -0.28441 -0.37538 1.0219 -0.076954 
thomas -0.57772 0.0015291 0.097594 0.19835 -0.6793 0.10866 -1.2024 -0.24518 0.044192 0.036635 -0.41598 -0.19021 -0.041878 0.27343 0.048792 
texas -0.69252 0.20116 -0.022512 0.61202 -0.48088 0.039045 -0.36976 -0.13323 0.22262 0.050604 0.067706 -0.36166 -0.61909 0.90249 -0.4181 
2007年 -0.48557 -0.22505 -0.37689 -0.098281 -0.038923 -0.096002 -0.28131 0.028926 -0.49976 -0.023249 0.58022 0.031418 -0.69774 0.89345 -0.0048421 
） -0.060369 -0.1996 -0.59743 -0.80264 -0.39144 0.7392 0.46433 0.023597 -0.44762 -0.67638 0.52407 -0.43609 -0.13693 -0.36404 0.30664 
nature -0.3384 0.5069 -0.40192 0.60385 -0.54515 0.78677 -0.57234 0.30766 -0.41803 0.45722 -0.49343 -0.28235 0.15699 0.54863 -0.048252 
1990 -0.84102 0.63737 -0.077604 0.12838 -0.51973 0.060214 -1.0794 0.16254 0.45639 0.06528 -0.15209 -0.22951 0.12371 0.29411 -0.07427 
california -0.74905 0.36162 -0.30644 0.50809 -0.45322 0.094116 -0.58624 -0.33567 0.2813 0.014562 0.0092969 -0.42423 -0.47015 0.50569 -0.16299 
political -0.6315 0.39554 -0.097056 0.62566 -0.61808 0.1386 -0.87396 -0.0019214 0.17103 0.14384 -0.35071 -0.38539 -0.13931 0.81495 -0.24833 
books -0.71331 0.34865 0.35082 0.45046 -0.86961 0.56104 -0.40589 -0.18705 0.17156 0.12133 -0.29926 -0.31638 -0.16501 0.30797 0.08839 
* 0.30953 2.1855 0.91588 -1.6724 -0.73541 0.83329 -0.012708 -0.66367 -0.11585 -0.65537 0.64726 -0.90784 1.02 -0.57651 0.4675 
2008年 -0.64413 -0.1229 -0.33912 -0.05433 0.012663 -0.26862 -0.10261 -0.028774 -0.58369 0.14601 0.43822 -0.11302 -0.56747 0.75441 0.0435 
26 0.34677 0.62586 -0.42474 -0.27542 -0.21373 0.43627 -0.50713 0.30781 0.2294 0.61419 -0.30407 -0.39295 0.19003 0.613 0.46785 
england -0.64788 0.3702 0.21846 0.48733 -0.88322 0.37355 -0.7497 -0.082629 0.12425 0.0081651 -0.68475 -0.33446 -0.12609 0.58174 -0.53091 
september -0.28467 0.3654 -0.48854 0.14673 -0.35058 0.51198 -0.77435 0.28528 0.22877 0.4285 -0.28954 -0.13932 0.21284 0.63315 -0.30341 
college -0.56512 0.34901 0.03971 0.45008 -0.59962 0.10065 -0.61236 -0.0035097 0.23663 -0.085343 -0.060441 -0.38711 -0.35184 0.98695 -0.49663 
www -0.38328 -0.89286 -0.34985 -0.034979 -0.10185 0.77959 -0.26404 0.12616 -0.053818 -0.26346 0.25489 0.22339 -0.70859 0.87355 0.2228 
official -0.40436 0.048487 -0.1686 0.52636 -0.23798 0.60673 -0.57786 0.28632 -0.057115 0.15479 0.52074 -0.21997 -0.49176 0.75212 -0.44524 
184 0.90081 0.92366 0.83208 -0.91615 -0.36024 -0.47035 -0.027879 -0.021285 0.27597 0.49837 -0.71409 -2.0796 0.31912 0.94107 0.50187 
des -0.43628 -0.071419 -0.89663 0.70213 -1.0123 -0.32384 -0.62445 0.50246 0.07935 0.62793 0.040794 -0.86171 0.027747 0.037549 0.66107 
part -0.5504 -0.19053 0.043289 0.47871 -0.30082 0.49173 -0.50027 -0.10855 0.10888 0.40656 -0.17521 -0.50193 0.013337 0.45484 -0.23595 
media -0.48253 -0.23214 -0.2535 -0.020634 -0.38638 0.65987 -0.49115 0.24223 -0.018794 0.20308 0.078933 -0.24113 -0.33925 0.55385 -0.17911 
oxford -0.96772 0.76546 0.10812 0.49128 -0.99594 0.067003 -0.64169 -0.21053 0.021143 0.54057 -0.36996 -0.33126 -0.35485 0.28425 -0.053968 
例： -0.68368 1.6658 0.67829 0.17344 0.24243 0.84044 1.7746 -0.53069 -1.5565 -0.1914 0.80144 -2.9313 0.73888 -1.2307 1.8732 
resources -1.1007 0.64671 -0.22585 0.90281 -0.24006 -0.007932 -0.4956 0.32742 0.084799 0.079367 0.26229 -0.62601 -0.57334 1.1025 -0.40763 
geological -1.1578 0.5675 0.022176 0.19635 -0.32232 0.1402 -0.66976 0.49214 0.051449 -0.46411 0.51239 -0.18231 -0.053649 1.2435 -0.69527 
• 0.32626 -1.4474 1.0846 0.29637 -4.2349 0.23975 0.9796 -0.47265 2.0007 0.56096 0.10634 -2.8722 0.12244 -1.5424 1.5268 
jr -0.62739 0.15835 0.088968 0.068205 -0.82444 -0.092653 -1.2 -0.37296 -0.0097496 -0.43254 -0.54903 -0.22468 0.10922 0.36539 0.058397 
magazine -0.41816 -0.092627 -0.32461 0.049938 -0.43172 0.79232 -0.50612 0.24418 0.094491 0.062337 -0.054977 -0.21797 -0.27753 0.54214 0.088739 
we -0.49863 -0.61726 0.36926 0.67897 -0.299 1.0417 -0.67417 -0.020841 0.22599 0.14615 -0.10632 -0.86288 0.54088 0.30358 -0.55236 
http://jp 0.50569 -0.64361 -0.45763 -0.9958 -0.91294 1.487 1.0075 0.36262 -0.24714 -1.3112 0.24757 0.81731 0.14617 1.0304 0.044197 
24 0.083533 0.91931 -0.62764 -0.31928 -0.13176 0.83035 -0.062353 0.3083 0.094351 0.2876 -0.20791 -0.54057 0.54816 0.7203 0.11923 
2005年 -0.70194 -0.076989 -0.21317 0.046365 -0.0095855 -0.26788 -0.053889 -0.048613 -0.60764 0.60038 0.88212 -0.0090321 -0.7804 0.52057 0.64087 
日本中央競馬会 0.42029 -0.27735 0.321 -0.36347 -0.28672 -0.29958 -0.34514 -1.2139 -1.3791 -1.0407 -0.32513 2.1855 1.2106 1.6385 1.5427 
digital -0.32802 -0.15064 -0.19421 -0.011155 -0.17733 0.72712 -0.5819 0.12444 -0.196 0.20587 0.15808 0.043421 -0.42108 0.67817 0.021464 
{\displaystyle -0.72832 0.23142 0.76007 -0.41386 -0.1474 0.67417 -0.9406 1.2252 -1.9372 0.56129 -0.62559 -0.90315 1.1176 -0.2834 2.0403 
2017 -0.03022 -0.17869 -0.28081 -0.15047 -0.50644 0.39126 -0.23226 0.61206 -0.057676 -0.15559 -0.45313 -0.17892 0.52605 0.94539 0.319 
what -0.53276 -0.77603 0.38763 0.62359 0.022084 0.98431 -0.42178 -0.11807 0.050039 0.25051 -0.12249 -0.83844 0.36862 0.45797 -0.18665 
asahi 0.41074 -0.67264 -0.69947 -0.69215 -0.92552 1.001 0.37669 0.73805 -0.61303 -0.97608 -0.12646 0.54088 -0.24981 0.48387 -0.10891 
story -0.6665 0.17126 -0.06652 0.30678 -0.88415 0.38541 -0.87098 -0.2295 0.23214 0.075907 -0.0906 -0.32573 -0.12192 -0.070982 -0.29552 
27 0.089253 0.99105 -0.74381 -0.21504 0.18003 0.4814 -0.22119 0.12997 -0.05184 0.16865 -0.43657 -0.34271 0.76355 0.79751 0.30251 
internet -0.26096 -0.33459 -0.33676 0.34388 -0.49276 1.1241 0.10361 0.04406 -0.16938 -0.0010263 -0.017122 -0.2138 -0.1141 0.35572 -0.38313 
global -0.38955 -0.11022 -0.26385 0.15633 -0.42379 0.46595 -0.56212 0.080185 0.17621 0.010612 -0.26221 -0.18421 -0.23754 1.1716 -0.3666 
group -0.33913 -0.034349 -0.30547 0.49716 -0.62834 0.60848 -0.16159 0.063756 0.032431 0.12025 -0.16897 -0.13768 0.25675 0.52307 0.012158 
year -0.29621 -0.044719 0.028715 0.47424 -0.3498 0.71952 -0.81122 0.256 0.30142 0.22795 -0.050474 -0.4066 0.052543 0.73715 -0.12009 
』 -0.025519 -0.39228 -0.64133 0.62431 -1.8451 -0.094289 -0.40971 -0.82424 -1.1739 -0.07971 -0.10818 -0.083499 -0.45346 -0.99187 0.73612 
indiana -0.59508 0.44065 -0.00035667 0.38773 -0.78845 0.44959 -0.74849 -0.036219 0.015323 -0.0066542 -0.081379 -0.076084 -0.55612 0.43333 -0.69938 
1993 -0.62564 0.52267 -0.3187 0.44815 -0.71741 0.23207 -1.0741 -0.18475 0.00407 0.083785 -0.61316 -0.32152 -0.0035528 -0.090178 0.17522 
1994 -0.70225 0.46805 -0.12219 0.24017 -0.70283 0.12692 -1.1946 -0.2304 0.17402 0.152 -0.54807 -0.27295 -0.12046 0.11543 0.074893 
black -0.50412 0.23662 0.0089658 0.46353 -0.64603 0.16832 -1.107 -0.45666 0.13515 -0.23463 -0.15418 -0.46616 -0.15222 0.29584 -0.24059 
human -0.32669 -0.038673 -0.11531 0.61409 -0.27689 0.13035 -0.73815 -0.29387 -0.057168 0.28443 -0.37182 -0.34889 0.19803 0.84923 -0.30648 
23 0.060359 0.99888 -0.78584 -0.039072 -0.089404 0.65352 -0.63893 0.50762 0.36432 0.58239 -0.48031 -0.47059 0.76304 0.54778 0.26311 
と -0.72497 -0.09661 -0.087147 -0.42657 0.11488 0.82209 -0.34473 0.16321 -1.1794 0.67788 -0.061924 -0.75549 -0.15115 -0.43569 0.6876 
mm -0.24539 1.6421 -0.18171 -0.57478 0.076023 0.6529 -0.30243 0.65138 0.099675 1.314 -0.3488 -1.1806 0.8124 0.27062 1.5171 
massachusetts -0.61687 0.30955 -0.20383 0.33353 -0.45108 0.065813 -0.87186 -0.033286 -0.13749 -0.033041 0.083326 -0.25579 -0.30651 0.5529 -0.29842 
document -0.54244 -0.51157 0.3355 0.58818 0.16134 0.52894 -0.66976 -0.32585 0.41624 0.66493 -0.052674 -0.47747 -0.030126 0.83186 -0.027111 
space -0.32771 0.094778 -0.2253 0.47207 -0.39652 0.39433 -0.3654 0.4028 -0.55307 0.1039 -0.22109 -0.23764 0.2015 0.92463 -0.36819 
illinois -0.64944 0.58192 -0.40437 0.58497 -0.71583 0.052719 -0.61672 -0.11395 0.4949 0.12429 0.086431 -0.42987 -0.52335 0.35896 -0.16672 
kentucky -0.8783 0.50096 -0.070311 0.29302 -0.74491 0.17317 -0.91278 -0.29086 0.022848 -0.073454 -0.22579 -0.29234 -0.55536 0.25042 -0.52606 
2006年 -0.74727 0.061911 -0.45126 0.16443 0.030484 -0.17972 -0.098446 -0.01765 -0.56225 0.25401 0.55126 -0.17929 -0.63042 0.45976 0.07657 
article -0.47875 -0.27057 0.10885 0.63458 -0.11745 0.93249 -0.64639 -0.0038804 0.15475 0.31514 -0.051508 -0.58102 0.12226 0.32915 -0.41281 
his -0.57267 -0.31484 0.09133 0.63766 -0.70734 0.61279 -0.84339 -0.049832 0.27029 0.050982 -0.24886 -0.53237 0.12447 0.31817 -0.27137 
years -0.29671 0.12937 -0.036298 0.26456 -0.68325 0.60296 -0.57248 0.038309 0.3063 0.27677 -0.24332 -0.50444 -0.017305 0.39656 -0.059924 
my -0.28447 -0.87937 0.15741 0.57054 -0.40078 0.90167 -0.60717 -0.11145 -0.015613 0.10209 -0.31477 -0.7784 0.35634 0.24443 -0.3245 
usgs -1.5303 0.15391 -0.24771 0.28762 -0.32596 0.1727 0.059728 0.54216 0.086102 -0.76352 0.3057 -0.60958 0.047707 0.88141 -0.92706 
29 -0.14377 0.61091 -0.57544 0.031953 -0.39176 0.55182 -0.58429 0.4635 0.37694 0.3827 -0.51295 -0.31291 0.47138 0.41899 0.2285 
modern -0.58237 0.62397 0.58077 0.7004 -0.67699 0.46418 -0.022308 -0.043801 0.12682 -0.16315 0.17397 -0.60896 -0.16892 0.64679 -0.65617 
投稿記録 1.0365 0.11938 1.2207 -1.5477 -0.33421 -0.15183 0.26462 -0.2996 0.10002 -0.45473 -0.40931 -2.3095 0.66671 0.13879 -0.23012 
technology -0.36651 0.16766 -0.37379 0.43958 -0.6372 0.22982 -0.59907 0.24298 0.047139 0.36181 -0.3968 -0.17649 -0.48175 0.92175 -0.25237 
administration -0.55145 0.17752 -0.37967 0.63174 -0.23649 0.12523 -0.49209 0.37436 -0.22165 0.007714 0.29503 -0.1822 -0.5942 1.1127 -0.19549 
honolulu -0.24317 -0.17133 -0.64468 0.61804 -0.87858 0.65896 -0.16824 0.38591 0.414 -0.2617 0.18089 -0.30783 -0.0054648 0.62361 -0.2125 
日本経済新聞 0.7203 -1.6517 -0.78035 -1.2446 -0.41495 1.0839 -0.21352 0.58955 -1.1984 -0.8884 -0.3382 0.39726 0.0071247 0.094433 -0.2847 
毎日新聞 0.55284 -1.1612 -0.75707 -1.1821 -0.53224 1.6294 0.62142 0.36 -1.2611 -1.3413 -0.2669 0.45794 -0.18567 0.13301 -0.2832 
act -0.3966 0.13206 -0.069508 0.71042 -0.061249 0.25087 -0.68624 0.013509 -0.1781 0.35262 -0.099389 -0.46725 -0.0092896 0.84943 -0.48787 
com/ -1.0192 0.89601 0.81474 0.12998 -1.6983 0.94627 0.47338 0.0072723 0.56886 -0.30071 0.008188 0.15249 -0.086411 0.42148 0.88918 
le -0.69709 -0.12408 -0.76861 0.58916 -0.76276 -0.040943 -0.65218 0.33746 -0.3217 0.44035 -0.12148 -0.93391 0.094143 -0.21102 0.28563 
study -0.69387 0.11875 -0.014728 0.49162 -0.52284 0.29295 -0.87848 -0.22558 0.040247 0.05043 -0.28755 -0.41754 -0.24947 0.52707 -0.40813 
2016 0.061695 -0.030133 -0.38606 0.0031853 -0.25342 0.22505 -0.56526 0.53035 0.044045 -0.045322 -0.44107 -0.21835 0.38939 0.97441 0.14308 
map -0.53634 0.7459 0.7294 0.651 -0.52063 0.47591 0.21529 -0.063199 -0.084539 -0.42092 0.56963 -0.51092 -0.25385 1.0765 -0.86817 
february -0.32465 0.1685 -0.43756 -0.03415 -0.48628 0.61802 -0.75422 0.31386 0.13789 0.20208 -0.35072 -0.12518 0.091824 0.50722 -0.34219 
august -0.39954 0.21298 -0.51447 0.045268 -0.39786 0.8233 -0.68201 0.45096 0.31293 0.43142 -0.31254 -0.1332 -0.0034004 0.6028 -0.25784 
vermont -0.52267 0.20188 -0.050675 0.52197 -0.49492 0.51334 -0.66717 -0.034852 0.02344 0.26452 -0.23916 -0.43132 -0.29482 0.47131 -0.21952 
paul -0.5115 0.17927 -0.29417 0.23468 -0.4923 0.24261 -0.96198 -0.1705 -0.13328 -0.02697 -0.25001 -0.29918 -0.088947 0.13251 -0.092743 
after -0.43588 -0.25017 -0.36141 0.59527 -0.5456 0.60855 -0.5655 -0.13861 0.10934 0.21656 -0.32634 -0.52675 -0.054473 0.48438 -0.41014 
presidential -0.57799 0.36107 -0.25028 0.27398 -0.16796 -0.078048 -1.0179 0.050287 0.35751 0.11409 0.3091 -0.20897 -0.37181 0.91793 -0.20843 
dictionary -0.60939 0.44698 0.0087238 0.52659 -0.68743 0.37452 -0.77884 -0.015356 -0.0432 0.22561 0.0055581 -0.32976 -0.48862 0.2203 -0.2838 
+ -0.7666 0.256 0.27188 -0.68508 -0.25755 0.97944 -0.11546 0.87219 -1.3344 0.16459 0.27051 -1.0931 0.96114 -0.69159 1.4536 
do -0.38154 -0.93263 0.29693 0.7376 0.18323 1.1866 -0.78208 -0.10071 0.09991 0.28998 -0.12909 -0.94075 0.46594 0.37547 -0.42932 
congress -0.6886 0.44374 0.073293 0.72095 -0.5025 0.35583 -0.69274 0.0037441 0.39774 0.16982 0.14394 -0.25228 -0.43382 0.76622 -0.4752 
central -0.56625 0.25036 -0.70916 0.9139 -0.38701 0.26441 -0.27444 0.16975 -0.37425 0.057783 0.050809 -0.29357 -0.48806 1.1265 -0.48809 
50 0.0064579 1.0077 0.52243 -0.56104 -0.45764 0.91483 0.0043201 0.45481 0.46772 0.80243 -0.37313 -0.65676 0.70012 0.49265 0.50134 
> 0.25846 -0.84504 0.12024 -1.2898 -0.38698 0.01265 0.32365 0.88457 -0.24737 0.25336 0.86331 -0.59175 -0.98267 1.391 1.3725 
oklahoma -0.59267 0.37262 0.10388 0.22316 -0.85184 0.16034 -0.67843 -0.060828 0.19179 0.0055514 0.18582 0.13599 -0.65372 0.7117 -0.28519 
park -0.47999 0.26435 -0.49616 0.45523 -0.25589 0.15554 -0.75063 0.40905 -0.2241 -0.28345 0.38892 -0.37046 -0.47441 1.0019 -0.61065 
most -0.52951 -0.34644 0.12859 0.61355 -0.22664 0.77323 -0.60671 -0.007969 0.22099 0.10135 0.17813 -0.46336 0.10689 0.55928 -0.245 
jh 0.39118 1.029 -0.12797 -0.94944 -0.83834 0.40452 0.14195 0.066392 -0.014025 0.80627 -1.1515 -0.49578 0.99196 0.59313 1.3216 
november -0.23934 0.3339 -0.46042 0.13384 -0.31748 0.46745 -0.81842 0.32435 0.30223 0.4593 -0.06824 -0.042835 0.14732 0.64858 -0.24782 
500 -0.16194 1.2556 0.28452 -0.42651 -0.13159 1.3465 0.39602 0.32303 0.58603 0.68067 -0.24546 -0.66444 0.75162 0.44143 0.94492 
weather -0.62332 0.27554 -0.45136 0.4961 -0.36959 0.20078 -0.39281 0.447 -0.26188 -0.0091196 0.42817 -0.22207 -0.45835 0.94883 0.019494 
‎211 1.4218 0.45899 1.268 -2.2519 -0.10932 -0.20103 -0.23334 0.052021 -0.18126 -0.067174 -0.98768 -2.6596 0.99403 0.73558 0.19055 
57 0.47651 1.0857 0.47422 -1.1116 -0.0849 -0.072044 0.25486 0.11192 -0.22245 0.23631 -1.1933 -1.5742 0.64143 1.1108 0.5319 
president -0.48717 0.10885 -0.23895 0.59209 -0.19176 0.15138 -0.81946 -0.18184 0.26006 0.052894 0.21415 -0.51588 -0.17969 0.49514 0.031351 
ref -1.1905 -1.0634 0.21194 0.16316 -1.0908 -0.89451 0.22643 0.71108 -0.84327 0.11251 -0.05058 0.48113 1.3333 1.0877 2.0452 
georgia -0.77852 0.36113 -0.077186 0.39735 -0.76949 0.18979 -0.78524 -0.011319 0.22576 -0.080011 0.12972 -0.40383 -0.3042 0.41668 -0.50098 
日本 0.62684 -0.13974 -0.59449 -0.95953 -0.59891 -0.15082 0.060303 -0.56344 0.20909 1.3953 0.37909 0.24927 0.62637 0.058654 0.43282 
‎111 0.75412 0.20819 0.91734 -2.0932 -0.20172 -0.1577 -0.11376 0.01326 -0.050272 -0.069879 -0.74101 -2.5604 0.81129 0.53163 0.1535 
union -0.23449 0.54575 -0.12274 0.81173 -0.60835 0.40874 -0.63922 0.42773 -0.33183 0.1783 0.046639 -0.44832 -0.22437 0.63046 -0.21904 
できごと -0.25648 0.79952 1.3571 -1.3733 0.25752 0.064978 -0.17356 -1.8097 -2.1131 2.2378 -0.00087328 0.96935 -0.22112 -0.23104 -1.1688 
1992 -0.81331 0.48017 -0.12764 0.4822 -0.85084 0.11874 -1.1067 -0.25838 0.12517 0.38556 -0.50564 -0.35077 -0.082551 -0.09407 -0.033999 
archives -0.54904 0.34423 -0.21031 0.49487 -0.50279 0.091317 -0.41482 0.3656 0.21052 0.10422 0.27089 -0.25347 -0.60001 1.059 -0.44168 
network -0.18702 -0.58676 -0.44163 0.14744 -0.20255 0.85086 -0.20308 0.29661 -0.046086 0.061325 0.0012001 -0.31244 -0.71943 0.9945 -0.088976 
tax -0.40236 0.017617 -0.17925 0.38258 0.26229 0.4786 -0.5128 0.15717 0.15311 -0.28077 0.62743 -0.20857 -0.40236 1.2833 -0.27055 
now -0.36423 -0.65927 0.31821 0.35587 -0.40558 0.84626 -0.69459 0.016065 0.25079 0.084029 0.33865 -0.46024 0.2343 0.29444 -0.59288 
volume -0.57519 0.34205 -0.042209 0.40051 -0.59459 0.24492 -0.86307 -0.17341 0.25232 0.33175 -0.36121 -0.40275 -0.044034 0.4636 -0.088649 
このページはbotにより生成されています。編集は可能ですが、次回の更新時に上書きされてしまいますので、恒常的な変更が必要な場合や、未作成記事の情報交換をなさりたい場合などにはノートをご利用ください。未作成記事の日本語版での題名はwikipedia:多数の言語版にあるが日本語版にない記事にお寄せください。 0.82741 -0.24701 1.0077 -1.2501 -0.43009 -0.038556 0.83105 -0.4785 -0.47077 -0.61886 0.96354 -2.585 -0.22735 -1.506 -0.48332 
「日本語版記事」欄が丸括弧入りの赤リンクとなっているものは、wikipedia:多数の言語版にあるが日本語版にない記事から抽出された暫定の記事名です。 0.79858 -0.25931 0.54724 -1.0991 -0.54809 -0.28539 0.5729 -0.3341 -0.98675 -0.25009 1.3231 -1.889 -0.5211 -1.7095 0.10434 
du -0.59436 -0.14704 -0.58115 0.66619 -0.96553 -0.21716 -0.81311 0.30157 -0.34314 0.59842 -0.36923 -0.78794 -0.02792 -0.17917 0.49289 
than -0.7114 -0.55901 0.2517 0.59955 -0.13574 0.94678 -0.52617 0.04777 0.20564 0.2221 0.084497 -0.71607 0.35999 0.28151 -0.28188 
言語間リンクを基に作成していますが、言語間リンク自体が不適切である場合もあります。この場合は、記事の言語間リンクの方を修正することもご検討ください。 0.89568 -0.090365 1.0781 -1.8574 -0.22116 -0.26165 1.4123 -0.66776 -0.59087 -0.71824 0.91906 -3.0619 0.26331 -1.6643 -0.53258 
1983 -0.46883 0.74659 -0.35594 0.33076 -0.70232 0.18112 -1.1582 -0.19957 0.19461 0.14023 -0.54597 -0.33978 -0.055007 -0.077024 -0.068716 
表はソートボタンでソートできます。初期状態では、日本語版に記事のあるものではサイズの隔りが大きい順、日本語版にないものでは言語版数が多い順に表示されています。 1.1365 -0.38614 0.81597 -1.077 -0.18722 0.36164 0.80279 -0.65082 -0.77127 -1.1162 1.5422 -2.4007 -0.31653 -1.9712 -0.28706 
999⋯ -1.0695 0.38344 -0.23147 -0.6565 0.39893 1.2808 -0.52881 1.2442 -1.4439 1.24 -0.42381 -1.1257 0.49982 -0.77718 1.5791 
commission -0.51409 0.20378 -0.23752 0.36093 -0.22589 0.29457 -0.81265 0.24596 -0.10604 0.20982 0.082314 -0.33203 -0.5549 1.0103 -0.37697 
音楽 0.32036 -0.46143 -1.582 -1.6235 -0.26018 -0.44397 -0.89828 -0.16109 0.0033525 1.9604 -0.38031 0.58475 1.1601 0.47174 0.00088372 
iowa -0.74775 0.32105 -0.28232 0.4384 -0.05629 0.25381 -0.83337 0.27486 -0.10807 0.15426 0.55652 -0.32651 -0.29012 0.58574 -0.29469 
alabama -0.89734 0.32161 -0.20875 0.47931 -0.4419 -0.085666 -0.76778 -0.081894 0.19779 0.18459 0.11249 -0.30667 -0.40554 0.80588 -0.17334 
スポーツ 0.70675 -0.39334 -1.2139 -1.7073 -0.061205 -0.61507 -0.57247 0.24506 -0.17112 1.4535 0.56553 0.21474 1.136 0.621 -0.64281 
early -0.62344 0.31034 -0.043686 0.54699 -0.80766 0.46251 -0.68679 -0.0017761 -0.018421 0.14568 -0.41161 -0.54881 -0.074558 0.27524 -0.35752 
nikkei 0.47908 -1.221 -0.87792 -1.3245 -0.31406 1.0553 0.080042 0.86831 -0.78524 -1.0148 0.27962 0.24106 -0.19944 0.079228 0.45428 
読売新聞 0.54161 -0.68337 -0.06894 -1.0901 -1.4161 2.057 0.46203 0.62563 -0.45589 -1.3534 0.39212 1.3213 -0.13614 0.031606 0.2916 
ii -0.31419 0.1879 -0.2082 0.61732 -0.60863 -0.15566 -0.65693 -0.061816 0.095366 0.41549 0.074698 -0.61998 -0.21228 0.29346 0.19645 
into -0.55015 -0.18587 0.18784 0.712 -0.50155 0.66773 -0.56861 0.02387 0.013875 0.26675 -0.034857 -0.532 0.044335 0.64906 -0.42622 
am -0.051425 -0.3115 -0.42572 0.7526 0.047635 0.42442 -0.75151 -0.21776 -0.1773 0.20784 -0.75891 -0.33038 0.76064 0.76571 0.19034 
church 0.28506 0.37434 0.1628 0.59276 -0.74778 0.16503 -0.97918 -0.23012 -0.14216 0.12093 0.54494 -0.10722 -0.005229 0.19334 -0.34442 
culture -0.63264 0.44499 -0.13576 0.42387 -0.54154 0.35114 -0.84428 0.042976 0.05763 0.19024 -0.1533 -0.39161 -0.41806 0.4928 -0.48904 
31 -0.17951 0.59264 -0.40849 -0.10087 -0.028714 0.57879 -0.1914 0.22988 -0.08074 0.57549 -0.10187 -0.24787 0.42942 0.51877 0.44689 
agriculture -0.72277 0.33901 -0.19485 0.47139 -0.23742 0.23923 -0.79277 0.14733 0.11813 -0.037149 0.29604 -0.093045 -0.35505 1.0034 -0.39087 
http://web -0.23774 -0.45246 -0.35907 -0.59441 -0.97137 1.5731 0.68826 0.50384 -0.39219 -0.4459 -0.33314 0.60076 -0.34468 0.64712 0.12903 
our -0.65078 -0.16647 -0.017534 0.6786 -0.33751 0.60697 -0.70465 -0.014215 0.025699 0.15486 0.11713 -0.59066 -0.082433 0.53535 -0.55604 
40 -0.0026172 1.0053 -0.0066841 -0.97979 -0.17736 0.5569 -0.16723 0.0042538 0.32077 0.87142 -0.46884 -0.84473 0.31853 0.23999 0.54764 
http://sankei 0.0418 -0.65933 -0.17729 -1.0325 -0.81734 1.4274 0.41753 0.83366 -0.57411 -0.90993 -0.33689 0.56409 -0.0053191 0.56026 0.37967 
alexander -0.66715 0.30042 -0.05075 0.57105 -0.60579 0.32474 -0.86903 -0.25872 0.0013385 -0.18387 -0.31591 -0.48339 -0.040434 0.29442 -0.23849 
映画 0.40814 -0.6156 -1.038 -1.6361 -0.17056 -0.22098 -0.91413 -0.22006 -0.22608 1.2491 -0.1748 0.136 1.4288 -0.053237 -0.56741 
2018年2月9日閲覧。 -0.45025 -1.0989 -0.16436 -0.422 0.40817 0.69657 -0.20041 0.17558 0.020036 0.029007 0.16024 -0.24751 -0.64413 0.66749 0.60498 
2010年 -0.73659 0.019722 -0.50112 -0.015623 0.038224 -0.35064 0.067856 0.044593 -0.63778 0.084657 0.96714 0.070482 -0.20295 0.70533 0.4375 
朝日新聞 0.71205 -1.1342 -0.90594 -1.4458 -0.8875 1.7918 0.43894 0.47362 -0.52488 -1.3106 -0.69666 0.59192 0.036339 -0.01602 -0.081977 
200 -0.53016 1.1821 0.14575 -0.30978 0.13187 0.54426 0.092144 -0.065032 0.14164 0.58901 -0.049933 -1.2083 0.97518 0.064982 0.68866 
lincoln -0.76943 0.42361 -0.076499 0.82626 -0.85667 0.20901 -1.0849 -0.25814 0.33669 0.14286 -0.30675 -0.57312 -0.12825 0.20555 -0.18217 
smith -0.61983 0.40812 -0.023328 0.17992 -0.64473 0.051748 -1.2278 -0.13971 -0.10691 0.018624 -0.49147 -0.37979 0.092745 0.017463 -0.0068972 
country -0.45657 0.05884 0.0084809 0.28226 -0.41387 0.33742 -0.47992 -0.055501 0.039366 -0.051178 0.095886 -0.58495 -0.18311 0.46247 -0.44632 
1991 -0.76311 0.654 -0.15551 0.4472 -0.9221 0.066367 -1.1303 -0.16256 0.18836 0.40188 -0.49629 -0.24283 -0.0046842 -0.081182 -0.086685 
heritage -0.68236 0.25427 -0.0914 0.59599 -0.80055 0.28928 -0.6225 0.037011 0.030479 0.1547 0.11573 -0.24746 -0.15702 0.47423 -0.33459 
reference -0.61579 -0.008955 -0.032375 0.28787 -0.41235 0.38987 -0.53053 -0.012259 -0.092988 0.47658 -0.12249 -0.33688 -0.3749 0.47445 -0.074639 
columbia -0.50345 0.51236 -0.14047 0.60489 -0.6776 0.0071502 -0.73139 -0.00097859 0.023481 0.12769 0.15137 -0.53178 -0.64143 0.51888 -0.61618 
two -0.32116 -0.64382 0.083502 0.54627 -0.11173 0.75978 -0.75104 -0.16772 0.32111 0.27604 -0.027278 -0.64541 0.096545 0.46285 -0.2374 
itmedia 0.22343 -0.7083 -0.31357 -0.13304 -0.63437 0.83588 0.15097 0.037842 -0.47135 -0.85 0.51136 0.43993 -0.55304 0.12823 -0.13245 
座標: 0.61621 1.2972 -0.63302 -0.26046 -0.1519 0.34121 0.80195 -0.07868 0.21006 0.89611 0.24514 -1.2026 0.12611 0.47703 0.86634 
chicago -0.55394 0.50206 -0.18752 0.3086 -0.81804 0.56346 -0.71392 0.097397 0.34452 0.04242 0.078474 -0.12702 -0.35669 0.25348 -0.090523 
series -0.46412 0.22669 -0.15634 0.59103 -0.65877 0.37319 -0.56204 0.12899 0.023584 0.37933 -0.23888 -0.37847 0.1287 0.5178 -0.044973 
which -0.38601 -0.65796 0.20975 0.97695 0.027909 0.80446 -0.92583 -0.093871 0.29511 0.45868 -0.068604 -0.78405 0.20336 0.46912 -0.49829 
4月1日 -0.96768 -0.11622 -0.14761 -0.44543 0.9003 0.66488 1.0929 -1.7303 -1.3842 -0.12434 1.1021 -0.25417 -0.27071 -0.25117 -0.11298 
eds -0.86387 0.46839 -0.031705 0.20736 -0.835 0.031342 -1.348 -0.18642 -0.069483 -0.097036 -0.62343 -0.25384 -0.01818 0.13918 -0.3428 
[1] -0.26001 0.19345 -0.15085 0.20783 -0.29351 0.71894 -0.30036 0.46074 0.038373 0.099834 0.21585 -0.39467 0.030144 0.30776 -0.18496 
joseph -0.56525 0.17844 -0.14169 0.15981 -0.70343 0.23836 -1.0283 0.034343 -0.097446 -0.053238 -0.51674 -0.34451 -0.050711 0.24779 -0.12258 
boston -0.42427 -0.054669 -0.16437 0.35684 -0.88313 0.62691 -0.62651 0.13431 0.31629 -0.32267 -0.057774 -0.21957 -0.15103 0.39488 -0.18394 
white -0.62979 0.25633 0.021899 0.47923 -0.78679 0.29534 -0.8611 -0.13415 -0.0084951 -0.14457 -0.21485 -0.50808 0.082456 0.38596 -0.40196 
so -0.45138 -0.95763 0.30459 0.57145 0.034968 1.1788 -0.64998 0.12799 0.2743 0.11116 -0.084073 -1.0036 0.5109 0.24693 -0.64791 
： 0.93756 0.92398 -1.2461 -0.52573 -0.30734 0.53626 0.22865 -0.30578 -0.14148 0.72152 -0.44433 -0.33612 1.0903 0.3728 0.65927 
mark -0.66404 -0.14825 -0.027868 0.065859 -0.61637 0.41089 -0.85627 0.027905 0.094127 -0.013164 -0.21211 -0.17272 -0.16074 0.36554 -0.018388 
2009年 -0.73169 -0.073625 -0.48294 0.083738 -0.039773 0.021554 0.14166 -0.03565 -0.57735 -0.020087 0.48988 -0.086664 -0.34614 0.54023 -0.030407 
analysis -0.72568 0.11705 -0.081644 0.40709 -0.32098 0.19631 -0.65089 0.25588 0.0080417 0.0075989 -0.13215 -0.15218 -0.098844 1.1169 -0.12254 
sandman -0.59274 -0.43355 0.24845 0.32438 -0.54321 0.508 -1.0282 -0.16006 0.18415 0.058721 -0.28127 -0.15821 0.1416 0.52499 0.23663 
section -0.49568 -0.24515 0.26375 0.64174 0.38598 0.57747 -0.95205 -0.1079 0.19187 0.65468 -0.1641 -0.57379 0.1637 0.76467 -0.3875 
ac -0.94366 -0.043332 -0.34113 0.12209 -0.043203 0.50582 -0.35408 0.65634 -0.75771 0.091071 -1.0908 0.04445 0.68302 1.1257 1.3806 
プロテスタント 2.502 1.2002 0.70069 -0.06176 0.21611 0.81489 -1.7697 -1.9514 0.30221 0.80974 2.6813 0.56819 -0.18395 0.084308 0.16402 
1989 -0.67074 0.59294 0.081977 0.59677 -0.87209 0.081354 -1.0817 -0.19494 0.14346 0.1786 -0.60418 -0.36842 0.082201 0.20858 -0.22198 
board -0.20488 -0.11633 -0.21095 0.17927 -0.20777 0.44311 -0.59343 -0.060098 -0.053227 0.10817 0.34149 -0.11656 -0.91978 0.81274 -0.078139 
flight -0.12764 -0.19019 0.0093047 0.24934 -0.4754 0.61954 -0.15638 0.20846 -0.064437 0.11336 -0.6638 -0.093854 -0.36165 1.0967 0.044863 
how -0.20152 -0.6097 0.24901 0.59683 -0.2223 0.83473 -0.78059 -0.0085449 0.08363 0.30645 -0.03262 -0.55062 0.21805 0.29732 -0.44544 
ohio -0.52204 0.43273 -0.096084 0.61881 -0.4104 0.25424 -0.49214 0.0066588 0.20989 0.022708 0.18892 -0.33299 -0.60417 0.81173 -0.34607 
les -0.48185 -0.061396 -0.93389 0.80834 -0.86829 -0.14262 -0.88849 0.12956 -0.28572 0.34434 -0.020624 -0.80531 -0.073863 -0.24324 0.31754 
z -1.5294 -0.28866 0.57874 -0.61711 -0.080407 0.19163 -1.584 0.25719 -1.3399 -0.060154 -0.34535 0.27942 1.3989 0.12742 1.1903 
32 -0.18985 1.3432 -0.46981 -0.198 -0.056939 0.61613 0.18881 0.029691 -0.17023 1.002 -0.42594 -1.0005 0.72839 0.32848 0.41074 
」p -1.7843 -0.13847 0.44057 -0.78677 -1.9061 -0.88577 1.4299 2.1782 -1.32 -0.013524 -0.27323 -0.28784 1.7474 0.33338 1.7648 
music -0.65355 -0.0235 -0.21447 0.12673 -0.67551 0.51007 -0.66091 0.0054623 -0.098646 0.51516 -0.10355 -0.11888 -0.22446 0.22868 -0.184 
river -0.76747 0.23143 -0.1146 0.53091 -0.88289 0.40706 -0.60095 -0.036054 0.20134 0.24554 0.027899 -0.58065 -0.0018912 0.28793 -0.61204 
-- -0.40185 -0.31598 -0.031209 -0.4504 0.22918 0.8755 0.54051 -0.076748 0.59215 0.76966 -0.7672 -0.64559 -0.35691 1.0286 0.44265 
change -0.67801 -0.035889 -0.074229 0.4529 -0.41724 0.25902 -0.77032 0.19053 0.31425 -0.098344 0.097839 -0.26585 0.079988 0.80062 -0.43505 
food -0.4436 -0.050536 -0.34057 0.30401 0.0041976 0.14599 -0.5328 0.0058037 -0.084636 -0.01803 -0.15144 -0.11378 -0.17361 0.97853 0.14698 
産経新聞社 0.85749 -1.2685 -0.73775 -1.8448 -0.65667 1.9053 0.14517 0.58419 -0.78641 -1.1841 -0.47362 0.65362 -0.13417 -0.04529 -0.034858 
iso -0.95264 -0.32794 0.23068 -0.24643 -0.2505 0.32944 0.19731 0.18168 -0.39167 0.70115 -0.14867 -0.16402 -0.18882 1.0152 0.25375 
geographic -1.133 0.62084 0.18836 0.70783 -0.24698 -0.010386 -0.38475 0.66424 -0.048707 -0.24977 0.46723 -0.47961 -0.086124 1.0602 -0.45297 
associated -0.36648 -0.14477 -0.19852 0.65359 -0.51309 0.66757 -0.29175 0.24016 -0.043663 -0.074876 -0.13356 -0.25226 -0.24089 0.55281 -0.16462 
name -0.44067 -0.44143 0.25446 0.63786 -0.30116 0.49035 -0.62782 0.11259 0.13802 0.23557 -0.063029 -0.62024 0.33414 0.48586 -0.55763 
copyright -0.37392 -0.60299 0.26387 0.71009 0.38137 0.76658 -0.80538 -0.25738 0.10133 0.47693 -0.11688 -0.56337 0.037101 0.88307 -0.22323 
2011年 -0.69214 -0.16139 -0.6283 0.080537 0.18949 -0.18102 0.059786 0.11072 -0.82074 -0.003684 0.97632 0.045671 -0.37611 0.60761 0.27998 
oclc -0.77726 0.80522 0.010539 0.33661 -0.87323 0.3657 -0.26069 -0.035168 0.092304 -0.036709 -0.43682 -0.14048 -0.3408 0.48074 -0.075491 
original -0.4738 -0.11307 0.10486 0.82516 -0.0047293 0.46586 -0.65483 -0.048887 0.26107 0.46459 0.087252 -0.76632 -0.24835 0.75281 -0.38842 
net -0.10099 -0.37624 -0.49399 -0.14468 -0.39777 0.66217 -0.15335 0.48884 -0.19237 -0.33228 0.27363 -0.17707 -0.15085 0.43467 -0.13391 
power -0.78153 0.29528 -0.036083 0.41526 -0.41546 0.30772 -0.67638 -0.14779 0.25769 -0.028932 -0.078182 -0.34402 0.07984 0.58361 -0.36232 
islands -0.83908 0.064964 -0.30154 0.5467 -0.56743 0.22213 -0.45241 0.19638 0.23735 0.053179 0.17706 -0.49813 -0.064653 0.35793 -0.49074 
bell -0.53471 0.2407 0.070603 0.46758 -0.8535 0.66343 -1.0843 -0.23202 -0.26763 -0.076484 -0.48154 -0.42221 0.053399 0.20542 -0.44052 
district -0.2683 0.44738 -0.048464 0.7854 -0.29272 0.19979 -0.84644 0.15771 -0.1106 0.34718 0.18916 -0.51955 -0.37074 0.76773 -0.74689 
land -0.72553 0.22832 0.093723 0.54126 -0.49568 0.20532 -0.89836 0.098491 0.20919 0.099658 -0.10971 -0.31096 0.12104 0.62486 -0.4756 
4% 1.5401 1.3212 0.37753 0.14423 0.52767 1.0368 -1.2033 -0.93422 -0.15374 1.4706 1.9377 0.24941 0.27458 0.0066284 0.22454 
secretary -0.67786 0.17062 -0.22111 0.20358 -0.30043 0.066599 -0.72377 0.039983 -0.081407 -0.23021 0.35469 -0.012659 -0.64683 0.87381 -0.38776 
例: -1.3846 0.67461 0.65682 -0.40761 -0.96629 0.073298 0.87326 -0.44245 -1.6352 0.17406 1.6325 -1.9085 -0.12576 -1.5995 1.7196 
louisiana -0.79268 0.34349 -0.10071 0.54232 -0.61764 0.20841 -0.7603 0.19879 0.049856 0.002494 0.26525 -0.39773 -0.54981 0.62988 -0.62116 
washingtonpost -0.1035 -0.30053 -0.15987 0.33395 -0.96884 0.9535 0.0063312 0.84215 -0.063877 -0.64997 0.11645 -0.068669 -0.59352 0.70821 -0.24852 
burlington -0.4341 0.33449 0.077886 0.40162 -0.64596 1.1093 -0.36701 0.43901 -0.050786 0.4582 -0.066722 -0.19624 -0.55137 0.50381 -0.049866 
second -0.43722 -0.053361 0.18755 0.51281 -0.58818 0.37596 -0.68393 -0.10794 -0.058268 0.21918 -0.2907 -0.43243 0.046194 0.35021 -0.21452 
scientific -1.1088 0.31584 -0.079066 0.85266 -0.24882 -0.098302 -0.44507 0.36173 -0.10267 0.18849 0.1526 -0.55102 -0.20112 1.026 -0.18448 
} -0.26382 -0.33698 1.3258 -0.40799 0.096743 1.8031 -0.72936 1.1471 -3.2348 0.82569 -1.0364 -1.2132 0.91005 -0.61734 3.0319 
french -0.44827 -0.116 -0.30407 0.73714 -0.63222 0.18351 -0.93296 0.074459 -0.010306 0.33208 -0.13792 -0.71657 0.045076 0.084983 -0.15539 
2019年1月30日閲覧。 0.0067068 -0.91237 -0.099142 -0.40952 -0.53416 0.57567 -0.059391 0.20839 -0.37162 -0.5057 0.17345 0.20937 -0.16429 0.45373 0.10045 
3% 1.9513 1.6763 0.76421 0.034881 0.56846 1.1953 -1.3629 -1.4418 -0.16542 1.5087 2.5783 0.28697 0.29269 0.088822 0.11342 
such -0.40903 -0.71483 0.32332 0.93459 0.32197 0.92858 -0.971 -0.37341 0.40028 0.43566 -0.096292 -0.78404 0.34557 0.52342 -0.51807 
indian -0.57699 0.44678 0.10665 0.69916 -0.79182 0.32786 -0.72243 -0.30341 0.018477 0.12265 -0.12903 -0.2973 -0.18385 0.46921 -0.61961 
jpg 0.075741 -0.51951 0.1646 -1.4227 -0.85857 0.61032 0.28942 -0.19535 0.1511 -0.20049 -0.17893 -0.93504 0.27098 0.122 -0.11592 
und -1.1155 -0.43249 0.312 0.36194 -1.6003 0.16656 -0.9747 0.37252 0.052685 0.49374 -0.093658 -0.51126 0.89032 -0.31762 0.23275 
annual -0.47033 0.12901 -0.28235 0.2861 -0.23436 0.38209 -0.70507 0.36567 -0.050164 -0.083177 0.42628 -0.16984 -0.018945 1.1916 -0.49601 
final -0.39158 -0.25597 -0.12669 0.60797 -0.63193 0.27858 -0.59097 0.082956 -0.29444 0.12932 0.014359 -0.077674 -0.23937 0.84581 -0.1645 
facts -0.41981 0.28024 -0.28402 0.46722 -0.089091 0.318 -0.6588 0.31369 0.037609 -0.2953 0.32555 -0.11768 -0.27131 1.1326 -0.48328 
180 0.55966 0.85007 0.66995 -1.1169 0.027971 -0.46912 -0.47745 -0.20493 0.26353 0.62404 -0.44082 -1.9022 0.54083 0.48181 0.42631 
see -0.43063 -0.086312 0.084427 0.5221 -0.2396 0.62391 -0.63843 0.08119 0.042859 0.13985 -0.07739 -0.56199 0.27294 0.31155 -0.54036 
は -1.0802 0.13079 -0.41214 -0.41415 0.1445 1.2466 0.0059567 0.39026 -1.3308 0.25193 0.48698 -1.1626 0.64876 -0.87786 0.78544 
nations -0.67342 0.051089 0.06038 0.42757 0.023517 0.08828 -0.61282 0.38968 -0.16199 0.11561 0.18041 -0.12839 -0.20802 1.293 -0.37839 
agency -0.39131 0.19426 -0.61012 0.82181 -0.52608 0.32191 -0.089985 0.22922 -0.42353 0.065544 0.074818 -0.11843 -0.39494 1.3095 -0.50828 
up -0.52368 -0.21242 -0.027829 0.4681 -0.57209 0.55347 -0.37637 -0.10286 0.11573 0.14925 -0.2264 -0.51628 0.14823 0.39595 -0.3906 
organization -0.56868 -0.2102 -0.24191 0.60893 -0.26489 0.38493 -0.60356 0.036806 -0.10633 0.16011 -0.076912 -0.1919 -0.28906 0.92364 -0.0099522 
）。 -0.49042 -0.53555 0.82264 0.21776 0.38465 0.8939 -0.63264 -0.7664 0.12873 0.10023 0.099035 -1.0804 -0.1531 -0.56135 -0.68644 
game -0.028586 -0.47388 -0.10678 0.46574 -0.38828 0.44406 -0.57824 0.10709 -0.1917 0.093062 -0.035848 -0.29619 0.10424 0.51704 -0.15431 
nhk 0.3513 -1.311 -0.34219 -0.93146 -0.95228 1.3084 0.88712 0.20051 -0.53014 -1.367 0.23922 0.52697 -0.50074 0.55377 -0.47027 
industry -0.71949 0.20731 -0.055719 0.44309 -0.52709 0.60421 -0.48611 0.0038076 0.28906 0.040459 -0.10515 -0.25045 -0.26011 0.76522 -0.43282 
solar -0.68252 0.3076 -0.20036 0.64194 -0.39351 0.37151 -0.82234 0.22594 -0.51811 0.14824 -0.43199 -0.57832 0.096478 0.62007 -0.40015 
transportation -0.57076 0.13796 -0.34498 0.36978 -0.10737 0.26862 -0.486 0.29127 0.078411 0.059223 0.35316 -0.070063 -0.46373 1.0615 -0.32046 
over -0.50823 -0.097255 -0.068928 0.56375 -0.37943 0.64796 -0.62739 0.010402 0.16362 0.30248 0.0040327 -0.42309 0.075761 0.61193 -0.23915 
natural -0.95464 0.60407 -0.29099 0.73715 -0.54403 0.019971 -0.60962 0.20539 -0.0616 0.0087093 0.033564 -0.26768 -0.50804 0.9654 -0.39366 
program -0.65284 -0.19308 -0.04262 0.56714 0.019461 0.53341 -0.67427 -0.065215 0.21255 0.17672 0.01132 -0.49814 -0.065146 0.59895 -0.31169 
1987 -0.50213 0.59191 -0.18395 0.2972 -0.62956 0.060921 -0.98494 -0.3855 0.14116 0.10476 -0.62652 -0.32322 0.00080326 0.18186 -0.15389 
adobe -0.85868 -0.7121 0.12314 0.15846 -0.44852 0.070952 0.16496 0.18411 0.044215 0.55683 -0.35125 -0.26943 0.084725 1.0913 0.18348 
please -0.53519 -0.61356 0.10597 0.70196 0.30515 0.83407 -0.63085 -0.025589 0.068328 0.30644 0.070625 -0.77145 0.45226 0.46319 -0.44321 
he -0.40434 -0.63345 0.2429 0.68406 -0.38559 0.91541 -0.77583 0.039113 0.22514 0.23017 -0.11751 -0.67307 0.59576 0.31476 -0.34105 
neil -0.38073 -0.39532 0.16523 0.019007 -0.58135 0.45648 -1.2644 0.034625 0.39832 -0.014997 -0.30375 -0.23784 0.14503 0.46598 0.45691 
best -0.60912 -0.30817 -0.074318 0.16707 -0.41214 0.62042 -0.82448 -0.020446 0.33624 0.1058 0.12935 -0.30045 0.023441 0.34932 -0.21862 
help -0.34081 -0.66807 0.14402 0.53845 -0.1485 0.77011 -0.33597 0.096869 0.35169 0.043017 0.098015 -0.86485 0.49271 0.28514 -0.50955 
wisconsin -0.61722 0.45621 -0.01548 0.49514 -0.61872 0.4172 -0.74206 -0.069626 -0.014706 0.1618 -0.11839 -0.16572 -0.19031 0.42408 -0.47812 
standard -0.8774 0.050765 -0.042746 0.3336 -0.3084 0.2334 -0.8704 -0.12654 0.12142 0.2987 -0.22419 -0.28492 -0.25717 0.39359 -0.080908 
sankei 0.29316 -1.057 -0.33574 -0.89529 -0.54331 0.975 -0.34179 0.63316 -0.46356 -1.0467 -0.044454 0.46427 0.0074905 0.19805 0.39942 
works -0.67454 -0.28265 0.16028 0.73963 0.10033 0.78592 -0.79372 -0.16884 0.22834 0.51533 -0.027123 -0.61492 -0.24998 0.44338 -0.33031 
volcano -0.79585 0.34949 -0.75332 0.17311 -0.52541 0.26275 -0.57998 0.16655 0.32596 -0.58615 -0.19972 -0.72656 0.0019397 0.67849 -0.74331 
mexico -0.4381 0.39087 -0.063626 0.49268 -0.24255 0.25345 -0.84888 0.095582 0.21963 0.23808 0.13464 -0.16819 -0.32742 0.85546 -0.058334 
1986 -0.44369 0.58057 -0.10405 0.35395 -0.91026 -0.16586 -0.91133 -0.22387 0.1543 0.18542 -0.5126 -0.36684 -0.13797 0.26261 -0.11378 
cambridge -0.63046 0.63288 -0.11475 0.46508 -0.90445 0.20006 -0.73137 -0.18957 0.089493 0.42961 -0.2145 -0.30917 -0.44479 0.067869 -0.029495 
top -0.29602 -0.079913 -0.24031 -0.076577 -0.27893 0.78066 -0.46744 0.20337 0.27059 0.27884 0.31531 -0.107 -0.036272 0.70781 -0.032187 
2004年 -0.7642 0.15352 -0.20042 0.1055 -0.09214 -0.090325 -0.079918 -0.15112 -0.90463 0.28671 0.38892 0.056326 -0.38558 0.46532 0.12498 
party -0.53759 -0.11252 0.10402 0.55915 -0.36846 0.23886 -0.75827 -0.18314 0.19591 0.063995 -0.21914 -0.36929 -0.14333 0.60955 -0.41096 
教育 0.01278 0.23047 -0.69437 -0.90047 -0.22781 -1.1792 0.18477 -1.4534 0.20615 1.8296 0.25782 0.35842 1.08 1.0169 -0.34399 
area -0.59208 0.18512 -0.33412 0.3869 0.058177 0.3435 -0.44357 0.42084 0.20886 0.13201 0.74438 -0.27623 -0.04843 1.1777 -0.33818 
century -0.63311 0.42652 0.034756 0.57737 -0.75661 0.31911 -0.85126 -0.24262 0.08429 0.014245 -0.41365 -0.38498 -0.31163 0.58198 -0.39438 
uk -0.41852 -0.38893 0.021216 0.42825 -1.0058 0.97794 -0.23254 0.28762 -0.15858 0.21666 0.28449 0.028795 -0.6411 0.4486 0.044155 
historic -0.64138 0.27071 -0.25268 0.6254 -0.6187 0.18959 -0.55857 0.30517 -0.14293 -0.011723 0.47071 -0.32645 -0.46629 0.58214 -0.53772 
number -0.35821 -0.23955 -0.11013 0.31871 -0.24719 0.42475 -0.60312 0.17888 -0.021035 0.36919 0.14398 -0.30992 0.12157 0.64251 0.018912 
today -0.17606 -0.2415 -0.44997 0.36119 -0.55236 0.82211 -0.33427 0.3958 0.17335 -0.33958 0.48905 -0.26818 -0.22877 0.65488 -0.050987 
territory -0.59737 0.16364 -0.1409 0.65557 -0.57312 0.13306 -0.39046 -0.087027 0.16671 0.12244 0.28992 -0.45425 -0.16442 0.39135 -0.51425 
home -0.35396 -0.21291 -0.057433 0.50276 -0.50926 0.50719 -0.48328 0.039417 0.0010922 0.17694 0.34093 -0.20051 -0.17355 0.47653 -0.30793 
ltd -0.76471 -0.059144 0.16786 0.08687 -1.2944 0.74311 -0.47093 0.20925 -0.11902 0.17104 -0.34832 0.10264 -0.79116 0.43772 0.094375 
art -0.69175 0.11653 -0.17803 0.38583 -0.66116 0.48591 -0.44307 0.19062 0.080467 0.30003 0.075024 -0.49187 -0.23888 0.17109 -0.24385 
2% 1.8037 1.3617 0.61277 0.12978 0.46467 0.95181 -1.7638 -1.0539 -0.10306 1.4469 2.5018 0.32236 0.53644 0.085167 -0.026199 
day -0.39877 -0.18135 -0.20104 0.47849 -0.40237 0.44247 -0.84061 -0.099591 0.089939 -0.068528 -0.037046 -0.56373 -0.02355 0.16461 -0.32847 
arts -0.79257 0.30322 -0.24297 0.70673 -0.72314 0.31797 -0.45727 0.23531 -0.050643 0.0042451 0.30241 -0.41739 -0.3514 0.47741 -0.18951 
“new -0.42689 -0.13797 -0.20412 0.28015 -0.48404 0.71108 -0.7059 0.15205 0.076704 -0.14503 0.10743 -0.29651 -0.19994 0.61728 -0.22249 
safety 0.1426 -0.28509 -0.50084 0.20065 -0.30378 0.40354 -0.068152 0.33544 -0.068203 -0.063125 -0.3052 -0.31587 -0.62949 1.2966 -0.37101 
die -0.52969 -0.098047 -0.1469 0.40325 -1.3227 0.24031 -0.95305 0.39536 0.038197 0.47462 0.025827 -0.60817 0.67866 -0.28879 0.31012 
pages -0.40598 0.28368 0.021867 0.3966 -0.338 0.48194 -0.64596 0.013115 0.41183 0.50279 -0.32213 -0.6328 0.23207 0.32828 -0.038826 
china -0.29907 -0.12776 -0.19023 0.70247 -0.69106 0.4829 -0.43169 0.13827 -0.034757 0.062805 0.13405 -0.38524 0.12056 0.55504 -0.64088 
交通 -0.07034 0.30528 -0.44997 -1.1048 -0.71425 0.38813 0.61349 -0.81048 -0.30631 1.1526 -0.0080747 0.89803 1.6797 0.70286 -0.9952 
regions -0.71173 0.4194 0.27266 0.29057 -0.024922 -0.088614 -0.72738 0.58544 0.81072 0.37628 0.70271 -0.16117 0.18925 1.4921 -0.83586 
atlas -0.91684 0.3783 -0.017192 0.091437 -0.47916 -0.053449 -1.0166 0.16699 -0.10585 -0.10602 0.22766 -0.0039834 -0.28869 0.78765 -0.41449 
studies -0.45972 0.49039 -0.077802 0.57773 -0.63089 0.20039 -0.68678 0.0667 -0.0091001 0.3983 -0.10741 -0.35877 -0.090933 0.60482 -0.31388 
me -0.47008 -0.69548 0.1791 0.6049 -0.14738 0.87202 -0.57786 -0.25129 0.34377 0.15069 -0.20095 -0.77086 0.71703 0.16968 -0.33859 
history: -0.627 0.046403 0.11332 -0.39525 -0.99873 0.72849 -1.1061 -0.22617 0.40204 0.0809 0.17026 -0.025045 -0.62336 0.33366 -0.86769 
2012年 -0.96586 -0.19788 -0.14044 -0.3049 0.11437 -0.13539 0.11807 0.012686 -0.80731 0.22268 0.86517 0.00799 -0.23455 0.5036 0.36518 
37 0.27905 1.1033 -0.52899 -0.26544 0.16246 0.36242 0.089279 -0.15107 -0.30427 0.57671 -0.34652 -0.44402 0.50893 0.90825 0.85407 
曖昧さ回避 0.84243 0.59604 1.4901 -0.88819 -1.7694 -1.1063 0.74958 0.82662 -1.3929 0.43488 0.66395 -2.4462 0.84111 0.099885 -0.81184 
names -0.82084 0.36623 -0.040713 0.62709 -0.50231 0.19524 -0.55561 0.038115 -0.0073543 0.048023 0.10994 -0.29427 0.061037 0.66892 -0.4098 
sanger -0.67668 -0.70055 0.10069 0.53522 -0.4575 0.89166 -0.43707 0.11013 0.3596 -0.21737 -0.32429 -0.50558 0.43235 0.39375 0.062049 
billboard -0.42898 -0.059916 0.014971 -0.77679 -0.84468 0.97586 -1.0782 0.03644 0.21182 0.051212 0.18906 -0.20179 -0.63153 0.38869 -0.88658 
religion -0.61228 0.41097 -0.090399 0.46371 -0.38033 0.029686 -0.54392 0.12395 0.1983 0.25383 0.048327 -0.42981 -0.42897 0.90887 -0.35261 
1985 -0.45567 0.55558 -0.043835 0.41338 -0.76042 -0.075938 -0.97256 -0.080725 0.05426 0.2651 -0.64443 -0.41334 0.0076666 0.37543 -0.15218 
michigan -0.46456 0.32612 -0.21309 0.58894 -0.45745 0.25657 -0.88917 0.20655 0.15527 0.00015694 0.05649 -0.14713 -0.19736 0.74261 -0.30637 
58 0.49683 1.0931 0.066064 -0.92362 0.018065 0.20471 -0.14538 -0.10378 -0.19085 0.62025 -0.88317 -1.1927 0.29919 0.69922 0.38254 
london -0.53675 0.23034 -0.1557 0.38671 -0.948 0.5813 -0.77195 0.13295 0.15509 0.10508 -0.32375 -0.084586 -0.034796 0.27091 -0.21342 
microsoft -0.53196 -0.23106 -0.33893 0.14242 0.11354 0.67147 -0.58384 0.074336 -0.25004 0.28803 0.46051 -0.31023 -0.46399 0.36428 0.023376 
make -0.65061 -0.6648 0.26664 0.52185 0.002969 0.97294 -0.71464 -0.10208 0.25508 0.22639 0.041735 -0.59096 0.16606 0.31804 -0.33215 
gpl -0.48689 -1.0175 -0.08364 0.34554 0.83705 0.62442 -1.0867 -0.097994 -0.26848 0.45347 -0.15466 -0.419 -0.23715 0.65536 0.47339 
text -0.76362 -0.30043 0.29653 0.77107 -0.33604 0.61288 -0.79428 -0.15828 0.50488 0.67027 0.043202 -0.57818 0.031274 0.3802 -0.10017 
1988 -0.49193 0.58198 -0.18082 0.35559 -0.75157 0.22813 -1.1552 -0.16162 0.31545 0.1168 -0.53972 -0.26536 0.18714 0.22021 -0.18219 
maryland -0.54977 0.38278 -0.11889 0.5275 -0.55336 0.17525 -0.88218 0.064089 0.072445 -0.095757 -0.12349 -0.3213 -0.24911 0.67091 -0.64947 
code -0.54439 -0.47472 -0.023658 0.48127 0.29442 0.42152 -0.65086 -0.1643 0.3111 0.17585 0.21159 -0.61386 -0.16782 0.56208 0.1363 
systems -0.86786 -0.066206 -0.028114 0.44842 -0.18275 0.14956 -0.42113 0.1047 -0.08777 0.2928 -0.41374 -0.22969 0.026504 1.0825 0.15452 
legal -0.41706 -0.55732 -0.0084299 0.5029 0.17401 0.66234 -0.80515 -0.011728 0.098104 0.19506 -0.034309 -0.49128 -0.0721 0.76283 -0.10721 
cm 0.049669 1.3567 0.034441 -0.41849 -0.23996 0.77062 -0.43986 0.51272 0.13009 1.6039 -0.55299 -0.83786 1.1844 0.15648 1.0905 
1% 1.8197 1.4358 0.60828 0.27851 0.53512 1.0055 -1.5111 -0.98786 -0.0094607 1.5314 2.289 0.36323 0.65467 0.15685 0.22965 
local -0.31873 0.11464 -0.061842 0.52474 0.064024 0.67376 -0.61549 0.20751 0.10768 0.1888 0.23355 -0.36048 -0.074046 1.0697 -0.4541 
initiative -0.87272 -0.35051 -0.12309 0.35347 0.22635 0.77327 -0.61969 -0.034344 0.11803 0.27109 0.30259 -0.6085 -0.49514 0.49813 0.20614 
tennessee -0.50733 0.42892 -0.15585 0.3938 -0.57484 0.2986 -0.86477 -0.010243 0.22527 0.23182 -0.027966 -0.24909 -0.42253 0.29527 -0.44339 
mit -0.5425 -0.080033 0.034917 0.49251 -0.66759 0.60908 -0.73552 0.38085 -0.11605 0.53132 -0.056551 -0.28234 -0.062781 0.28447 0.24543 
1982 -0.6439 0.58736 -0.12019 0.4514 -0.8379 0.064536 -1.1115 -0.2148 -0.025151 0.1504 -0.56338 -0.37216 0.036172 0.052557 -0.078425 
through -0.7146 -0.1085 0.11656 0.58137 -0.53925 0.60404 -0.78992 -0.28411 0.13526 0.14173 -0.41897 -0.61567 0.036608 0.30965 -0.40011 
39 0.28968 1.1305 -0.19526 -0.32401 0.13668 0.4623 0.013348 -0.45509 -0.05277 0.3086 -0.54433 -0.92502 0.42476 0.39904 0.74416 
these -0.53682 -0.47492 0.17905 0.83363 -0.075542 0.78962 -0.90019 -0.2381 0.30817 0.46052 -0.14154 -0.93139 0.34962 0.35262 -0.44308 
also -0.61684 -0.56332 0.17463 0.65011 0.019082 0.79451 -0.63728 -0.018721 0.25913 0.21275 -0.23127 -0.84366 0.34199 0.55739 -0.3904 
35 0.50949 0.99717 -0.47993 -0.11174 -0.26914 0.52497 -0.041204 0.066319 -0.15057 1.1527 -0.2683 -0.62339 0.58778 0.45089 1.0069 
flightglobal -0.039238 -0.15922 -0.10646 -0.058792 -0.83063 0.58508 -0.021366 0.15997 0.058007 0.016775 -1.0025 0.26405 -0.5143 1.2728 0.2572 
iii -0.4609 0.097461 -0.25934 0.42785 -0.61537 -0.31984 -0.98909 -0.39201 -0.23075 0.10667 0.15967 -0.39315 -0.23215 -0.23314 0.10862 
watch 0.014799 -0.67107 -0.45389 -0.27403 -0.52178 0.99412 -0.53986 0.51341 -0.44822 -0.48793 0.12718 -0.028203 0.068621 0.20811 -0.39251 
usa 0.052063 -0.13528 -0.30173 0.48631 -0.5367 1.0429 0.019801 0.35455 -0.0084448 -0.082486 0.18127 -0.31398 -0.27039 0.79632 -0.1712 
“state -0.59637 0.10764 -0.12635 0.15328 -0.097542 0.43739 -0.59251 0.40334 -0.010762 -0.1281 0.58515 -0.044956 -0.34369 1.0294 -0.38092 
documents -0.66362 0.48455 0.28648 0.80728 -0.22044 0.13792 -0.86566 -0.10332 0.31194 0.23025 0.40378 -0.19085 -0.38346 0.72033 -0.28744 
puerto -0.97026 0.23228 0.46499 -0.22054 -0.50294 -0.26585 -0.54814 0.84187 0.96417 0.57345 0.83864 -0.039028 0.33307 1.2043 -0.62254 
transit -0.79384 0.20193 -0.58285 0.54115 -0.3108 0.62229 -0.6901 0.45851 -0.083813 0.2273 0.18935 -0.14474 0.091384 0.73091 -0.022243 
gaiman -0.50172 -0.69023 0.14414 0.24385 -0.41973 0.6547 -1.0977 0.013636 0.15852 -0.086818 -0.415 -0.241 0.20852 0.37384 0.20883 
モバイル編集、モバイルウェブ編集 1.836 0.58625 2.1372 -2.4592 -0.83526 -0.32902 -0.866 0.52992 -0.24099 0.19422 -0.94304 -3.267 0.33781 -0.21607 0.69833 
stephen -0.58839 0.11253 -0.084687 0.47061 -0.83926 0.10933 -1.0305 -0.10549 -0.084622 -0.01494 -0.56771 -0.45058 0.14878 0.1279 -0.096309 
europa -0.32733 -0.065506 -0.26452 0.58522 -0.64675 0.32297 -0.56553 0.53164 -0.37012 -0.04433 0.011706 -0.47436 0.33882 0.59987 -0.27561 
been -0.30179 -0.56512 0.38339 0.6627 -0.045951 0.81039 -0.81188 -0.142 0.42756 0.16791 -0.23125 -0.80878 0.5345 0.30445 -0.24855 
255 0.38915 0.23624 -0.1222 -0.60053 -0.076649 0.24212 0.62311 -0.041456 -0.3604 0.489 -0.65815 -1.86 0.8203 0.099261 0.67612 
2001年 -0.81618 0.046305 -0.44725 0.13987 0.028602 -0.22889 -0.168 -0.071037 -0.64775 0.022888 0.5806 0.21883 -0.21102 0.47165 0.06244 
80 0.13483 1.1215 0.20171 -0.98814 -0.13076 0.087878 -0.18541 0.020875 -0.032566 0.43104 -0.63597 -1.1367 0.63484 0.44008 0.75755 
1976 -0.5104 0.48642 -0.033862 0.37905 -0.71486 0.15809 -1.0073 -0.14147 0.055903 0.23418 -0.10715 -0.33988 -0.1984 -0.015535 -0.20769 
some -0.57361 -0.70698 0.16176 0.5735 0.090061 0.91325 -0.65432 -0.13578 0.11979 0.296 -0.09466 -0.73862 0.34475 0.46846 -0.30361 
2011年5月5日閲覧。 -0.51095 -0.37691 -0.24239 0.23635 -0.40137 0.69566 -0.1958 0.62107 -0.25418 -0.39064 0.43145 0.2722 -0.28475 0.95074 0.010487 
air -0.14426 0.23141 -0.59419 0.47509 -0.39936 0.45861 -0.14267 0.1695 0.06059 0.26621 0.066532 -0.52458 -0.30644 0.87142 -0.47117 
cultural -0.57794 0.082366 -0.29176 0.63973 -0.15602 0.31665 -0.82984 -0.0031286 -0.081823 0.23135 -0.00074342 -0.33115 -0.54839 0.69273 -0.15923 
access -0.50603 0.053704 -0.34527 0.45869 0.095904 0.74833 -0.59767 0.14524 0.12986 0.22771 -0.030618 -0.47989 -0.29151 0.6927 0.1133 
database -0.25764 -0.23321 -0.28664 0.23706 -0.033837 0.34619 -0.67417 0.41015 0.14326 0.094907 -0.067514 -0.12692 0.18423 1.3666 -0.0009773 
when -0.56412 -0.68968 0.2002 0.78169 -0.028536 0.93636 -0.87259 -0.081105 0.22115 0.20646 -0.33075 -0.90065 0.48947 0.43685 -0.38134 
67 0.76118 1.0658 0.12118 -1.0277 0.19744 0.25431 0.24468 -0.069749 -0.18734 0.42895 -0.79845 -1.3741 0.67785 0.9907 0.61655 
10月1日 -0.91334 -0.11793 -0.06858 -0.23878 0.97352 0.60874 1.1905 -1.8757 -1.5055 -0.31785 0.88602 -0.42755 -0.028278 -0.060407 -0.3208 
arizona -0.68766 0.52528 -0.38172 0.58649 -0.55179 0.36921 -0.4278 0.18501 -0.058088 -0.12116 0.38547 -0.3796 -0.28224 0.45594 -0.15042 
34 0.41224 1.1418 -0.63083 -0.1436 -0.013024 0.28764 -0.32793 -0.040693 0.14596 0.75162 -0.46463 -0.77078 0.62037 0.40706 0.89275 
jersey -0.70578 0.46086 -0.22803 0.10108 -0.65722 0.4299 -0.72717 0.1773 0.18048 0.074614 -0.11967 -0.39861 -0.10862 0.21263 -0.21655 
arkansas -0.69148 0.28623 -0.17719 0.43991 -0.47126 0.31692 -0.69697 0.0794 0.053025 0.05072 0.023257 -0.27093 -0.20567 0.56441 -0.54189 
2018年6月17日閲覧。 -0.39686 -0.75235 -0.012646 -0.2454 -0.43806 0.47917 -0.043457 0.52805 -0.51694 -0.45848 0.15601 -0.085109 -0.29747 0.81025 -0.095079 
や -0.60823 -0.23605 0.039387 -0.32389 -0.3772 0.62045 -0.33228 -0.081643 -0.9941 0.28889 0.59129 -0.79926 0.41826 -0.75077 0.19875 
bot -0.12431 -0.58554 0.50209 0.37443 0.10035 0.71338 -0.8672 -0.28212 0.24306 0.078162 -0.17582 -0.89147 0.43261 0.32105 -0.54816 
1016/j 0.56047 1.1257 -0.98678 -0.032564 -0.0094417 0.43042 -0.28453 0.60316 -0.47667 0.68125 -1.6881 -0.17004 1.1547 1.8946 0.92888 
florida -0.51055 0.33271 -0.73265 0.60149 -0.26235 -0.060716 -0.50421 -0.20733 0.34957 -0.20388 0.11476 -0.38955 -0.37488 0.70017 -0.019524 
mississippi -0.59768 0.65272 -0.12029 0.4725 -0.44706 0.18206 -0.79155 -0.082391 0.059873 0.13095 0.0049516 -0.32237 -0.27957 0.46723 -0.28664 
－ 0.50077 -1.4402 -2.2921 1.7735 1.3372 -0.32543 0.70099 -0.77454 0.40587 1.8104 0.66549 -1.2135 0.12833 1.7206 3.4743 
licenses -0.56185 -0.43643 -0.029148 0.7731 0.48368 0.76196 -0.85787 -0.18249 0.16079 0.4455 -0.053852 -0.63645 -0.088784 0.58567 0.20927 
https://books -0.94724 0.73885 0.4561 0.090877 -1.2895 1.1764 0.38685 -0.0063967 0.21411 0.27337 -0.28003 0.016881 0.063238 0.018102 0.31164 
塩尻駅 -2.0016 2.5498 -1.1701 -0.27569 1.8422 -0.54516 2.0676 -0.8676 -1.8313 -2.1922 1.2928 -1.5994 3.4714 1.0926 -0.2124 
state” -0.55564 -0.10069 -0.045628 0.03047 -0.071544 0.41372 -0.62286 0.20806 -0.0099874 -0.19409 0.80835 0.20424 -0.29547 1.1539 -0.20048 
factfinder -1.1301 0.39928 0.24884 0.31594 0.073863 0.075797 -0.67809 0.71591 0.47599 -0.51584 0.68377 0.19872 0.32812 1.4506 -0.3038 
sciences -0.52986 0.37541 -0.38152 0.8971 -0.70831 0.047881 -0.50635 0.23642 -0.11443 0.3435 -0.12029 -0.52088 -0.29422 0.62836 -0.096107 
2nd -0.87509 0.32309 0.078341 0.46484 -0.98352 0.27627 -1.1902 -0.36335 0.17281 0.30169 -0.49253 -0.27991 -0.56242 0.10892 -0.25526 
british -0.74273 0.16056 -0.11864 0.54123 -0.88965 0.43916 -0.72209 -0.052128 -0.29732 0.14805 -0.062246 -0.22808 -0.12938 0.4044 -0.23274 
46 0.051872 1.3469 -0.42482 -0.36764 -0.29245 0.3196 -0.26416 0.28244 -0.018251 0.91779 -0.73211 -0.9376 0.46483 0.39262 1.0948 
wales -0.70975 -0.42314 -0.00032172 0.50443 -0.32016 0.85207 -0.4572 0.1815 0.34309 -0.12019 0.065715 -0.75312 0.079726 0.41687 0.046857 
+4‎ 1.1998 -0.28291 1.3658 -2.8978 0.14611 -0.3536 0.052113 -0.19781 -0.15055 -0.64039 -0.93522 -2.7278 0.52753 0.96462 0.19642 
返信 0.472 -0.97993 0.5295 -1.7579 -0.26472 0.13065 1.0383 -0.3239 0.060371 -1.1451 -1.0465 -2.5591 0.82761 0.40087 -0.18321 
there -0.59199 -0.60484 0.080118 0.86551 -0.10622 0.7689 -0.7301 -0.09026 0.22904 0.49415 -0.34285 -0.77087 0.40202 0.36817 -0.54485 
larry -0.77777 -0.28011 0.05884 0.40627 -0.48838 0.59433 -0.69578 0.078315 0.20028 -0.37481 -0.25781 -0.69801 0.12302 0.27136 0.036943 
