27588 15
. 0.12674 -0.011697 -0.079572 -0.17631 0.0075758 0.12866 0.28932 0.38495 -0.22529 0.048405 0.21464 0.1243 -0.23703 0.032087 -0.20968 
de 0.044666 0.28001 0.21158 -0.33304 -0.0099965 0.18145 0.035819 0.22641 -0.47007 0.30711 0.2602 -0.11494 -0.16304 0.238 -0.32335 
a -0.087601 -0.12267 -0.0099678 0.13818 -0.30485 0.24612 0.12226 0.35 0.090451 0.10497 0.091457 -0.31451 -0.32301 0.12024 -0.31344 
e 0.15052 0.0048336 0.081355 0.2813 -0.15304 0.52958 0.0068363 -0.011981 0.010528 0.084466 -0.031126 -0.045384 -0.2728 0.013642 -0.45117 
o -0.036796 -0.14886 0.30046 0.31558 -0.15449 0.36966 0.12843 0.21717 0.25645 0.050297 0.32138 -0.38339 -0.081892 0.094079 -0.29827 
em 0.073687 0.29501 0.28558 -0.20565 0.27488 0.12803 0.043314 0.37352 -0.46154 0.12129 0.27858 -0.27291 -0.28058 -0.081972 -0.3246 
</s> 0.12224 0.23209 -0.14319 -0.18108 0.10241 0.010993 0.17433 0.23471 -0.38009 0.38061 0.39249 -0.057221 -0.35352 0.06015 -0.25119 
do -0.050329 -0.043537 0.15062 -0.0064221 0.044441 0.47387 -0.10759 0.27837 0.16641 0.28021 0.17587 -0.18318 0.051994 0.18563 -0.64486 
da -0.26969 -0.28559 -0.040456 -0.040364 -0.22779 0.5634 -0.038867 0.52214 0.20109 0.23382 0.25677 -0.22702 -0.22199 0.12697 -0.1071 
que -0.00097026 0.039258 0.13738 0.69825 -0.37412 0.33847 0.1446 0.23098 -0.17582 0.22009 0.035651 -0.22557 -0.15272 0.23852 -0.048812 
os 0.051758 0.1286 0.13213 0.47043 -0.4861 0.5509 -0.044675 -0.11663 -0.37059 0.24624 -0.25669 -0.048446 -0.59312 -0.20584 -0.12488 
é -0.15425 -0.50474 0.11582 0.44656 -0.092146 0.44384 0.0099367 0.42231 0.12469 -0.0064239 0.3655 -0.12604 0.15615 0.57018 -0.083907 
no -0.027454 -0.11058 0.033585 0.25397 -0.021817 0.30145 0.051289 0.23823 -0.0037696 0.16719 0.20734 -0.23683 -0.047837 0.06496 -0.52107 
para 0.07719 -0.02093 -0.065004 0.29051 -0.76475 0.22923 0.037855 0.4358 -0.086273 0.17983 0.034858 -0.21587 -0.30816 0.30877 -0.12383 
com 0.03135 0.07702 0.1417 0.26575 -0.080994 0.30311 0.020219 0.22886 -0.070312 0.18471 -0.017345 -0.16386 -0.25195 0.21827 -0.3784 
um -0.050473 -0.18574 0.36118 0.43909 -0.26384 0.19804 0.19548 0.1927 0.16254 0.16649 0.3105 -0.33057 -0.094726 0.4092 -0.086172 
uma -0.02509 -0.10742 0.047677 0.40566 -0.3113 0.26507 0.11563 0.30771 0.17101 0.20902 0.14912 -0.48225 -0.18316 0.31022 -0.26496 
na -0.0036634 -0.15163 0.044694 0.23387 -0.16476 0.37891 0.014885 0.20336 0.12391 0.42021 0.095001 -0.35605 -0.21704 0.096206 -0.47196 
↑ 0.59143 0.12852 0.23437 -0.87573 0.491 0.24068 0.82644 0.1678 -0.17267 -0.55476 0.55402 -0.066995 -0.27815 -0.1613 -0.27001 
as 0.40678 0.14473 -0.31728 0.41574 -0.53208 0.58737 -0.23897 0.50307 -0.36667 -0.021117 -0.31879 0.25402 -0.65887 0.099237 -0.13078 
por -0.06407 0.078707 0.34353 0.43447 -0.29191 0.31741 0.18306 0.18591 -0.13834 0.096763 0.13807 -0.075638 -0.18496 0.24794 -0.15081 
como 0.12994 -0.10501 0.05805 0.55487 -0.13868 0.53755 -0.012725 0.11746 -0.0042378 -0.07629 0.14341 -0.20544 -0.086906 -0.014333 -0.16864 
dos -0.044927 0.080824 0.16059 0.26154 -0.29246 0.62048 -0.13327 -0.10685 -0.1762 0.35135 -0.091094 -0.086539 -0.60374 -0.016355 -0.13334 
não -0.082558 -0.39668 -0.067888 0.5639 -0.48935 0.44848 0.19764 0.71288 -0.48215 0.0012831 0.17501 -0.041063 0.099219 0.47863 0.46178 
mais -0.21641 -0.42065 -0.25289 0.30221 -0.62107 0.2599 -0.13882 0.4569 -0.23108 0.13432 0.22675 0.25467 -0.38662 0.35885 -0.55604 
consultado 0.39015 0.55011 0.18108 -1.2211 1.0213 -0.10644 0.13941 0.44263 -1.1234 0.22506 0.64917 -0.66212 -0.41926 0.16576 -0.50237 
são 0.53572 0.010805 0.032142 0.34955 -0.23496 0.60983 -0.10811 -0.12274 -0.27247 0.2532 0.10464 0.45879 -0.2834 0.028354 -0.26705 
se 0.17254 -0.10276 0.057522 0.64905 -0.36064 0.23504 0.1885 0.44858 -0.15323 0.093869 0.077303 -0.38917 0.13656 0.1424 -0.14893 
ou 0.079143 -0.029622 0.10708 0.82663 -0.39555 0.19861 0.11626 0.26676 -0.28356 -0.042418 0.25565 -0.10624 -0.15523 0.22249 -0.17214 
das 0.37466 0.28183 -0.032703 0.26648 -0.23555 0.73664 -0.26632 0.21325 -0.094873 0.10017 -0.13049 -0.073004 -0.60859 0.073681 -0.13663 
ao -0.082951 -0.090889 0.13939 0.37655 -0.27623 0.27433 0.17414 0.25164 0.22453 0.42122 0.10375 -0.28821 -0.029423 0.11051 -0.42912 
foi -0.28552 0.011791 0.36917 0.04665 -0.21453 0.34062 0.28578 0.1649 0.35564 0.30695 0.29797 -0.59023 -0.13415 -0.15231 -0.40835 
língua -0.15028 -0.19523 -0.38253 0.63939 0.60525 0.78666 -0.26265 0.29517 -0.26274 0.056338 0.53476 -0.3788 0.14772 -0.1815 0.11928 
the 0.78308 -0.91015 0.1434 -0.72087 0.72856 -0.54146 1.69 0.54299 -0.4515 -0.63017 0.074716 -0.24479 -1.0805 -0.35625 -0.21887 
- 0.38855 0.23157 0.19111 -0.02203 0.50693 0.32479 0.30437 -0.033162 -0.20432 0.036253 0.51656 0.241 -0.28515 -0.3502 -0.20281 
entre -0.03357 0.15592 0.093415 0.354 -0.16089 0.48378 -0.047094 0.044258 -0.14835 0.18714 -0.11001 -0.031486 -0.46952 -0.035618 -0.42206 
à -0.083189 -0.015342 -0.012874 0.27727 -0.23192 0.36877 0.11387 0.15497 0.23081 0.30661 -0.033246 -0.52119 -0.20175 0.037441 -0.48663 
3 -0.8349 -0.39302 -0.39913 -0.70815 -0.017667 0.79739 0.19533 0.91418 -0.82742 0.26982 0.2459 0.50662 -0.1179 0.59899 0.0052357 
of 0.74597 -0.83738 -0.018151 -0.64949 0.70079 -0.62493 1.6445 0.52889 -0.43084 -0.5285 0.12524 -0.27525 -1.1336 -0.24013 -0.24125 
também 0.17601 -0.19539 0.10933 0.54636 -0.22089 0.337 -0.021327 -0.037907 -0.078333 0.14127 0.11743 -0.22025 -0.11315 0.20655 -0.26308 
1 -0.21555 0.4785 -0.05722 -0.22215 0.32339 0.14354 0.26899 0.3671 -0.44578 0.24353 0.45069 0.25293 -0.48761 0.24351 -0.35353 
sua -0.2757 -0.080825 0.088049 0.32393 -0.26966 0.38084 0.25096 0.17948 0.22457 0.32302 0.1165 -0.45323 -0.18297 0.14742 -0.30998 
ser 0.16366 0.030843 0.027583 0.82494 -0.44533 0.18437 0.15034 0.32986 -0.2706 0.19953 0.21389 -0.3214 -0.050968 0.42873 0.018885 
país -0.1306 -0.24259 0.3351 0.14608 -0.030869 0.42076 -0.14272 0.053018 0.25692 0.25814 -0.1018 -0.27132 -0.5175 0.40601 -0.52721 
nos -0.3054 -0.50908 -0.10186 -0.058488 -0.5637 0.972 0.0041706 0.61482 -0.54866 -0.012108 -0.35319 0.15705 -0.0508 0.33953 0.15879 
pelo 0.027907 -0.028463 0.41223 0.2527 -0.14657 0.44422 0.15091 0.11648 0.5592 0.32592 0.26414 -0.23288 -0.2423 0.0095752 -0.24694 
2 -0.39022 0.5984 -0.4969 -0.17448 0.33851 0.1629 0.26699 0.15874 -0.33852 0.37498 0.28143 0.079087 -0.45327 0.29788 -0.38298 
pela -0.012239 -0.089849 0.18864 0.19272 -0.20072 0.47185 -0.0042119 0.11425 0.23776 0.16566 0.20658 -0.50761 -0.42259 0.10834 -0.35593 
janeiro 0.20893 0.62698 0.4097 -0.82445 0.47317 -0.0062502 0.14934 0.18176 -0.44038 0.50661 0.50823 -0.24281 0.18258 0.17111 -0.77244 
brasil 0.078189 0.12663 0.20647 -0.054076 -0.10171 0.50707 -0.17277 0.050674 0.15416 0.30884 0.51982 -0.13581 -0.022785 -0.11051 -0.5843 
and 0.86924 -0.83048 0.037772 -0.67928 0.66297 -0.552 1.6517 0.52496 -0.3844 -0.70663 0.095663 -0.17892 -1.1704 -0.35665 -0.25884 
seu -0.17044 -0.084285 0.26951 0.29744 -0.36535 0.20232 0.36749 0.25482 0.40267 0.2484 0.24368 -0.46202 -0.12831 0.15766 -0.17533 
português -0.0067118 0.053311 -0.12009 0.53069 0.16835 0.66635 -0.13237 0.50174 0.14097 0.0024263 0.47713 -0.22435 0.26536 -0.33344 -0.19535 
mas 0.0603 -0.026543 0.1376 0.64681 -0.31323 0.35018 0.020629 0.39598 -0.10679 0.0085167 -0.024787 -0.24421 -0.15786 0.1072 -0.088844 
pode -0.21584 -0.39524 -0.33402 0.5255 -1.073 0.20317 0.073642 1.3993 -0.65904 -0.095116 0.58351 0.11054 -0.034269 0.72892 0.071551 
0 -1.5065 -1.6733 0.018593 -0.66993 -0.6585 1.5882 -0.062902 2.118 -1.051 -0.29832 0.53089 1.409 -0.094971 1.0505 0.23 
2010 0.097647 0.51286 0.33808 -0.99104 0.9348 -0.048204 0.12161 0.26423 -0.91575 0.24492 0.7235 -0.38528 -0.44766 0.10895 -0.48673 
sobre 0.28798 0.042967 -0.09805 0.46892 -0.55809 0.2617 0.27632 0.14318 -0.072256 0.28014 0.079821 -0.53182 -0.30103 0.21872 0.20612 
este -0.34498 -0.61175 0.14263 0.13442 -0.48786 0.89373 0.30936 1.0192 -0.048155 0.14079 -0.16288 -0.014388 0.39134 0.55418 0.34918 
século -0.95927 0.28465 -0.66646 0.21307 0.19703 0.58219 0.36333 -0.16693 0.27136 0.1866 -0.30611 -0.77491 0.029266 -0.74522 -0.95394 
nas 0.47234 0.10159 0.040812 0.33344 -0.17707 0.76514 -0.17137 0.092941 -0.24999 0.29557 -0.39431 0.28712 -0.43689 0.03738 -0.44314 
condições -0.69376 -0.82647 -1.6173 -0.11421 -2.6238 0.24375 -0.53238 2.0391 -0.80367 -0.11654 1.0815 0.76703 -1.54 0.4641 -0.48122 
tem -0.035099 -0.27711 0.18409 0.42487 -0.047936 0.32287 -0.15587 0.23528 0.055558 0.22036 0.14027 -0.19049 -0.32998 0.56571 -0.30881 
maior -0.3532 -0.43669 0.27031 0.069164 0.02991 0.3043 -0.1158 -0.062212 0.24503 0.28697 0.19057 -0.030239 -0.33227 0.61805 -0.7833 
parte -0.022902 -0.31404 -0.040262 0.31259 -0.05486 0.48624 -0.13463 0.2095 0.30738 0.35121 -0.21303 -0.26992 -0.1812 0.20042 -0.56826 
isbn 0.6226 0.45923 -1.4921 -0.64878 0.52011 -0.43127 1.8115 0.33754 -0.12428 0.17028 0.39957 0.55377 -1.1494 -0.32204 -0.054243 
• 1.1058 -1.6027 0.15012 -0.35322 0.30345 1.533 0.15557 -0.70447 0.023481 -0.059969 0.76469 0.28439 -0.16725 -0.31395 0.45854 
sul 0.3584 -0.6947 0.11362 0.14239 -0.060659 0.45313 -0.36444 0.21808 0.53803 0.85522 -0.082478 0.13841 -0.14105 -0.15849 -1.087 
anos -0.70125 0.4745 0.61141 0.24906 -0.11019 0.21943 0.18498 -0.021437 -0.17788 0.24216 0.080813 0.046108 -0.58702 0.15145 -0.47249 
portugal -0.0071209 0.25837 0.010138 0.16382 -0.36299 0.52022 0.13241 0.54521 0.42501 0.33835 0.20603 -0.21798 -0.21151 -0.6061 -0.28776 
in 0.86849 -0.74312 0.14742 -0.65877 0.62023 -0.56244 1.5113 0.61339 -0.6191 -0.79528 0.14606 -0.15041 -1.0545 -0.29047 -0.28413 
foram 0.069148 0.316 0.20616 0.36229 -0.4905 0.61381 0.011869 -0.21917 -0.34797 0.38264 -0.28635 -0.076551 -0.68777 -0.48315 -0.30295 
b 0.33809 0.33927 0.0053093 -0.7766 0.71532 0.38844 1.1328 0.30047 0.29224 -0.71618 0.64326 0.28827 -0.16964 -0.14268 -0.06358 
línguas 0.26746 -0.16321 -0.31394 1.0202 0.50616 1 -0.46305 0.16894 -0.55102 -0.071062 -0.094049 0.19906 -0.26932 -0.28255 0.062359 
até -0.32254 0.10811 0.12712 0.34934 -0.23831 0.34478 0.19555 0.25482 0.28171 0.4857 -0.13412 -0.23869 -0.18553 -0.12077 -0.57677 
outros 0.27185 -0.062213 0.022798 0.5767 -0.49937 0.49167 -0.055434 -0.2651 -0.42496 0.26767 0.043819 0.013282 -0.4658 0.090426 0.013237 
2011 0.13659 0.54134 0.43176 -1.0008 0.76328 -0.14301 0.12414 0.27297 -1.023 0.38189 0.72609 -0.37574 -0.38509 -0.079295 -0.49721 
portuguesa -0.091511 0.21628 -0.3242 0.023217 -0.07554 0.64305 -0.058626 0.46668 0.22272 0.25349 0.57923 -0.48199 -0.08599 -0.39595 -0.082485 
era -0.60079 -0.16275 0.19639 0.30159 -0.15926 0.30904 0.28562 0.12597 0.15458 0.21831 0.13024 -0.23218 -0.10113 -0.041733 -0.50373 
inglês 0.41639 -0.39696 -0.041846 -0.32367 0.91877 -0.15836 0.55806 0.40068 -0.54976 -0.20267 0.41875 -0.36772 -0.66096 -0.23913 0.00065279 
4 -0.2853 0.63099 -0.24408 -0.29936 0.5861 0.075796 0.21522 0.12358 -0.45951 0.33085 0.43643 0.27219 -0.6316 0.29398 -0.32218 
grande -0.076241 -0.32015 -0.13061 0.042404 -0.21653 0.46529 0.0452 -0.049994 0.25488 0.27572 -0.19063 -0.15332 -0.12766 0.30887 -0.81263 
países 0.23807 -0.073888 0.31441 0.4666 -0.18845 0.60561 -0.58212 0.093377 -0.06427 0.38706 0.0055919 -0.24698 -0.84882 -0.051512 -0.24479 
população -0.81657 -0.30547 0.56447 0.18234 0.29686 0.45846 -0.054743 0.0092396 -0.13186 0.31345 0.10245 0.3308 -0.63778 0.50263 -0.63871 
estado -0.082038 0.086421 0.61747 -0.098306 0.010531 0.47278 -0.097271 0.24808 0.47083 0.35583 0.19161 -0.038903 -0.34186 0.19238 -0.40092 
fevereiro 0.1903 0.87296 0.67209 -0.68805 0.5764 -0.21973 0.43061 0.36553 -1.1415 0.74103 0.58245 -0.22965 0.11875 0.062202 -0.38332 
· 1.404 -0.74701 1.0122 -0.41318 1.0319 1.4436 0.46947 -0.58184 0.2648 0.5402 0.45109 0.22161 -0.66913 -0.68553 0.95496 
acordo -0.073598 0.27874 0.27578 0.19555 -0.052838 0.43923 -0.17057 0.39074 -0.070135 0.21869 0.56423 -0.451 -0.36355 0.16047 0.12312 
região 0.052704 -0.42425 -0.079649 0.23305 0.15409 0.6085 -0.16807 0.17613 0.42733 0.56402 -0.15767 0.21532 0.058653 0.098515 -0.94613 
2008 0.10187 0.35272 0.31745 -0.78498 0.6766 -0.2183 0.29728 0.36863 -0.74104 0.20493 0.48637 -0.48266 -0.56561 0.12584 -0.41593 
c -0.32946 0.26528 -0.20603 -0.21524 0.57609 0.33579 1.1415 0.3191 0.35986 -0.31653 0.11269 0.38326 -0.16282 -0.44671 -0.24456 
2007 0.034232 0.20243 0.32582 -0.82469 0.7196 -0.38138 0.37598 0.39496 -0.98385 0.25525 0.63573 -0.42209 -0.58709 -0.014828 -0.58402 
sendo -0.18246 -0.074693 0.27408 0.43481 -0.074316 0.44739 -0.028761 0.091182 -0.076424 0.11599 0.19222 0.078162 -0.29822 0.28064 -0.39039 
governo -0.094036 0.31008 0.69481 -0.062777 -0.16726 0.57236 0.015594 0.23621 0.56262 0.088078 0.064851 -0.51118 -0.6235 0.0070791 -0.0046394 
julho 0.17936 0.575 0.3709 -0.96916 0.60009 -0.16742 0.16432 0.40293 -0.91673 0.35102 0.72382 -0.70809 -0.33961 -0.095497 -0.43532 
5 -0.19257 0.6144 0.13991 -0.23493 0.52575 0.0263 0.19941 0.12371 -0.52694 0.41341 0.33428 0.17098 -0.57271 0.39734 -0.46369 
quando 0.022288 0.2899 0.17844 0.61115 -0.41142 0.11357 0.28601 0.51458 -0.051744 0.078289 0.14303 -0.35073 0.052028 0.058162 -0.31948 
rio 0.25194 0.014107 0.064 -0.52258 0.024155 0.46801 0.053093 0.026906 0.51004 0.67886 0.38651 0.16886 0.42141 0.2112 -0.96062 
mundo -0.2015 -0.41483 0.26848 0.03384 -0.072174 0.25 -0.18568 -0.25374 0.0056966 0.23434 0.29151 -0.20799 -0.4193 0.57148 -0.7252 
norte 0.39855 -0.45761 0.0059885 0.37116 0.27944 0.33191 -0.26345 0.13514 0.59255 0.87611 0.1938 0.14573 1.1508e-05 -0.3115 -1.0687 
dezembro 0.11894 0.70445 0.40467 -0.97516 0.68101 -0.19566 0.23784 0.43624 -0.8103 0.40393 0.69017 -0.52436 -0.42874 -0.12842 -0.55349 
ainda -0.050955 -0.14036 0.018064 0.55714 -0.24463 0.46547 -0.0094134 0.13074 -0.12555 0.052549 -0.057522 -0.12626 -0.085741 0.20004 -0.3834 
2009 0.11116 0.40995 0.16574 -0.81966 0.75424 -0.088413 0.31814 0.42839 -0.84841 0.15296 0.65602 -0.40523 -0.42978 0.052009 -0.27842 
forma 0.041786 -0.11029 -0.098728 0.88069 -0.25684 0.29047 0.16713 0.35272 -0.059756 -0.06615 0.1602 -0.37954 0.17808 0.30439 -0.063888 
wikipédia 0.52891 -0.055476 -0.28966 0.80697 -0.66835 0.16358 0.34752 0.2831 -0.42235 0.48115 0.26417 -0.42286 0.10624 0.89797 0.7603 
durante -0.63783 0.15376 0.15494 0.21891 -0.12261 0.3747 0.19763 0.12677 0.25908 0.2732 -0.2667 -0.60765 -0.23499 -0.28405 -0.69358 
mesmo -0.11327 0.093125 0.097773 0.76829 -0.38742 0.23848 0.20244 0.2356 -0.20646 0.1747 0.1253 -0.30135 0.084799 0.18161 -0.144 
cidade -0.079943 -0.20014 0.24109 -0.22338 -0.19104 0.511 0.11725 -0.077855 0.37264 0.40919 0.13719 0.10152 0.012143 0.13289 -0.66587 
outubro 0.0052411 0.67604 0.43021 -1.0323 0.60728 -0.083001 0.23771 0.4769 -0.7354 0.36922 0.70147 -0.66937 -0.22172 -0.090228 -0.46514 
texto -0.33603 -0.76666 -0.18438 -0.0063252 -0.42337 1.086 0.54966 1.3087 -0.69127 0.26038 -0.081329 -0.13215 1.0055 0.81193 1.1108 
desde -0.29605 0.12202 0.051613 0.10635 -0.15675 0.39722 0.1109 0.12772 0.24554 0.21835 0.0063751 -0.50598 -0.30052 -0.073668 -0.46656 
março 0.14245 0.58814 0.34376 -0.92666 0.72729 -0.12464 0.19481 0.42536 -0.81471 0.39132 0.59736 -0.65726 -0.24652 -0.099858 -0.44725 
já -0.068274 0.042735 -0.091664 0.60325 -0.27931 0.249 0.29596 0.018753 -0.054182 0.3647 -0.053396 -0.2608 0.019337 0.1224 -0.27863 
seus -0.014745 0.055339 0.19017 0.45357 -0.53596 0.51051 0.069662 -0.36339 -0.22244 0.14584 -0.085126 -0.083768 -0.62966 -0.11834 -0.09265 
6 -0.16725 0.42553 0.056427 -0.45137 0.68998 0.12596 0.15226 0.19011 -0.44743 0.34068 0.47057 0.084419 -0.41156 0.11459 -0.51373 
2012 0.1421 0.65399 0.41706 -0.90295 0.63095 -0.050378 0.066018 0.27984 -0.98948 0.33014 0.69407 -0.52809 -0.35614 0.11425 -0.45876 
estados 0.20136 -0.055989 0.56866 0.058704 -0.069528 0.46281 -0.48837 0.23731 0.050518 0.51808 -0.0491 -0.091813 -0.97722 -0.059924 -0.3681 
outras 0.312 -0.022359 -0.21707 0.7087 -0.18941 0.67825 -0.11383 0.0080873 -0.46043 0.063306 -0.28254 0.077507 -0.36316 0.06915 -0.020126 
há 0.19753 0.019671 -0.034386 0.80469 -0.12735 0.44328 0.029645 -0.035107 -0.28488 0.050759 -0.012498 0.074153 -0.019514 0.32571 -0.29345 
abril -0.052925 0.56588 0.24969 -0.94943 0.57211 -0.10311 0.24702 0.32874 -0.72636 0.36636 0.66715 -0.56484 -0.28798 -0.11889 -0.49577 
após -0.26361 0.36585 0.38205 0.26569 -0.37371 0.19257 0.26018 0.19476 0.25011 0.48473 0.034588 -0.66539 -0.27325 -0.26267 -0.39929 
setembro 0.12884 0.57413 0.447 -0.94153 0.66742 -0.19631 0.20901 0.49172 -0.96848 0.31566 0.61183 -0.6412 -0.28646 -0.13086 -0.55183 
p 0.3248 0.52037 -0.96455 -0.51847 0.68843 -0.20827 1.4973 0.25457 -0.10006 -0.084602 0.58256 0.8893 -0.9324 -0.3394 -0.27223 
termos -0.77341 -1.0921 -0.12191 -0.23791 -0.36963 1.737 0.032225 1.186 -0.81944 -0.35637 -0.31575 0.43828 0.44967 0.74423 0.72472 
d -0.21792 0.3687 0.22433 -0.39013 0.026751 0.35649 1.4115 0.30919 0.7247 -0.28668 0.50371 0.35341 0.13273 -0.66219 -0.13713 
suas 0.57117 0.2322 -0.085298 0.4538 -0.55322 0.54996 0.055141 0.012755 -0.10481 0.33227 -0.53039 -0.015612 -0.55514 0.19061 -0.0017034 
aos -0.096485 0.19418 0.14097 0.49026 -0.45303 0.46082 0.18946 -0.039572 -0.23455 0.2697 -0.21523 -0.13956 -0.48919 -0.018822 -0.09466 
l 0.59363 0.15783 -1.3453 -0.57526 0.61699 -0.39564 2.1089 0.40653 0.40897 -0.58619 0.27707 0.39887 -1.0622 -0.37549 -0.19179 
apenas -0.10656 0.041005 0.21271 0.58045 -0.1464 0.26709 0.13626 0.13414 -0.25597 0.27258 0.16653 0.1847 -0.29383 0.3737 -0.28658 
nacional -0.12358 0.015149 0.26232 -0.48386 0.088679 0.65959 -0.01751 -0.25964 0.39952 -0.02701 0.5368 -0.37149 -0.53442 0.53988 -0.17752 
cerca -0.61766 -0.11609 0.63782 0.28278 0.17338 0.2197 0.17163 -0.28605 -0.30787 0.53146 0.053769 0.64035 -0.66071 0.43823 -0.75613 
junho 0.181 0.65706 0.23212 -0.93465 0.67437 -0.11374 0.1172 0.41335 -0.8318 0.43248 0.7054 -0.65716 -0.33883 -0.091728 -0.40123 
pessoas -0.23876 0.086075 0.41022 0.67013 -0.28392 0.1465 0.16129 -0.15935 -0.72613 0.24338 -0.072522 0.21275 -0.52253 0.47438 -0.14449 
onde 0.25364 -0.14824 0.12819 0.34913 -0.29913 0.3871 0.10103 0.069036 0.17714 0.46684 0.032113 0.071305 -0.011531 -0.12616 -0.56141 
artigo 0.39225 -0.0008623 -0.034492 0.89239 -0.41881 -0.092703 0.51622 0.50203 -0.16333 0.38418 0.5828 -0.42007 0.41198 0.77901 0.45232 
todos 0.12148 0.10069 0.23132 0.63286 -0.48898 0.42902 -0.025955 -0.040342 -0.37446 0.12152 -0.026664 -0.14474 -0.55109 0.11801 0.16496 
maio 0.0042147 0.54284 0.43712 -0.91451 0.60502 -0.10421 0.20261 0.60383 -0.73249 0.33866 0.63229 -0.59855 -0.30744 -0.076634 -0.43885 
está 0.11887 -0.38486 0.20483 0.36787 -0.046157 0.24949 0.15973 0.39465 0.23271 0.36105 0.26083 -0.045927 0.06378 0.70338 -0.23496 
nova 0.023688 -0.14921 0.19224 -0.21482 -0.24841 0.34891 0.25875 0.47631 0.50382 0.49733 0.22575 0.21296 -0.44858 -0.14057 -0.41214 
novembro 0.015776 0.63298 0.46042 -0.91209 0.61909 -0.17141 0.25805 0.40539 -0.85104 0.32761 0.67845 -0.62447 -0.36748 -0.20683 -0.46861 
além 0.14299 -0.16984 0.0067957 0.34895 -0.35878 0.41787 -0.024702 -0.31512 0.041011 0.2177 -0.032007 -0.10213 -0.44505 0.18571 -0.42013 
pdf 0.47445 0.079051 -0.26657 -1.0517 1.1157 -0.091716 0.47399 0.3205 -0.65762 -0.13748 0.5129 -0.69335 -0.54248 0.25362 -0.44803 
estar -0.75861 -1.1286 -0.73654 0.26147 -2.2217 0.36147 -0.2469 2.1247 -0.84022 0.18468 1.0573 0.62445 -0.51455 0.48553 -0.085473 
dois 0.0096581 0.1718 0.41434 0.55184 -0.32942 0.43414 -0.069308 -0.040128 -0.096435 0.26113 0.11324 0.043476 -0.56958 -0.081784 -0.29309 
pelos -0.16131 -0.019914 0.22354 0.56501 -0.16547 0.53609 -0.014058 -0.12687 -0.092344 0.38654 -0.21267 -0.19752 -0.56698 -0.3925 -0.35507 
2013 0.12941 0.57541 0.47807 -0.87904 0.64798 -0.03602 0.17277 0.31068 -1.0194 0.34397 0.5932 -0.53315 -0.26038 -0.075389 -0.3561 
agosto 0.16109 0.49741 0.47706 -0.95003 0.64812 -0.16752 0.22421 0.43579 -0.76695 0.34345 0.56263 -0.59539 -0.32875 -0.18592 -0.5451 
alguns 0.10632 -0.086977 0.06331 0.78105 -0.38933 0.49527 0.023692 -0.40907 -0.39282 0.10796 0.045585 -0.029712 -0.37683 0.015986 -0.094204 
sujeito -0.98731 -1.0075 -1.0095 0.40975 -2.0641 0.28964 -0.23399 2.6702 -0.69196 -0.52514 1.6236 0.93111 -0.5836 0.63306 -0.12352 
esta -0.11976 0.029437 -0.081759 0.48077 -0.22063 0.1412 0.31215 0.47711 -0.0014479 0.23639 0.15026 -0.33295 -0.062529 0.50503 -0.17175 
muito -0.037164 -0.28823 0.048247 0.7161 -0.25612 0.33154 0.032073 0.068824 -0.15314 0.016527 -0.15834 -0.38569 -0.033451 0.30964 -0.40737 
| 0.79975 0.47453 0.21052 0.032624 0.57244 0.46921 1.9814 0.47993 0.018339 1.3073 0.46002 2.3516 0.57732 0.60702 0.39773 
paulo 0.043486 0.40331 0.20127 -0.44937 0.14173 0.54327 0.078089 -0.31071 0.093702 0.32873 0.5673 0.2124 0.35617 0.082728 -0.78288 
2014 0.09234 0.40594 0.4414 -0.86607 0.55266 -0.043151 0.028148 0.2967 -0.77191 0.45652 0.86151 -0.42395 -0.37237 0.051492 -0.38592 
ano -0.43513 0.22404 0.40104 0.18667 -0.23573 -0.042438 0.24639 0.26744 0.02016 0.45588 0.38202 -0.011724 -0.31212 0.018163 -0.66207 
original -0.055018 0.42625 0.070159 -0.51879 0.90443 -0.26093 -0.079222 0.90935 -1.4791 0.34201 0.72138 -0.68264 0.10402 0.10664 -0.60738 
guerra -0.30158 0.33847 0.30652 0.12044 -0.55353 0.20276 0.047022 0.25511 0.29787 0.48879 -0.25575 -0.91359 -0.55302 -0.51395 -0.58327 
república -0.0023723 -0.045426 0.9029 -0.031252 0.13762 0.62715 -0.25928 0.53537 0.83656 0.50068 0.47493 -0.58465 -0.66418 -0.56417 -0.11605 
licença -1.0445 -2.1175 -0.007834 -0.68021 -0.89669 1.8705 0.25509 1.8716 -1.2958 -0.057614 -0.13542 0.32183 0.71858 1.3427 1.3903 
commons -0.80972 -1.5355 -0.93677 -0.4247 -2.4869 0.76292 -0.28882 3.0687 -1.5783 -0.22177 1.0137 0.86281 -0.51295 0.46728 0.0054842 
usuário 0.39195 0.33006 0.18928 0.93162 -0.52405 -0.30827 1.1177 0.48303 0.0094338 1.0283 0.46076 0.72656 0.24681 0.99561 0.73562 
utilização -0.33002 -0.7166 -1.8285 0.17644 -2.0349 0.14931 -0.46396 1.6152 -0.0074245 0.11852 1.2115 0.51998 -1.4176 0.66921 -0.07016 
reino -0.56007 -0.0828 0.47028 0.28347 -0.019605 0.44307 0.11425 0.53414 0.54778 0.65724 0.16337 -0.2897 -0.77947 -0.59426 -0.26124 
editar 0.45516 0.44785 -0.14754 1.0076 -0.62866 -0.18821 1.4106 0.45926 -0.19975 1.1457 0.43055 1.0935 0.32058 0.99848 1.0174 
primeira -0.42919 0.10733 0.13721 0.12008 -0.22898 0.29036 0.15211 0.19735 0.21421 0.32757 0.43558 -0.56022 -0.032147 -0.11426 -0.45581 
2019 0.6727 1.3153 1.0669 -0.62911 0.46561 -0.073287 0.6904 -0.043894 -1.3604 1.1754 0.22736 0.14247 0.80412 0.30737 -0.27304 
três 0.026971 0.30712 0.31657 0.49419 -0.18427 0.46616 0.020416 -0.16876 -0.02142 0.28691 0.035159 0.14121 -0.40017 0.12239 -0.31878 
[s 0.63202 -0.0027283 -1.402 -0.77986 0.63132 -0.3704 2.0954 0.32611 0.24582 -0.61015 0.068763 0.26008 -1.1454 -0.32285 -0.04424 
segundo -0.24719 0.058031 0.30014 0.025706 0.05372 0.36436 0.015259 0.12661 0.062142 0.08806 0.57832 -0.10819 -0.20302 0.41487 -0.36875 
nome -0.22597 -0.22746 0.18297 0.72614 0.044272 0.19168 0.41995 0.31623 0.10971 0.36458 0.5724 -0.21149 0.41059 -0.11465 0.051307 
detalhes -0.80225 -0.33286 -1.984 -0.1985 -2.8575 0.30678 -0.26111 2.5311 -0.70732 0.067991 1.3223 1.106 -1.3704 0.14261 -0.15406 
depois -0.21505 0.19654 0.37744 0.27537 -0.331 0.24171 0.27177 0.26559 0.2351 0.41128 0.13273 -0.35406 -0.095802 -0.26145 -0.42992 
exemplo 0.19993 0.012533 -0.086287 0.9265 -0.17075 0.2696 0.15209 0.10704 -0.13477 -0.1611 0.25292 -0.11317 0.17714 0.22151 -0.12389 
7 -0.25744 0.48247 0.19041 -0.3828 0.56028 -0.026882 0.35746 0.066774 -0.71544 0.34506 0.50504 0.11271 -0.35306 0.26122 -0.41554 
creative -1.027 -1.8183 -0.94793 -0.45935 -2.1878 1.4066 -0.32612 2.7244 -1.31 -0.27744 0.82687 1.5967 -0.73108 0.44956 0.61824 
arquivado 0.011184 0.61112 0.23356 -1.4231 1.3719 0.013906 0.030894 0.62912 -1.5778 0.31458 0.67313 -0.98722 -0.071678 0.039998 -0.53139 
cada -0.11831 0.17128 0.46762 0.55751 -0.25422 0.27036 -0.027065 0.3263 -0.099239 0.077155 0.20628 0.014486 -0.31406 0.36881 -0.23416 
adicionais -1.0634 -0.57269 -1.5865 0.19127 -2.0653 0.17227 -0.72971 2.3385 -0.81323 0.16454 1.2712 0.73062 -1.5705 0.42888 -0.12621 
consulte -0.7823 -0.53351 -2.3771 0.16378 -3.1498 -0.29301 -0.46062 2.7215 -0.87999 0.43065 1.7818 0.51684 -1.8185 0.21056 -0.26807 
número -0.33961 -0.12911 0.28346 0.47511 -0.044067 0.26022 0.00068015 -0.15785 -0.36042 0.26153 0.10353 0.23525 -0.51501 0.43553 -0.33885 
2006 0.086061 0.069724 0.29968 -0.73322 0.51244 -0.17045 0.44279 0.32942 -0.64217 0.057573 0.5467 -0.13162 -0.72637 0.11233 -0.3367 
adaptada -1.7268 -1.8525 -0.50637 -0.14707 -1.0176 1.7003 -0.213 3.0079 -1.2394 0.11617 -0.22974 1.0119 0.4223 1.2163 0.65568 
artigos 0.54552 0.13791 -0.26414 0.97919 -0.74341 0.11538 0.26863 0.092669 -0.74328 0.4607 0.14506 -0.17359 -0.15259 0.64032 0.56326 
cc -1.5838 -1.6633 0.056901 -1.4371 -2.0997 2.2285 -0.17988 2.9113 -2.1213 -0.59606 0.6034 1.4988 0.41585 0.4514 0.86576 
vez -0.15724 0.00086563 0.19324 0.59019 -0.24361 0.21622 0.052066 0.34043 0.027116 0.12832 0.2847 -0.41403 0.009057 0.003086 -0.28462 
eram -0.14148 0.16986 0.21835 0.47783 -0.42312 0.46777 0.037917 -0.3652 -0.49691 0.21933 -0.41447 0.021559 -0.79325 -0.34266 -0.48105 
8 -0.31356 0.47764 0.29697 -0.56943 0.63871 0.17697 0.24695 -0.037086 -0.74949 0.32561 0.41 0.072803 -0.45315 0.53302 -0.40666 
áfrica -0.052745 -0.22077 -0.55803 0.28657 0.25128 0.40947 -0.27897 0.24517 0.43787 0.70348 -0.00016989 0.064289 -0.6111 -0.41179 -0.92953 
by-sa -1.0321 -2.364 -1.1775 -0.64967 -1.9334 1.8162 -0.37231 3.5313 -1.6458 -0.38041 0.67505 0.868 0.08879 0.58661 1.0805 
assim 0.10341 0.053764 -0.0096214 0.67398 -0.32421 0.35536 0.11194 0.15277 0.036061 0.10858 0.045918 -0.21147 -0.00064908 -0.02518 -0.21886 
ed 0.53103 0.24181 -0.30869 -0.91633 0.53839 0.16692 0.7835 0.49666 -0.040971 -0.27474 0.55499 0.067044 -0.6403 -0.067573 -0.22172 
disponibilizado -1.1748 -1.6215 0.05885 -1.1476 -0.30821 2.3207 -0.118 1.7438 -0.71812 0.01774 -0.41574 0.1805 1.0113 1.4325 1.3766 
atribuição-compartilhaigual -1.0305 -1.871 -0.50555 -1.0554 -0.78277 2.2214 0.42566 2.7225 -1.1196 -0.078365 -0.30007 1.1488 0.71801 1.3334 1.6463 
portugueses -0.12875 0.11133 0.024813 0.43364 -0.5648 0.43296 0.042109 -0.2303 -0.20551 0.729 0.042386 -0.19087 -0.4688 -0.97484 -0.55672 
milhões -0.71152 0.063417 0.7518 0.20874 0.26023 0.10651 0.15231 -0.31755 -0.55337 0.57661 0.084779 0.7792 -0.79156 0.65647 -0.78152 
sistema 0.029507 0.076078 0.27349 0.27829 -0.049353 0.53484 -0.080189 0.16409 0.39958 -0.062417 -0.0032577 -0.27692 -0.50196 0.65993 -0.015211 
palavras 0.27067 0.56534 -0.36038 1.1537 0.14556 0.72681 -0.14796 0.35806 -0.49255 -0.58409 0.057917 0.16108 0.12788 0.053176 -0.1122 
europa 0.16228 -0.22162 -0.51264 -0.13822 0.24585 0.29542 -0.10487 0.17693 0.33737 0.43046 -0.062232 -0.33841 -0.69416 -0.01596 -0.56618 
– 0.26645 -0.05307 0.022022 -0.2969 0.38354 0.10478 0.71706 0.16046 -0.383 -0.22551 0.35994 -0.084013 -0.14018 0.051776 -0.26194 
sem 0.17912 0.13494 -0.082688 0.73164 -0.47457 0.090634 0.37089 0.30509 -0.23654 0.18896 0.0054975 -0.34039 -0.26156 0.39193 0.09874 
às 0.2742 0.24139 -0.072173 0.59742 -0.45391 0.52849 0.056881 -0.085464 -0.097485 0.20061 -0.33292 -0.16663 -0.40304 -0.074963 -0.32513 
maioria -0.26012 -0.089967 0.31368 0.60483 -0.063927 0.47501 -0.22468 -0.10439 -0.2767 0.10703 -0.064547 0.047249 -0.59178 0.054974 -0.29742 
embora -0.2645 -0.078441 0.14718 0.82115 -0.12239 0.38822 0.13787 -0.0012231 -0.030526 0.10222 -0.11523 -0.23893 -0.31526 0.15415 -0.134 
s 0.47402 0.73948 -0.20776 -0.26996 0.62966 0.077701 0.89907 0.4121 0.073227 -0.57486 0.3326 0.27997 -0.0083891 -0.065561 -0.52161 
]: 0.55006 0.13406 -1.7302 -0.82707 0.63038 -0.5473 2.247 0.14645 0.082534 -0.34273 0.40461 0.44906 -1.4998 -0.34995 -0.1682 
página 0.62052 0.14817 -0.10501 0.74221 -0.68186 -0.18389 0.78937 0.5972 -0.23465 0.86498 0.35149 -0.060375 0.55367 0.85423 0.51786 
primeiro -0.22944 -0.061256 0.42099 0.22021 -0.29331 0.2223 0.24052 0.10855 0.26718 0.23419 0.47022 -0.35935 0.02044 -0.15306 -0.41823 
partir -0.31792 0.093213 -0.21746 0.27552 -0.19506 0.33627 0.15002 0.075387 0.12362 0.24397 -0.027852 -0.46285 -0.18081 -0.26243 -0.60126 
10 -0.25379 0.35908 0.52158 -0.59626 0.68903 -0.12736 0.31939 0.11718 -0.8465 0.41345 0.54557 0.03886 -0.41545 0.1967 -0.51552 
política -0.088624 0.26263 -0.12205 0.26604 -0.39468 0.48195 0.081895 0.32813 0.33087 -0.061079 -0.12657 -0.80169 -0.52882 0.36655 0.075048 
2016 0.055672 0.67495 0.44127 -1.0934 0.7477 0.0034022 0.021565 0.1603 -0.84661 0.58136 0.96202 -0.55825 -0.23015 0.21469 -0.3862 
páginas 0.82589 0.54856 -0.75101 0.5378 -0.35012 -0.033994 0.66297 0.3634 -0.4503 0.58265 0.1973 0.44566 -0.38939 0.535 0.5137 
9 -0.37525 0.3804 0.15294 -0.64617 0.61662 0.15368 0.31163 -0.14907 -0.96039 0.18689 0.53902 -0.0661 -0.49456 0.0012209 -0.3473 
: 0.30122 0.56788 -0.35164 -0.0067053 0.5612 -0.010787 0.73489 0.47324 -0.13257 -0.38519 0.55685 0.41607 -0.38101 -0.19321 -0.34856 
américa 0.44363 -0.52764 -0.19167 0.060823 0.18264 0.63171 -0.55401 -0.028257 0.22043 0.59564 0.029688 -0.2575 -0.19807 0.017515 -0.85259 
universidade 0.19756 0.090933 -0.46348 -0.83156 0.11348 0.76652 0.33803 -0.19146 0.4553 0.11366 0.57347 0.11167 -0.14314 0.36393 -0.19273 
afluentes 0.083567 0.55539 0.083989 0.44968 -0.16487 -0.075232 1.8379 0.39913 0.041623 1.5454 0.49657 2.7862 -0.20888 0.57355 0.49948 
la 1.5115 0.24473 0.0085882 -0.60352 0.28945 0.70583 0.44049 0.17667 0.00015196 -0.48028 -0.17993 -0.2403 0.70508 -0.63868 -0.93059 
história -0.37285 0.018816 -0.50157 -0.24029 -0.19507 0.46387 0.36339 -0.27956 0.0088113 -0.032123 0.2567 -0.41533 -0.091969 0.027065 -0.26234 
território -0.19717 -0.23978 0.30841 0.33609 -0.031516 0.48536 -0.028373 0.37512 0.59025 0.66856 -0.12348 -0.17866 -0.31577 -0.22802 -0.63287 
duas 0.25806 0.25409 0.14926 0.55783 -0.093704 0.65142 -0.047581 0.028284 -0.0017697 0.076835 -0.13169 0.16861 -0.35183 -0.0034375 -0.25239 
‎ -0.45648 0.42573 -0.3237 -0.000962 0.44198 0.033795 2.3788 0.56664 0.24266 1.4265 0.77255 3.1991 -0.1064 0.71274 0.46985 
discussão 0.8056 0.88101 0.31648 0.44413 -0.59035 -0.22239 1.0677 0.43829 -0.66306 1.2068 0.27479 0.30991 0.54639 0.57288 0.54312 
— 0.25274 0.037236 -0.17294 0.22413 0.0019284 0.44028 0.16842 0.077128 0.019616 0.17438 0.32121 -0.13875 -0.092176 -0.094601 -0.13249 
podem 0.49579 0.30351 -0.024885 1.0377 -0.66588 0.21564 0.097116 0.021045 -0.67752 0.11584 -0.10081 0.04002 -0.38 0.50402 0.23145 
enquanto -0.14757 -0.13772 0.30053 0.51453 -0.036465 0.34879 0.040767 -0.029437 -0.11579 0.11734 -0.12148 1.0941e-05 -0.30425 0.15105 -0.37554 
← 0.48942 0.46792 0.0073919 -0.45563 0.63474 0.37106 2.308 0.52961 -0.26013 1.9804 0.79682 3.2347 0.26057 0.47145 0.7842 
ter -0.048248 -0.05209 0.36841 0.74066 -0.55014 0.15274 0.21758 0.21298 -0.27909 0.30717 0.38805 -0.3681 -0.060922 0.21781 -0.057884 
entanto -0.13441 0.038645 0.1412 0.43665 -0.29243 0.38174 0.011507 0.21207 -0.11633 0.0821 -0.078845 -0.40995 -0.35489 0.15876 -0.11184 
china -0.081533 -0.18883 0.33803 -0.2302 -0.039975 -0.059794 0.25205 0.47487 0.33204 0.0958 -0.13678 -0.43563 -0.87656 -0.081413 -0.70528 
mil -0.60066 0.087947 0.64034 0.1635 0.15019 0.16703 0.23385 -0.32002 -0.49723 0.52517 0.16199 0.84204 -0.74172 0.45965 -0.78703 
12 -0.0086998 0.48612 0.44327 -0.61371 0.59588 -0.082723 0.3855 0.22787 -0.68937 0.4326 0.6033 -0.040037 -0.4882 0.045105 -0.30563 
algumas 0.44774 0.018733 -0.13662 0.77239 -0.2179 0.63992 -0.20832 -0.0071341 -0.30188 0.030823 -0.19308 0.049002 -0.26429 0.19061 -0.084875 
estão 0.53842 -0.19455 0.024342 0.51661 -0.29654 0.49814 -0.024166 -0.17657 -0.28949 0.3608 -0.079928 0.41703 -0.49791 0.32859 -0.11019 
2015 0.18392 0.49504 0.43027 -0.85802 0.60114 -0.049504 0.080978 0.19973 -0.86391 0.52105 0.76992 -0.2621 -0.31089 0.21691 -0.3159 
seja 0.10602 -0.074435 0.0018101 0.93574 -0.29048 0.20475 0.24335 0.35848 -0.1255 0.067163 0.27182 -0.27479 0.14366 0.59655 0.12563 
i 0.062479 0.51077 0.13917 0.074103 0.075856 0.46998 1.021 0.33485 0.62963 -0.46474 0.16164 0.086949 0.29135 -0.74142 -0.30375 
sido -0.31483 -0.11432 0.24581 0.63339 -0.2099 0.26075 0.32747 0.00022309 -0.051437 0.21297 -0.057201 -0.52949 -0.28501 0.17287 -0.0041394 
francês 0.036908 -0.75168 0.57149 0.67839 1.069 0.55419 -0.070321 0.0726 0.15012 -0.0058085 0.59106 -0.16423 -0.076844 -0.53632 -0.034098 
período -0.67407 0.2272 -0.043511 0.32664 -0.048559 0.26902 0.31673 0.07543 0.2418 0.22292 -0.26332 -0.48353 -0.29051 -0.04136 -0.60182 
têm 0.15176 -0.072789 0.12122 0.7455 -0.21651 0.52723 -0.2099 -0.30526 -0.22905 -0.012469 -0.13955 -0.020001 -0.60185 0.38039 -0.13836 
através 0.18113 0.083153 -0.1371 0.3943 -0.36868 0.37779 0.1296 0.019962 0.16409 0.24343 0.030994 -0.43189 -0.33677 0.31761 -0.030979 
press 0.66961 0.06618 -1.6106 -1.0389 0.2963 -0.71813 2.0605 0.64713 -0.21593 0.024412 0.28343 0.58147 -1.8587 -0.44082 -0.20691 
uso 0.30589 0.10919 -0.40181 0.68085 -0.033084 0.39483 0.0018108 0.23635 -0.27995 -0.2786 0.20733 -0.25747 0.15187 0.30697 -0.065731 
muitos -0.080083 -0.11415 0.023337 0.64652 -0.37447 0.57499 -0.027031 -0.3105 -0.5103 0.07224 -0.23787 -0.18568 -0.4955 -0.070505 -0.12591 
império -0.625 0.1913 -0.20349 0.4693 0.047833 0.48212 0.2348 0.34786 0.69416 0.51389 -0.4533 -0.7342 -0.32208 -0.68405 -0.56107 
15 -0.19064 0.39335 0.58997 -0.65767 0.50505 -0.15978 0.31044 0.21905 -0.57048 0.47819 0.45583 -0.26319 -0.50371 -0.04982 -0.53037 
qual -0.050201 -0.12854 0.14381 0.44493 -0.13335 0.30756 0.14265 0.26196 0.14965 0.15747 0.14181 -0.3559 0.013183 0.12531 -0.23669 
internacional 0.33496 -0.15876 0.19596 -0.38128 -0.2094 0.40375 -0.019007 0.012297 0.47386 -0.094564 0.66012 -0.54951 -0.63101 0.48165 -0.12431 
oficial -0.1582 -0.20698 0.21281 0.30772 0.41338 0.69103 -0.26654 0.51484 0.11421 0.077004 0.66359 -0.4042 -0.11804 -0.13826 0.13393 
bem 0.22902 -0.15465 0.0022404 0.64043 -0.37237 0.40109 0.015814 -0.077925 -0.05657 -0.028148 0.010662 -0.21194 -0.18406 0.16885 -0.24104 
brasileiro -0.021914 0.12776 -0.078122 0.031017 0.39891 0.5683 -0.15327 -0.36669 0.11615 -0.075211 1.0421 0.0088269 0.3109 0.07775 -0.69316 
university 0.59435 -0.36945 -1.3706 -0.94779 0.73736 -0.66956 2.112 0.65039 -0.20367 -0.39142 0.14843 0.43881 -1.8193 -0.2368 -0.20133 
regiões 0.42751 -0.14008 -0.039812 0.39775 0.1634 0.87721 -0.44382 0.012055 0.13014 0.36764 -0.39259 0.52232 -0.21144 0.10432 -0.72868 
20 -0.065851 0.41787 0.60848 -0.54796 0.43446 -0.23691 0.2446 0.27579 -0.77217 0.51228 0.57362 -0.22563 -0.28633 0.20775 -0.46201 
muitas 0.16713 -0.029463 -0.14328 0.71974 -0.32158 0.6626 -0.11915 -0.23515 -0.43799 -0.045058 -0.40935 -0.19048 -0.32756 0.0476 -0.17074 
2017 0.28185 0.67047 0.26285 -0.84582 0.7647 -0.021293 0.17474 0.23802 -0.8263 0.53418 0.80394 -0.40014 -0.022111 0.1944 -0.44038 
unidos 0.19253 -0.10649 0.64813 -0.02706 -0.011341 0.33407 -0.48167 0.28173 0.18038 0.35451 -0.092761 -0.28469 -1.0711 -0.11818 -0.42015 
união -0.21955 0.11252 0.41189 0.18554 -0.020457 0.53118 -0.41989 0.51667 0.61021 0.16548 0.4062 -0.63871 -1.0632 -0.16022 -0.11945 
ele -0.12436 -0.074326 0.59859 0.40627 -0.46299 0.046191 0.56696 0.1714 0.18963 0.14725 0.35439 -0.49545 0.10265 0.15957 -0.11095 
comunidade 0.085865 -0.024915 0.039509 0.33009 -0.27122 0.51633 -0.28392 0.42434 0.0027239 0.29615 0.18846 -0.56825 -0.44033 0.28358 0.19423 
to 1.0743 -0.87859 0.46916 -0.55281 0.69286 -0.75881 1.4729 0.74288 -0.6912 -0.52891 0.079834 -0.20093 -1.2159 -0.63479 -0.34063 
27 0.18413 0.5777 0.44021 -0.97967 0.81989 -0.12079 0.43899 0.25177 -0.82675 0.3643 0.46932 -0.31052 -0.31479 0.072148 -0.30924 
000 -0.51905 -0.05313 0.63537 0.22411 0.44281 -0.022929 0.37257 -0.18451 -0.43896 0.75442 0.030767 0.99799 -0.57339 0.25467 -0.94485 
grandes 0.38531 -0.048425 -0.12867 0.26815 -0.43959 0.59503 -0.17 -0.34904 -0.12371 0.24156 -0.51696 0.074378 -0.51047 0.15206 -0.77173 
então -0.10104 0.12018 0.19702 0.19843 -0.49606 0.36928 0.22779 0.23989 0.31017 0.47067 0.016901 -0.40197 -0.17961 -0.15954 -0.24556 
presidente 0.10459 0.41525 1.309 -0.18761 -0.22435 0.62158 0.072692 0.32594 0.65035 -0.059446 0.62874 -0.54511 -0.27951 -0.28257 0.13997 
23 0.12811 0.53283 0.50258 -0.87203 0.97363 -0.10697 0.34137 0.26009 -0.79682 0.46284 0.61279 -0.20204 -0.29357 0.10051 -0.31229 
isso 0.24705 -0.0068586 0.18354 0.7353 -0.54483 0.018792 0.22752 0.3108 -0.16841 0.22673 0.027731 -0.3375 0.077806 0.43105 -0.093052 
for 0.66384 -0.72729 0.28694 -0.11743 0.28755 -0.62352 1.0891 0.71958 -0.62938 -0.36579 0.1973 -0.46653 -0.57312 0.09363 -0.093579 
sob -0.15829 0.075475 0.20363 0.17138 -0.35141 0.49892 0.22252 0.40645 0.57189 0.42493 -0.10222 -0.62157 -0.47565 -0.35002 -0.056874 
caso 0.41358 0.14601 0.15338 0.94303 -0.40541 0.12204 0.23393 0.56814 -0.10084 0.054384 0.33 -0.18307 0.27901 0.3894 0.14303 
desenvolvimento 0.0076317 -0.091074 -0.19029 -0.11848 -0.38551 0.47689 -0.32961 -0.10852 0.29901 -0.20379 0.087219 -0.71209 -0.71472 0.76642 -0.46615 
vezes 0.10037 0.009979 0.18967 0.84908 -0.39541 0.37712 -0.00011642 -0.090106 -0.28194 0.10521 0.0039513 -0.12758 -0.16938 0.17118 -0.14494 
segunda -0.6293 -0.072107 0.29378 0.19484 -0.039588 0.20126 -0.17662 0.30808 0.27942 0.21131 0.40979 -0.5555 -0.21188 0.033467 -0.81681 
só -0.020848 0.1505 -0.027516 0.67747 -0.29512 0.24173 0.22504 0.28045 -0.19277 0.18556 0.11592 -0.35837 0.012947 0.12944 -0.069775 
todas 0.44849 0.20636 -0.059438 0.70939 -0.23317 0.60196 -0.047803 0.23028 -0.35089 0.19198 -0.22935 0.047848 -0.4067 0.23561 0.14576 
novo -0.097288 0.18431 0.36256 0.20583 -0.255 0.23855 0.36178 0.267 0.33962 0.37873 0.31465 -0.4793 0.045701 0.032449 0.021354 
qualquer 0.047063 -0.23179 0.24686 0.73415 -0.56278 0.11501 0.31712 0.21473 -0.18729 0.15302 0.29504 -0.46568 -0.090483 0.6965 0.28543 
tempo -0.1781 0.054839 0.035861 0.74843 -0.41882 0.14982 0.25623 0.089874 -0.10343 0.2311 -0.22708 -0.43228 0.038508 0.21423 -0.37063 
2005 0.017013 0.11107 0.37113 -0.55981 0.47741 -0.12117 0.42822 0.23679 -0.41923 -0.10766 0.52264 0.0023391 -0.70629 0.1213 -0.37088 
fontes 0.44436 -0.083561 -0.94348 0.72099 -0.2938 0.47393 0.37353 -0.3745 -0.19574 0.43024 0.060945 0.051781 -0.30449 0.57218 0.33907 
cultura -0.33332 -0.063796 -0.53061 -0.039047 0.10824 0.82001 -0.092828 -0.36972 -0.033559 0.0047263 -0.10265 -0.66607 -0.1508 0.065892 -0.26299 
contra -0.058568 0.14748 0.65952 0.26472 -0.61202 0.24999 0.31474 0.15019 -0.066113 0.2193 -0.11888 -0.69534 -0.51892 -0.20572 -0.066632 
origem -0.36068 -0.22603 -0.3734 0.79288 0.1101 0.55137 0.049771 -0.06047 -0.2576 0.022045 -0.12255 -0.22979 -0.028366 -0.30695 -0.39356 
antes -0.12152 0.39303 0.20078 0.66403 -0.18647 0.18657 0.29698 0.46332 -0.071532 0.051811 0.099173 -0.17447 0.12315 -0.038369 -0.33591 
11 -0.070603 0.38995 0.48547 -0.70078 0.69692 -0.13226 0.40845 0.044156 -0.80019 0.39344 0.47677 -0.018295 -0.2509 0.18088 -0.53962 
lisboa 0.0038803 0.38832 -0.33894 -0.41046 -0.26689 0.81321 0.38955 -0.15031 0.44148 0.36433 0.50361 -0.046704 -0.012675 -0.24028 -0.234 
central 0.55722 -0.47039 -0.22698 -0.29077 0.51686 0.49476 -0.062911 0.41514 0.66561 0.47192 -0.16603 -0.089464 -0.36419 0.046776 -0.60195 
menos -0.26542 -0.0158 0.5159 0.68085 -0.1068 0.20807 0.13937 0.15995 -0.29509 0.30742 -0.069917 0.18544 -0.29401 0.58297 -0.19303 
espanhol 0.56593 0.12787 -0.031172 0.15026 0.68964 0.77853 -0.2082 0.33084 -0.17458 -0.31353 0.27102 -0.04506 0.34278 -0.44305 -0.36775 
vários 0.11872 0.0045551 -0.015429 0.46379 -0.36732 0.59863 -0.061101 -0.30553 -0.33368 0.29012 -0.11471 -0.19681 -0.5732 -0.073305 -0.099106 
grupo -0.015767 -0.30867 0.045591 0.6318 0.214 0.42011 -0.048202 0.014758 -0.067219 0.17054 0.28457 0.022955 -0.20974 -0.16129 -0.1534 
vida -0.5462 -0.22295 0.067746 0.19393 -0.57315 0.37568 0.34395 -0.27616 -0.13229 -0.23173 0.11708 -0.31433 -0.29584 0.44032 -0.27188 
2018 0.1499 0.65413 0.51965 -0.84071 1.0821 -0.17649 0.11126 0.45406 -0.9837 0.4671 0.9582 -0.76171 -0.1661 0.28294 -0.33416 
área -0.10569 -0.32997 0.066787 0.18459 0.10898 0.37632 0.010265 0.091904 0.43391 0.62671 0.096279 0.38933 -0.16933 0.71002 -0.88243 
cópia 0.14397 0.85718 0.44805 -1.3092 1.3527 -0.34715 0.073576 0.23504 -1.7499 0.69295 0.91884 -0.95389 -0.18615 0.18175 -0.70238 
outro 0.092643 -0.084354 0.14404 0.71773 -0.33846 0.10128 0.27867 0.27465 -0.040447 0.26131 0.24085 -0.34508 0.17758 0.39045 -0.16192 
13 -0.085923 0.59168 0.5125 -0.6298 0.69789 0.0092493 0.36681 0.14273 -0.86752 0.46101 0.5856 -0.072386 -0.28169 0.078245 -0.27701 
ilha 0.31537 -0.73206 0.076173 0.15804 -0.3643 0.40195 0.069004 0.28187 0.51798 0.99588 0.25657 0.18593 -0.04539 -0.69409 -0.86294 
pp 0.41343 0.51741 -1.3479 -0.85966 0.48699 -0.086856 1.5099 0.32001 -0.11402 0.0076635 0.59896 0.5164 -0.91351 -0.33548 -0.12122 
principalmente 0.075782 -0.32925 -0.011835 0.40945 -0.12068 0.54277 -0.24385 -0.20799 -0.12257 0.26554 -0.29491 -0.061206 -0.44623 0.17548 -0.64886 
14 -0.1584 0.37399 0.50035 -0.64248 0.74263 -0.096634 0.33154 0.15389 -0.68155 0.38354 0.54577 -0.18784 -0.34525 0.19169 -0.50635 
30 -0.10502 0.41465 0.51526 -0.59274 0.56682 -0.13512 0.36835 0.10153 -0.75016 0.48803 0.28981 -0.085993 -0.29521 0.1975 -0.54093 
arquivada 0.20759 1.0258 0.074137 -1.3557 1.6434 -0.36974 -0.18629 0.39979 -1.9534 1.0435 1.1444 -1.1952 -0.11339 0.26542 -0.81924 
21 0.19805 0.45585 0.51079 -0.76069 0.75084 -0.051305 0.13868 0.25231 -0.8552 0.42189 0.62424 -0.35496 -0.13058 0.066418 -0.44474 
capital -0.025218 -0.11887 0.36614 -0.22207 -0.007152 0.49101 0.059943 0.25119 0.61825 0.4914 0.16813 -0.0066302 -0.072787 0.039334 -0.69065 
todo -0.14007 -0.16378 0.11495 0.34054 -0.15234 0.29685 0.10467 0.0059552 0.0051803 0.18966 -0.0092124 -0.26019 -0.23453 0.41973 -0.31776 
federal 0.16047 0.14335 0.5426 -0.40981 0.43426 0.70348 0.073237 0.16837 0.66601 0.069376 0.47247 0.08707 -0.34823 0.64849 -0.051999 
ocidental 0.024064 -0.49041 -0.40001 0.39653 0.2635 0.64864 -0.18863 0.30699 0.43269 0.61303 -0.26322 -0.14522 -0.33862 -0.33767 -0.63695 
18 0.051867 0.54296 0.59662 -0.64784 0.60401 -0.036883 0.057138 0.22676 -0.54682 0.49305 0.41456 -0.36296 -0.41912 0.14384 -0.55416 
dia -0.25978 0.29973 0.7966 -0.22961 -0.14839 0.00027003 0.14529 0.10482 -0.46093 0.37839 0.44192 -0.45396 0.10234 0.20348 -0.4265 
25 -0.11101 0.49604 0.56039 -0.77766 0.65394 0.033553 0.25825 0.20402 -0.66724 0.32974 0.45385 -0.13427 -0.17078 0.17461 -0.53711 
várias 0.2846 0.12026 -0.21217 0.51303 -0.30694 0.65138 -0.05586 -0.17168 -0.26308 0.2844 -0.33703 -0.12911 -0.52444 -0.0079499 -0.12418 
início -0.80405 0.37112 -0.21128 0.25617 -0.15355 0.29523 0.11949 0.055155 0.29599 0.068722 -0.12116 -0.67177 -0.31629 -0.26472 -0.84171 
26 0.058234 0.60707 0.64832 -0.72837 0.78858 -0.11977 0.41496 0.33579 -0.64962 0.31292 0.42026 -0.23975 -0.177 0.12403 -0.47095 
europeia -0.03134 -0.03302 0.1439 0.029843 0.12996 0.43018 -0.46531 0.29968 0.2535 0.13562 0.31711 -0.78746 -0.99463 0.15559 -0.25955 
dialetos 0.42413 -0.32458 -0.25252 1.2119 0.788 0.85885 -0.64902 -0.08597 -0.32642 -0.16058 0.21626 0.23698 0.14191 -0.35325 -0.39181 
centro 0.23433 -0.28516 -0.26187 -0.46633 -0.047727 0.67133 0.030421 -0.15763 0.699 0.23421 0.15681 -0.066719 -0.11286 0.29405 -0.65761 
apesar -0.080315 -0.047039 0.058632 0.47759 -0.33159 0.42531 -0.0052768 -0.0040196 0.059043 0.065358 -0.12045 -0.36829 -0.38014 0.20985 -0.19485 
mundial -0.32483 -0.10418 0.28302 -0.4958 -0.19023 0.1219 -0.13144 -0.0546 0.24159 -0.0081903 0.33166 -0.92769 -0.81107 0.41334 -0.71969 
22 0.11809 0.51166 0.44754 -0.73479 0.6232 -0.10555 0.19442 0.20326 -0.74036 0.51062 0.5603 -0.39244 -0.31135 -0.035759 -0.49452 
frança -0.035883 -0.28318 0.2396 0.22798 -0.20136 0.48296 -0.073164 0.30336 0.48493 0.65466 0.069567 -0.27351 -0.59808 -0.76558 -0.5396 
instituto -0.0172 0.54112 -0.43179 -0.88188 0.45139 0.90261 0.047085 -0.42628 0.28015 -0.3443 0.87201 -0.026085 -0.15706 0.72789 -0.30734 
16 0.10389 0.48904 0.52336 -0.70756 0.73768 -0.049913 0.24141 0.16025 -0.7016 0.42429 0.50641 -0.36857 -0.37412 -0.0067107 -0.38758 
29 0.144 0.53066 0.23535 -0.95958 0.65568 -0.054234 0.42836 0.38168 -0.77526 0.36578 0.525 -0.39575 -0.10993 0.17911 -0.45854 
poder -0.35958 0.3722 0.7544 0.36762 -0.36043 0.33257 0.35853 0.40691 0.81237 0.14156 -0.14609 -0.52159 -0.63464 0.29494 0.17841 
principais 0.40376 -0.13694 -0.071223 0.12897 -0.42084 0.66219 -0.28705 -0.47476 -0.12368 0.23769 -0.23134 0.13252 -0.69466 0.30536 -0.51527 
edição 0.13438 0.22192 -0.46734 0.37896 -0.39237 0.005769 0.7174 0.36041 -0.21671 0.69996 0.70914 -0.16451 0.33064 0.63252 0.31346 
17 0.09789 0.3874 0.53978 -0.76655 0.75383 -0.0014608 0.21998 0.20064 -0.75606 0.39453 0.58354 -0.17915 -0.50402 0.062285 -0.36767 
ortográfico 0.27249 0.68856 -0.061124 0.088852 0.2073 1.0607 -0.2642 0.72848 -0.046197 0.22144 0.81504 -0.44262 0.034772 0.067169 0.72745 
costa 0.50125 -0.40065 0.066907 0.16553 -0.10109 0.17168 0.032234 -0.14208 0.53282 0.96088 0.81204 0.14972 0.28282 -0.61308 -1.1846 
possui 0.092442 -0.31879 0.20108 0.36126 0.16268 0.47548 -0.10449 0.010456 0.18949 0.20165 0.16282 0.48044 -0.38443 0.7467 -0.45502 
comum -0.040533 -0.091282 -0.12041 0.74654 -0.012854 0.57552 -0.1899 0.26999 -0.17428 -0.16909 0.14967 -0.44282 0.0091678 0.28505 -0.040019 
geral -0.023942 0.23011 -0.060537 0.32462 -0.23051 0.38082 0.059007 0.13871 -0.015486 -0.082382 0.39456 -0.20436 -0.34615 0.38557 -0.07947 
comércio 0.14699 -0.13315 -0.19226 0.045971 -0.74619 0.23995 -0.15143 -0.087775 0.44075 0.62355 -0.19916 -0.67673 -0.76783 -0.15371 -0.85514 
final -0.50086 0.33879 -0.030468 0.43704 -0.048227 0.059252 0.22038 0.41318 -0.02018 -0.11095 0.082595 -0.48415 -0.029658 -0.088806 -0.81864 
» 0.6674 0.023801 0.20836 -0.78249 0.73018 0.029218 0.52087 0.28847 -0.63751 -0.14887 0.45986 -0.43588 -0.30348 -0.049608 -0.40606 
19 -0.12908 0.60389 0.57079 -0.61727 0.7118 -0.29936 0.17836 0.41371 -0.8726 0.26278 0.60527 -0.37815 -0.54817 0.037697 -0.5689 
nações 0.25989 0.17886 0.17515 -0.071233 -0.23535 0.44745 -0.77244 0.18345 0.064319 0.16159 0.24006 -0.80139 -1.3329 -0.04428 -0.23019 
m 0.53181 0.39849 0.11679 -0.25368 0.59082 0.096869 1.2615 0.2946 0.30362 -0.47115 0.19808 0.84715 -0.10224 -0.088537 -0.39735 
essa 0.090375 -0.042703 -0.14805 0.70702 -0.24607 0.18665 0.23046 0.40871 -0.018091 0.12726 0.021865 -0.50588 0.067977 0.36203 -0.29908 
base 0.091478 -0.040076 -0.12026 0.22041 -0.30685 0.44804 -0.074576 0.033542 0.055809 -0.14135 0.24593 -0.29095 -0.34416 0.25007 -0.19568 
diferentes 0.28378 0.19792 -0.19849 0.92516 -0.11859 0.69649 -0.18146 -0.22761 -0.61634 -0.071113 -0.10134 0.1861 -0.38621 0.26229 0.022685 
cidades 0.29174 0.1051 0.039162 0.10023 -0.16631 0.68238 -0.16935 -0.21436 0.012228 0.35044 -0.42129 0.53714 -0.4929 0.10345 -0.69584 
24 0.065139 0.63986 0.46617 -0.77554 0.82125 -0.18774 0.28813 0.30649 -0.79694 0.37072 0.56017 -0.25546 -0.38279 0.19693 -0.38719 
palavra -0.066627 0.18078 -0.10805 1.1948 0.27451 0.31072 0.21492 0.6933 -0.083981 -0.43453 0.42927 -0.21115 0.63148 0.20571 -0.23997 
nomes 0.37977 0.67417 -0.93423 0.5507 0.086029 0.37675 -0.075873 -0.62143 -1.4196 0.69075 0.62884 -0.086139 -0.35509 -0.62128 0.31289 
hoje -0.13483 -0.29853 0.12144 0.37666 0.10931 0.56656 0.0032071 -0.13392 -0.060973 0.46965 0.035065 -0.02987 -0.0027004 -0.039892 -0.26367 
longo -0.15437 -0.011067 -0.12924 0.30584 -0.13054 0.26869 0.16462 -0.064994 0.33499 0.47917 -0.32435 -0.20965 -0.029083 0.099478 -0.87022 
quais 0.19163 0.1157 0.097845 0.62952 -0.29697 0.54354 0.010786 -0.27612 -0.50462 0.21405 -0.27829 0.42094 -0.56977 0.0908 -0.13245 
falantes -0.16745 -0.29125 0.18396 1.0552 0.51784 0.59922 -0.37672 0.13402 -0.5435 -0.01359 0.28974 0.49308 -0.23281 -0.10362 -0.34256 
habitantes -0.74437 -0.048163 0.45455 0.33899 0.38761 0.25584 0.23394 -0.041706 -0.28424 0.51972 -0.05476 0.84798 -0.52819 0.36924 -0.76042 
terra 0.16195 -0.31445 0.29578 0.12493 -0.36852 0.077897 0.19854 0.0041832 -0.0023879 0.49865 0.05359 -0.090055 0.1416 0.17869 -0.81857 
joão -0.13203 0.18986 0.18079 -0.098914 -0.81143 0.63963 0.93531 -0.14672 0.61138 0.4285 0.68974 0.094017 0.44536 -0.92786 -0.18381 
ilhas 0.80947 -0.42277 -0.05341 0.27176 -0.4792 0.59677 -0.34095 0.35232 0.32391 0.89064 -0.035679 0.44121 -0.47479 -0.78758 -0.82802 
28 0.17085 0.53478 0.45486 -0.83558 0.66553 -0.13548 0.39757 0.2997 -0.60314 0.38628 0.46135 -0.19481 -0.3917 0.18815 -0.35227 
quase -0.26483 -0.084619 0.33157 0.59629 0.068182 0.23994 -0.013603 -0.013506 -0.15381 0.10342 -0.078267 0.047822 -0.2761 0.27999 -0.59237 
organização 0.31343 0.10271 0.09657 -0.18391 -0.27532 0.2918 -0.44518 0.21203 0.29429 0.023253 0.31177 -0.88457 -1.1138 0.30158 -0.2218 
economia -0.33798 -0.23263 0.18215 -0.24122 -0.18396 0.40032 -0.20951 0.046949 0.4183 -0.021742 -0.14874 -0.62673 -0.69464 0.77116 -0.72835 
n 0.42895 1.1612 -0.346 -0.25819 0.91392 0.29088 0.97236 0.43024 0.36127 -0.43605 0.44672 0.61024 -0.64207 -0.17772 -0.058769 
igreja -0.80277 -0.33973 -0.065075 0.042454 -0.21882 0.91676 0.59697 -0.29942 0.061338 0.19951 -0.035672 -0.25035 0.027414 -0.16097 0.16619 
devido -0.20963 -0.087032 -0.12241 0.40692 -0.33082 0.3347 0.04699 0.14833 0.05319 0.1044 -0.3343 -0.46386 -0.24351 0.38924 -0.58232 
principal 0.16124 -0.35552 0.039699 0.07779 -0.33484 0.29033 0.08421 -0.011736 0.2395 0.3116 0.22805 -0.29858 -0.11342 0.55583 -0.35389 
escrita -0.16464 0.021315 -0.43719 0.79914 0.266 0.5763 0.10551 0.20692 -0.13949 -0.23229 0.13709 -0.41329 0.17837 0.0079073 -0.023453 
existem 0.39582 -0.00584 -0.14731 0.78647 -0.12434 0.67856 -0.19216 -0.057165 -0.58843 0.14718 -0.14677 0.39097 -0.33217 0.25086 -0.093567 
áreas 0.44501 -0.095249 -0.16712 0.29944 -0.19682 0.72123 -0.27866 -0.046059 0.09031 0.22808 -0.49081 0.34706 -0.58112 0.48006 -0.63225 
lista 0.8614 0.53321 -0.73376 0.45384 -0.20031 -0.051151 -0.073426 -0.11515 -0.96467 1.3072 0.70651 -0.29003 -0.57071 0.12899 0.41437 
2001 0.11893 0.041844 0.27694 -0.45993 0.55998 -0.022866 0.58536 0.2717 -0.18309 -0.17524 0.39283 0.012048 -0.63689 -0.043055 -0.35475 
2004 0.18804 0.095044 0.27704 -0.62497 0.43296 -0.023149 0.59762 0.36631 -0.22077 -0.16778 0.48969 -0.070513 -0.66848 -0.15198 -0.31214 
fim -0.19974 0.46279 -0.044724 0.40503 -0.32984 0.088777 0.1886 0.32769 0.31018 0.16548 -0.091313 -0.64781 -0.16402 -0.077437 -0.52666 
membros 0.024629 0.45848 0.79977 0.52795 -0.24864 0.49313 -0.31355 -0.076042 0.032859 0.14337 0.1842 0.020318 -1.2214 0.013788 0.22836 
península -0.30172 -0.052141 -0.58591 0.62842 0.37171 0.59044 0.32297 0.30386 0.45123 0.90014 -0.80335 -0.21049 -0.023069 -0.65268 -0.72607 
deve 0.14394 0.060445 0.056027 0.96438 -0.55571 0.034254 0.43245 0.4984 -0.12068 0.22127 0.43028 -0.48294 0.19493 0.84165 0.40768 
índia -0.075528 -0.23298 0.16141 -0.086057 -0.44893 0.32225 -0.010764 0.19214 0.44116 0.70784 0.19155 -0.26569 -0.45746 -0.40355 -0.63913 
" 0.5027 -0.11577 0.3286 0.37999 0.039705 -0.16645 0.77517 0.38476 -0.30268 -0.29816 0.31487 -0.22448 0.27675 -0.0097654 -0.10739 
eles 0.21463 -0.014365 0.20737 0.66709 -0.51088 0.32938 0.12981 -0.18773 -0.3716 0.28554 -0.1673 -0.052669 -0.34241 -0.11089 -0.15477 
porém -0.16373 0.056218 0.18092 0.61007 -0.21521 0.32355 0.14507 0.20994 0.089044 0.16482 0.05541 -0.25598 -0.0064324 0.058294 -0.39338 
ajuda -0.035566 0.87373 -0.87214 0.25026 -0.57401 -0.45827 0.81799 0.17364 -0.029768 1.0073 0.66499 -0.27936 -0.63065 0.37437 -0.15075 
esse -0.019543 -0.043681 0.18679 0.82856 -0.32523 0.072414 0.16781 0.53563 -0.059972 0.055338 0.19527 -0.34432 0.011126 0.48764 -0.23297 
independência -0.43033 0.29374 0.35643 0.061012 -0.30667 0.26987 -0.074593 0.59808 0.22718 0.51432 0.062428 -0.89335 -0.63311 -0.5668 -0.34872 
povos -0.29183 -0.062787 -0.46927 0.77647 0.044022 0.57543 -0.0027996 -0.27112 -0.32701 0.39616 -0.63203 -0.23825 -0.54906 -0.6933 -0.45914 
] 0.44412 0.15072 -1.5432 0.21988 0.80954 0.26155 0.7648 -0.80736 0.47226 0.35883 0.43833 0.35866 -0.23461 0.13216 -0.085958 
outra 0.045142 -0.13563 -0.027327 0.71647 -0.30226 0.23039 0.2798 0.46345 -0.060703 0.14198 0.24592 -0.34102 0.10613 0.34165 0.021426 
época -0.51592 0.0091574 -0.22736 0.25175 -0.16234 0.49478 0.26463 -0.10331 0.11866 0.2566 -0.021364 -0.53892 -0.0066263 -0.19943 -0.48071 
social -0.1089 -0.12427 -0.094147 -0.35251 -0.03793 0.20667 0.27943 0.12618 0.14427 -0.59306 0.072542 -0.7618 -0.91304 0.50378 -0.17137 
idioma -0.21034 -0.5581 0.004711 0.91133 0.59214 0.75581 -0.30076 0.2222 -0.21651 0.011354 0.33778 -0.17355 0.0017174 -0.045378 0.022034 
processo -0.11632 0.2685 -0.071208 0.34786 -0.45905 0.33525 0.1474 0.47247 0.36865 0.20725 -0.14554 -0.7307 -0.21858 0.37181 -0.11073 
world 0.75659 -0.65937 -0.11424 -0.84771 0.85161 -0.43666 1.1434 0.49822 -0.31315 -0.46897 0.19235 -0.29583 -1.211 0.096288 -0.34373 
josé 0.40354 0.13784 0.26924 -0.44111 -0.56242 0.93658 0.76101 -0.64095 0.28127 -0.12532 1.1417 0.064609 0.57933 -0.81475 -0.010457 
rei -0.52682 0.31768 0.5084 0.27803 -0.69503 0.45911 0.78478 0.2522 0.72127 0.21503 0.20815 -0.29384 -0.13201 -0.89459 -0.17128 
quatro 0.067384 0.31307 0.58683 0.3616 -0.19254 0.46159 -0.090778 -0.20483 0.062692 0.1969 0.15983 0.26682 -0.62752 0.098306 -0.37528 
/ 0.71167 -0.10571 -0.075116 -0.027477 0.70101 0.55853 0.67395 0.33486 -0.31796 -0.59411 0.46026 0.20415 1.0429 -0.1438 -0.41605 
brasileira 0.012281 0.16809 -0.38203 -0.2815 0.050863 0.799 -0.11977 -0.20414 -0.011812 -0.049112 0.63369 -0.34783 0.081904 0.28803 -0.23837 
new 0.58723 -0.76592 -0.038573 -0.63605 0.54859 -0.42387 1.495 0.52648 -0.57651 -0.31936 0.22472 0.11033 -1.1035 -0.54101 0.032995 
relação -0.32181 -0.029046 0.19729 0.58982 -0.197 0.35898 0.0033935 0.15944 -0.27298 -0.10558 -0.043321 -0.22753 -0.36373 0.46901 -0.18763 
atualmente -0.008492 -0.21165 0.24058 0.24912 0.07174 0.65601 -0.20348 0.14005 0.16324 0.28335 0.14607 0.081926 -0.41235 0.26848 -0.22586 
latim -0.31188 -0.10513 -0.42927 1.0754 0.86489 0.7623 0.22482 0.24492 -0.15249 -0.39575 0.013134 -0.1485 0.39309 -0.35813 -0.17902 
total -0.42431 -0.086725 0.43491 0.14488 0.1871 0.11109 0.15938 0.012351 -0.11434 0.36539 0.14961 0.49787 -0.78942 0.64811 -0.64845 
unido -0.16398 -0.07273 0.61138 0.22473 -0.038871 0.27271 -0.22775 0.6133 0.52602 0.67581 0.23966 -0.2912 -1.135 -0.4123 -0.15444 
numa -0.10263 -0.033843 -0.094752 0.54118 -0.28675 0.29035 0.28676 0.38959 0.078704 0.31712 0.14247 -0.46103 0.02284 0.20781 -0.24272 
meio 0.1604 0.073352 0.1924 0.078243 -0.45873 0.35153 -0.023457 -0.014925 0.14346 -0.0089783 0.047611 -0.43095 -0.35151 0.51967 -0.3315 
falado -0.10705 -0.68282 0.17526 0.82949 0.82464 0.74887 -0.50723 0.34192 -0.065491 0.058898 0.34327 0.21112 0.21608 -0.33711 -0.58303 
influência -0.30451 -0.31795 -0.3983 0.53114 0.035571 0.62809 -0.16506 -0.017883 0.081262 0.13195 -0.25278 -0.73916 -0.059088 -0.16127 -0.61291 
espanha -0.017992 -0.069127 0.1495 0.36279 -0.26019 0.48266 -0.072985 0.41158 0.49034 0.67827 0.079915 -0.24703 -0.40389 -0.85941 -0.51962 
educação -0.19091 0.19233 0.15266 -0.2361 -0.089609 0.70104 -0.13047 -0.33689 0.075394 -0.19765 0.31059 -0.39803 -0.68609 0.96435 0.16393 
sempre 0.19401 0.15278 0.090611 0.90664 -0.32587 0.2617 0.16795 0.19859 -0.32252 -0.1683 0.29097 -0.23225 0.14429 0.3497 -0.076759 
média -0.74246 0.15578 -0.066028 0.22231 0.24987 0.15019 0.18946 0.064216 0.0070349 0.040555 -0.3126 0.13064 -0.32005 0.95596 -1.0962 
cultural -0.10696 -0.29267 -0.48282 -0.36081 0.10017 0.49343 0.1721 -0.13683 0.057567 -0.21989 0.076096 -0.71226 -0.31345 0.34136 -0.35411 
importante -0.020373 -0.33942 -0.15398 0.27468 -0.26718 0.43063 0.032712 0.042217 0.26549 0.041511 0.015228 -0.59205 0.036713 0.31978 -0.38849 
toda -0.3203 -0.14989 -0.087944 0.42936 -0.13345 0.35428 0.18885 0.27308 0.18982 0.30544 -0.018254 -0.33874 -0.079363 0.17992 -0.40398 
pouco -0.27401 -0.094532 0.15914 0.51342 -0.24509 0.17054 0.28543 0.1873 0.11118 0.40404 -0.090455 -0.093325 -0.11118 0.21865 -0.51124 
tendo -0.18406 -0.070044 0.31276 0.29442 -0.262 0.34718 0.093676 0.1144 0.079456 0.32748 0.27597 -0.17637 -0.12691 0.13448 -0.27922 
grupos 0.091678 0.091303 -0.020569 0.78479 -0.0085809 0.65204 -0.27907 -0.30792 -0.50388 0.064409 -0.29048 0.12974 -0.714 -0.19098 -0.20517 
cabo 0.33017 -0.36722 0.27982 0.19086 -0.50836 0.47653 -0.36865 0.54386 -0.13008 0.74851 0.82382 -0.056686 0.20935 -0.7846 -0.77892 
pessoa -0.11338 0.062195 0.12283 0.83435 -0.47834 -0.030584 0.28034 0.37348 -0.13913 -0.43632 0.97479 -0.46779 0.3201 0.37684 -0.10209 
atual -0.19186 -0.24368 0.10322 0.19298 0.11025 0.61876 0.052765 0.23651 0.36931 0.49571 0.20356 0.021611 -0.087033 -0.19447 -0.37257 
casos 0.34225 0.48852 0.095795 1.0521 -0.49193 0.37706 -0.067108 0.37749 -0.43837 -0.40993 0.11232 0.019763 -0.13067 0.40541 0.10876 
ii -0.44206 0.25539 0.040577 -0.16728 -0.28274 0.44535 1.1249 0.26283 0.8489 0.11443 0.36373 -0.10812 -0.11231 -0.7637 -0.063584 
pelas 0.3179 0.06288 0.052008 0.4511 -0.30144 0.77976 -0.085661 -0.048591 -0.045568 0.16108 -0.43103 -0.083645 -0.54618 -0.12925 -0.31208 
2000 -0.205 -0.032341 0.24906 -0.54407 0.28573 -0.096132 0.69958 0.060928 -0.13801 -0.23074 0.4602 0.084333 -0.7251 0.011571 -0.45892 
y 1.3771 0.82112 -0.18618 -0.66383 0.46778 1.0179 0.48874 0.087903 0.04432 -0.90412 -0.16993 0.0075284 0.32677 -0.48203 -0.5395 
idade -1.1745 0.27902 -0.099604 0.31457 0.069103 0.29692 0.44273 -0.11863 -0.19605 0.11177 -0.27729 -0.044796 -0.15293 0.28291 -0.73478 
incluindo 0.33284 -0.087759 0.07279 0.34387 -0.26644 0.46201 -0.1455 -0.16816 -0.14466 0.34073 0.011715 0.063994 -0.82008 0.05952 -0.18837 
direitos 0.37889 0.45549 0.10822 0.36758 -0.80563 0.35445 -0.023301 -0.28057 -0.10349 -0.067924 -0.156 -1.0396 -1.1448 0.10244 0.43765 
conselho 0.18674 0.5131 0.69053 0.092815 -0.25881 0.58222 -0.35752 0.49326 0.67348 0.019538 0.66125 -0.65779 -1.0329 0.32818 0.51258 
etc 0.49689 0.010723 -0.23148 0.6565 -0.31165 0.38473 0.15452 0.0070814 -0.32254 -0.26252 0.3535 0.08216 0.09276 0.10459 -0.086138 
tal -0.017479 -0.11307 -0.026293 0.72122 -0.27909 0.21623 0.18067 0.23842 -0.22086 -0.012907 0.12107 -0.39117 -0.065808 0.070312 -0.12109 
trabalho -0.015069 -0.015778 0.10051 0.19993 -0.45042 0.26406 0.17044 -0.16203 -0.17759 -0.032049 0.042045 -0.46518 -0.395 0.48778 -0.019371 
j 0.56816 0.4622 0.16447 -0.44272 0.66355 0.21746 1.5202 0.42124 0.30119 -1.2394 0.40266 0.39304 -0.25123 -0.42884 -0.082776 
letras 0.30848 0.94617 -0.74993 0.22784 0.2155 0.97236 0.037493 0.15375 -0.16049 -0.56907 0.58633 0.40681 -0.089663 0.061205 0.16805 
oriental 0.17443 -0.60601 -0.2137 0.35346 0.32458 0.66843 -0.25455 0.40373 0.57846 0.59348 -0.20373 -0.031214 -0.39349 -0.49933 -0.71212 
fazer 0.38767 0.21726 0.013007 0.7 -0.74146 0.14818 0.35818 0.33953 -0.14078 0.36499 0.080681 -0.45994 0.0019265 0.44696 0.29456 
tratado 0.32522 0.24988 0.51237 0.051118 -0.42127 0.34665 -0.10219 0.68935 0.66732 0.43999 0.32208 -0.61088 -0.54097 -0.39727 -0.15183 
macau -0.097864 -0.11325 0.29709 0.025342 -0.026414 0.53941 -0.1794 0.38233 0.31637 0.41922 0.27983 -0.46743 -0.45393 -0.21401 -0.26024 
on 0.97798 -0.79056 0.31582 -0.55098 0.82644 -0.66675 1.4494 0.75786 -0.77239 -0.49557 -0.0049695 -0.43973 -0.97331 -0.36313 -0.34868 
antigo -0.4268 -0.70383 0.17884 0.7874 0.7501 0.71289 0.27284 -0.084255 0.39842 -0.029131 0.37683 -0.28326 0.21752 -0.39733 -0.11667 
dialeto 0.12537 -0.44975 -0.17581 0.98015 0.5062 0.59229 -0.36683 0.040083 -0.0098605 -0.1858 0.65962 -0.10683 0.81789 -0.20093 -0.82237 
séculos -0.74535 0.31634 -0.60797 0.35826 0.079909 0.63869 0.28545 -0.16176 0.057122 0.28417 -0.49401 -0.41573 -0.15728 -0.71518 -0.67113 
popular -0.1783 -0.31096 0.54452 -0.12945 -0.12424 0.4616 -0.073437 0.030738 0.32828 0.048946 0.35972 -0.56077 -0.49189 0.073607 -0.14882 
mar 0.66565 -0.33249 0.1336 0.37666 -0.31576 -0.037594 -0.0078463 0.37493 0.70169 1.1748 -0.31964 0.181 0.023482 -0.065932 -1.2339 
cinco -0.11989 0.32808 0.54968 0.32298 -0.05364 0.44047 -0.062163 -0.08398 -0.042176 0.28211 0.081936 0.30078 -0.67557 0.17863 -0.19077 
jesus -0.17885 -0.55056 -0.12288 -0.19873 0.0024004 -0.21366 1.862 -0.32995 -0.3039 -0.57529 0.25656 -0.12447 -0.19821 -0.44611 0.12104 
xix -0.91456 0.15786 -0.62644 0.18818 -0.043171 0.54646 0.095744 -0.037032 0.1012 -0.018374 -0.22707 -0.85419 -0.14288 -0.5094 -0.85107 
direito -0.052388 0.33635 0.30417 0.38127 -0.4053 0.47923 0.13826 0.022184 0.41449 0.042768 0.26781 -0.38884 -0.60209 0.33167 0.40239 
políticas 0.59064 0.45793 -0.15751 0.48029 -0.64591 0.68582 -0.067651 0.095699 -0.039269 0.009849 -0.49782 -0.44564 -0.82884 0.37037 0.47462 
angola 0.068757 -0.066442 0.12493 0.11396 -0.069728 0.59812 -0.41083 0.44693 -0.066354 0.4123 0.68246 -0.098051 -0.23538 -0.67343 -0.40683 
tanto 0.034345 -0.1764 -0.011831 0.72911 -0.21768 0.46757 -0.049063 0.042653 -0.22844 -0.12965 -0.025753 -0.3989 -0.25397 0.17841 -0.099691 
utc 0.79406 1.6947 1.151 0.078084 -0.19129 -0.85826 1.1892 0.83627 -1.9126 1.6932 0.65775 0.31157 0.87997 0.34858 0.37057 
partido -0.32733 0.16956 1.4578 0.035217 -0.36288 0.42713 0.10485 0.25678 0.6395 -0.034228 0.37292 -0.88143 -0.67222 -0.33369 0.11139 
autores 0.37763 0.36291 -1.0622 0.63238 -0.23534 0.17272 0.0039913 -0.54586 -1.1903 0.9093 0.48406 -0.50686 -0.43156 -0.69406 0.11866 
relações 0.1705 0.33502 0.1575 -0.017434 -0.31964 0.90283 -0.34286 0.067233 0.075634 0.090686 -0.25779 -0.55818 -1.0843 -0.093863 0.2504 
2002 0.14399 0.10455 0.24405 -0.49597 0.34232 -0.12834 0.65355 0.42561 -0.13095 -0.16967 0.43549 -0.19765 -0.6434 -0.22859 -0.27389 
década -0.74954 0.26608 0.026384 -0.20677 -0.22079 0.37802 0.22831 0.076304 0.31748 0.073415 -0.27672 -0.77082 -0.51025 0.047543 -0.81408 
isto -0.020885 -0.05112 0.040532 0.81946 -0.34703 0.16604 0.21143 0.31136 -0.17124 0.016133 0.11685 -0.34212 0.054246 0.26004 -0.028785 
alemanha -0.14232 -0.49115 0.52462 0.28477 0.22046 0.57559 -0.29775 0.0039619 0.39961 0.62421 0.052745 -0.28195 -0.74063 -0.51325 -0.34724 
vogais 0.43266 0.95048 -0.20568 1.5535 0.097585 0.69184 -0.29817 0.39597 -0.15886 -1.198 -0.17374 0.45149 0.035405 0.18222 -0.75392 
maiores 0.05025 -0.12168 0.23512 0.17897 -0.27865 0.43022 -0.19012 -0.47169 -0.14527 0.21845 -0.20146 0.15932 -0.78625 0.40384 -0.62551 
criação 0.1308 0.11908 -0.14461 -0.06664 -0.57067 0.46135 -0.00093832 0.069403 0.15953 0.16837 0.10883 -0.48827 -0.43878 0.37157 -0.027482 
2003 0.30668 0.054186 0.15527 -0.59885 0.36289 -0.095136 0.82751 0.25142 -0.24777 -0.25443 0.34136 -0.11941 -0.58251 -0.079567 -0.25941 
conhecido -0.16817 -0.3482 0.28801 0.25455 -0.079236 0.39182 0.21786 -0.043248 0.30856 -0.023009 0.41262 -0.43883 0.20374 -0.23798 -0.33588 
argentina 0.61763 -0.4217 0.45352 -0.11151 0.01984 0.5089 -0.48913 0.088973 0.38863 0.29575 0.13402 -0.27574 -0.42735 -0.11665 -0.63988 
num -0.13978 0.014411 0.13137 0.53871 -0.34293 0.24739 0.39917 0.2702 0.029875 0.24826 0.16708 -0.39179 0.075049 0.33735 -0.17983 
ensino -0.30396 0.038219 -0.090791 0.17076 0.049038 0.75524 -0.15369 -0.49466 0.011904 -0.174 0.54806 0.074157 -0.76304 0.87391 0.10094 
31 0.26166 0.62675 0.57035 -0.97173 0.62019 -0.072479 0.37102 0.20334 -0.71672 0.61044 0.49169 -0.34288 -0.36087 -0.0065151 -0.32601 
leste 0.40754 -0.71096 0.12668 0.44674 0.13027 0.42833 -0.28597 0.46049 0.61892 1.0308 -0.2616 0.20395 -0.075816 -0.32336 -0.96237 
domínio -0.27365 0.12688 -0.35143 0.43611 -0.1727 0.37921 0.30103 0.37389 0.35981 0.67982 -0.26053 -0.5551 -0.23639 -0.16974 -0.19901 
local 0.0095583 -0.17412 0.12863 0.18175 -0.14093 0.39602 0.26715 -0.020762 0.18248 0.28778 0.01609 -0.22551 -0.082846 0.36752 -0.17164 
especialmente 0.089545 -0.34603 -0.15073 0.42563 -0.17448 0.55982 -0.17518 -0.13232 -0.061529 0.19344 -0.34031 -0.2203 -0.32596 0.1889 -0.47254 
nível 0.03866 0.0029656 0.18799 0.43361 -0.098993 0.29563 0.034861 -0.15033 0.22275 0.04263 0.22298 -0.033169 -0.41251 0.91125 -0.20469 
mesma -0.079982 -0.075602 -0.17827 0.83304 -0.23561 0.30919 0.20314 0.33332 -0.16866 -0.086814 0.23401 -0.20559 0.1533 0.23287 -0.12781 
& 0.7263 0.031981 -0.541 -0.72974 0.31616 -0.18791 1.6584 0.25759 -0.048326 -0.4995 0.45481 0.20626 -0.67336 -0.64863 -0.22903 
ponto 0.097692 -0.46045 0.054309 0.61103 -0.076286 0.19472 0.13056 0.35013 0.12431 0.3282 0.20028 -0.30986 0.40164 0.43603 -0.47026 
livre 0.32618 -0.36211 -0.14992 0.082939 -0.66885 0.37561 0.06614 0.24368 0.089025 0.23116 0.2948 -0.67296 -0.33275 0.71971 0.27658 
europeu 0.27841 -0.083391 0.10473 0.38742 0.17363 0.47164 -0.38501 0.29467 0.34836 -0.11303 0.51714 -0.46225 -0.26534 0.01295 -0.28449 
você 0.65455 -0.17652 0.052535 1.0142 -0.86124 -0.10202 0.61449 0.44281 -0.37508 0.24247 0.40531 -0.56245 0.60242 0.76629 0.38789 
geralmente 0.087085 -0.034888 0.088302 0.89024 -0.24035 0.41201 -0.035056 0.090584 -0.17799 -0.18098 0.003623 0.033374 -0.21629 0.31802 -0.25003 
history 0.51352 -0.67829 -0.65399 -0.73717 0.54069 -0.38214 1.9161 0.62641 -0.1989 -0.74682 0.043267 0.1819 -1.1626 -0.39449 -0.15733 
tinha -0.50093 0.11308 0.49859 0.35877 -0.30493 0.079291 0.44233 0.022684 0.20086 0.48219 0.1703 -0.14429 -0.31639 0.15848 -0.38651 
estes 0.035198 0.18024 0.091398 0.62409 -0.52443 0.56151 0.06274 -0.10445 -0.37335 0.26486 -0.34628 0.04217 -0.61552 -0.11609 -0.13754 
província -0.18319 -0.032826 0.16414 0.23528 0.23199 0.72194 -0.034782 0.62231 0.71156 0.59623 -0.18616 -0.039851 -0.004154 -0.39633 -0.62386 
saúde -0.068837 0.022092 0.31472 -0.38048 -0.47351 0.7232 -0.035057 -0.65993 0.11335 -0.17771 -0.0070639 -0.24035 -1.0739 1.1468 0.04538 
teve -0.53869 -0.01546 0.22126 0.15005 -0.2282 0.31347 0.26559 0.074 0.34716 0.27655 0.044255 -0.76172 -0.24225 0.094961 -0.43057 
1990 -0.22389 0.40252 0.15111 -0.29392 0.12399 0.33877 0.044416 0.50754 0.13817 -0.05345 0.49433 -0.43966 -0.58924 -0.078159 -0.12031 
lado 0.19662 -0.18908 0.055002 0.65174 -0.11691 0.17955 0.02401 0.14428 0.017485 0.32009 0.20498 -0.16008 0.075486 0.20551 -0.31121 
en 1.7955 0.57124 0.17679 -0.49076 0.37819 0.65657 0.4759 0.39317 -0.10228 -0.70352 -0.20591 -0.28322 0.72475 -0.46668 -0.62662 
usado -0.16152 -0.12798 -0.1718 1.0079 0.12176 0.34114 -0.12067 0.37312 -0.31954 -0.14402 0.33697 -0.38397 0.17247 0.10376 -0.177 
estas 0.45983 0.20705 -0.17898 0.65242 -0.43298 0.55993 -0.15686 0.17376 -0.29677 0.12082 -0.41536 0.083015 -0.5892 0.11016 -0.16985 
militar -0.17609 0.18544 0.30012 -0.1982 -0.46918 0.46025 0.25819 0.0095198 0.55826 0.029542 0.014295 -0.80825 -0.61124 0.12364 -0.21164 
porto 0.46852 0.060363 -0.07595 -0.43531 -0.35608 0.61737 0.13216 0.11362 0.53764 0.75683 0.55449 0.1264 0.20978 -0.40037 -0.62772 
tais 0.53902 0.051024 -0.21358 0.563 -0.58097 0.58296 0.068899 -0.3715 -0.46002 -0.071872 -0.23731 -0.036238 -0.3218 0.092104 0.044211 
editores 0.61093 0.28394 -0.25011 0.9219 -0.90814 0.037971 0.3399 0.011638 -0.76734 0.48539 0.049614 -0.30201 -0.2228 0.39665 0.59917 
link 1.387 0.71841 -1.9216 0.55458 0.4541 -0.24264 -0.12766 0.42266 -1.5825 2.2117 1.326 -0.73225 0.083265 -0.57985 0.73047 
japão -0.13162 -0.1572 0.43852 0.14128 -0.2731 0.27626 -0.12546 -0.031688 0.17802 0.60759 -0.033942 -0.47823 -0.71418 -0.34022 -0.61917 
projeto 0.3288 0.033883 0.081013 0.18351 -0.70317 0.13495 0.35852 0.13367 -0.020931 0.26999 0.38015 -0.5056 -0.073981 0.71205 0.27391 
família -0.46822 -0.043813 0.20971 0.69989 -0.014262 0.45644 0.22912 -0.13458 0.052976 -0.10664 0.39873 0.02343 -0.1874 -0.16414 -0.13297 
nem 0.11349 0.080098 0.19788 0.88456 -0.41595 0.2637 0.37022 0.18056 -0.47367 0.041064 0.093249 -0.17361 0.040598 0.36189 0.21067 
dentro 0.078108 -0.021245 -0.062764 0.52793 -0.13052 0.40356 -0.014157 0.27159 0.090766 0.12834 -0.070782 -0.2527 -0.25212 0.33318 -0.22299 
termo -0.30297 -0.20767 -0.14827 1.0484 0.27429 0.37386 0.14261 0.35001 -0.025792 -0.013643 0.38886 -0.45046 0.15427 -0.2174 -0.087258 
padrão -0.024024 -0.43322 -0.01795 1.1271 0.58556 0.58313 -0.19703 0.13416 -0.015895 -0.29361 0.57597 -0.15517 0.35008 0.2318 -0.077657 
formas 0.35001 0.25717 -0.29684 0.96211 -0.14676 0.62021 -0.14958 0.0099233 -0.44049 -0.49723 -0.1659 -0.08517 -0.082265 0.15342 -0.19121 
oeste 0.52613 -0.56345 0.0096275 0.26433 0.027589 0.44291 -0.21125 0.45261 0.7795 1.0884 -0.36145 0.30278 0.0036068 -0.30803 -1.1798 
pois -0.049901 0.03604 0.13277 0.68941 -0.46113 0.21719 0.25442 0.38732 -0.027118 0.081851 0.16915 -0.29512 0.043607 0.23293 -0.10313 
conta 0.16223 -0.067564 0.16107 0.46852 -0.50957 0.14369 0.26264 0.08921 -0.12736 0.34949 0.19611 -0.051805 -0.20524 0.74762 -0.0306 
g 0.33228 0.67692 0.1915 -0.33469 0.7343 0.5052 1.3533 0.65146 0.2926 -1.1925 0.41187 0.5599 -0.0066439 -0.29516 0.11789 
israel 0.26719 -0.39614 0.50369 -0.025371 0.50211 0.38814 0.039697 -0.16036 -0.097271 0.10647 0.0056209 -0.41601 -0.75303 -0.025033 0.22165 
edições 0.58384 0.44292 -0.24457 0.69906 -0.87813 0.18177 0.44711 0.23572 -0.56244 0.58488 0.097828 0.12719 0.032918 0.42614 0.46272 
produção 0.0014715 -0.29925 -0.18926 -0.21018 -0.7378 0.33229 0.034901 -0.57233 0.080482 -0.010017 -0.15152 -0.36196 -0.43494 0.98894 -0.8977 
lugar -0.10792 0.06097 0.22208 0.42121 -0.19463 0.18188 0.15957 0.13122 0.15928 0.21939 0.37807 -0.26212 -0.03072 0.28768 -0.38726 
falada -0.34227 -0.58571 0.047499 0.87497 0.8294 0.61645 -0.48234 0.44138 -0.072667 0.13112 0.31423 0.039045 0.0036781 -0.29618 -0.47344 
devem 0.64187 0.35234 -0.17953 1.1819 -0.81581 0.24517 0.19162 -0.0044268 -0.70705 0.17335 0.016097 -0.3229 -0.24542 0.57583 0.67786 
importantes 0.36767 -0.032793 -0.24334 0.16429 -0.43092 0.70328 -0.1045 -0.39269 -0.017205 0.18019 -0.33016 -0.077855 -0.47666 0.18511 -0.31552 
territórios 0.088075 0.076751 0.15457 0.54133 -0.28311 0.52132 -0.16642 0.26192 0.24483 0.86966 -0.24764 -0.11077 -0.95998 -0.73979 -0.30794 
seria -0.28295 -0.094055 0.24169 0.38894 -0.50204 0.15983 0.37754 0.32436 0.07702 0.11098 0.32164 -0.58396 0.21741 0.1196 -0.29608 
existe 0.17164 -0.14098 -0.046819 0.79699 -0.17951 0.37197 0.12118 0.35475 -0.18355 0.01518 0.22659 -0.18378 0.14025 0.47123 -0.056229 
tenha -0.25565 -0.25622 0.27216 0.89085 -0.41192 0.027205 0.49167 0.30402 0.030234 0.33421 0.13377 -0.55449 0.039195 0.41209 0.15935 
pesquisa 0.011137 -0.045062 -0.30914 0.046845 -0.32942 0.19991 0.2509 -0.24798 -0.17997 -0.022611 0.51261 -0.38888 -0.47612 0.94 0.10192 
disso 0.12222 -0.037152 0.19478 0.57309 -0.41967 0.34222 0.041504 -0.053996 -0.16505 0.13214 0.17626 -0.1359 -0.34795 0.23685 -0.19077 
ásia -0.059222 -0.28212 -0.6997 0.16515 0.1844 0.41802 -0.16924 0.16786 0.54547 0.70947 -0.10283 0.20704 -0.85829 0.024816 -0.97878 
desta -0.058246 -0.088674 -0.19431 0.42754 -0.3085 0.29203 0.19304 0.24688 -0.040872 0.20474 0.065173 -0.46837 -0.040246 0.21319 -0.19752 
constituição -0.063275 0.32169 0.50036 0.090021 0.025945 0.60143 -0.011362 0.66088 0.54538 0.1561 0.38004 -0.48959 -0.70444 0.10777 0.23476 
ela -0.16996 -0.054996 0.31912 0.57383 -0.49881 0.066483 0.52603 0.25816 -0.14374 0.016029 0.28123 -0.52615 0.1037 0.33781 0.00038399 
vale 0.38899 -0.15178 0.25366 0.021847 -0.18057 0.41917 0.19475 0.022449 0.2594 0.44992 -0.14559 0.088886 0.48315 0.44851 -0.67067 
quanto 0.1865 -0.076517 0.052908 0.73817 -0.14086 0.44119 -0.082266 -0.0027056 -0.4072 -0.071467 -0.11369 -0.35759 -0.19306 0.38177 -0.084291 
possível 0.18373 -0.033208 -0.11291 0.82723 -0.49903 0.1879 0.3725 0.29102 -0.20611 0.19762 0.063799 -0.20502 0.16777 0.53681 0.10684 
dias -0.060152 0.18248 0.67644 0.17488 -0.45631 0.26564 0.42384 -0.0087557 -0.23392 0.54918 0.24371 0.12192 0.046335 -0.10069 -0.43854 
lei -0.0741 0.49427 0.35935 0.15735 0.031048 0.60495 -0.021687 0.077685 0.42941 -0.0096386 0.32559 -0.41916 -0.59299 0.42905 0.25404 
data -0.15167 0.53069 -0.40168 0.043521 0.03492 -0.27979 0.53983 0.48461 -0.42495 0.6244 0.76541 -0.51407 -0.088683 -0.089835 -0.12132 
modo 0.038786 0.10381 -0.035565 0.98454 -0.3852 0.18796 0.14752 0.21854 -0.16838 -0.13897 0.022342 -0.22293 -0.016186 0.44816 -0.14724 
havia -0.34678 0.0076329 0.24525 0.42528 -0.17785 0.20758 0.37551 -0.064878 0.044563 0.36426 -0.08447 -0.16146 -0.22748 -0.050951 -0.36736 
1999 -0.073077 0.18819 0.23698 -0.45091 0.3474 -0.0074615 0.63682 0.47462 0.18235 -0.16605 0.41179 -0.1857 -0.83953 -0.22131 -0.18912 
alfabeto -0.36231 0.077034 -0.25505 1.2614 0.87388 0.81491 0.15165 0.3556 -0.11981 -0.44551 0.0020836 -0.10323 0.10139 -0.24397 0.2576 
diversos 0.26105 -0.11676 -0.23064 0.55232 -0.23635 0.77499 -0.15339 -0.43697 -0.35671 0.18385 -0.21563 -0.033501 -0.4618 0.058617 -0.054605 
el 1.2992 0.44515 0.43253 -0.67402 0.24992 0.74641 0.20013 0.26841 0.18367 -0.3387 0.13429 -0.17851 0.78976 -0.34522 -0.84741 
et 1.4042 0.098938 0.0031837 -0.24631 0.57692 0.36835 0.88479 -0.05507 -0.5755 -0.79342 -0.13636 -0.26265 0.41406 -1.0223 -0.49449 
canadá 0.45095 -0.42312 0.51729 0.031725 0.21096 0.40906 -0.42902 -0.022346 0.12892 0.47663 0.1094 -0.092594 -0.75071 -0.065799 -0.49249 
pedro -0.16602 0.15594 0.50869 -0.19908 -0.76161 0.45868 0.93288 -0.12906 0.62364 0.37498 0.73742 -0.19904 0.43207 -0.94194 -0.31341 
conteúdo 0.50498 -0.070762 -0.3518 0.64711 -0.66425 0.066911 0.36342 0.42935 -0.42745 0.26073 0.31866 -0.47061 0.028536 0.94017 0.70685 
faz 0.26305 -0.28272 -0.010469 0.61986 -0.049758 0.1651 0.075484 0.37521 0.23398 0.35034 0.28912 -0.16709 0.099068 0.3446 -0.27892 
h 0.39727 0.56174 0.027065 -0.41053 0.77453 0.45835 1.3911 0.58742 0.38712 -1.2569 0.38201 0.51046 -0.01692 -0.2051 -0.00049129 
ordem -0.22606 0.10856 0.0113 0.38545 -0.393 0.42313 0.28199 -0.076108 0.25298 -0.10167 0.23459 -0.11596 -0.21628 0.10083 -0.092977 
primeiros -0.34123 0.20338 -0.077849 0.45415 -0.38278 0.44005 0.1116 -0.42257 -0.29417 0.40862 -0.034067 -0.10587 -0.4543 -0.52082 -0.43084 
tornou-se -0.40262 -0.10555 0.21536 -0.056774 -0.19443 0.42408 0.043487 0.19627 0.56607 0.29788 0.13623 -0.73907 -0.46959 -0.1696 -0.467 
folha 0.21367 1.557 0.58884 -0.7587 0.1199 0.14529 0.25209 -0.090293 -0.41056 0.0021125 0.44482 -0.34661 0.18393 0.48467 -0.73296 
maria -0.090644 -0.03287 0.32972 -0.42994 -0.65273 0.62912 1.0376 -0.37738 0.19729 -0.22604 0.85069 0.24343 0.61351 -0.66404 -0.20129 
f 0.47743 0.69531 0.2773 -0.56898 0.85139 0.53318 1.218 0.41705 0.34567 -1.0869 0.59427 0.55132 -0.068142 -0.34034 -0.041903 
santa 0.32991 -0.2674 0.26368 -0.50718 -0.19603 0.86396 0.31725 -0.36156 0.39456 0.47806 0.50706 0.33383 0.85269 -0.28128 -0.74985 
taxa -0.97879 -0.099662 0.57052 0.11498 -0.048212 -0.027354 0.10713 0.075355 -0.27959 0.040155 -0.0081003 0.2556 -0.61872 1.1997 -1.0256 
dados -0.0020405 0.25881 -0.2414 0.12709 -0.15933 0.2591 0.076997 0.024003 -0.47265 0.19798 0.38292 0.085156 -0.43265 0.80345 -0.13926 
crescimento -0.66636 -0.07603 0.21929 -0.10537 -0.24196 0.28054 -0.0086659 0.28549 0.28365 0.0063533 -0.24387 -0.24716 -0.64218 0.92984 -0.88517 
r 0.25556 0.63073 0.080207 -0.27132 0.6744 0.19865 1.3992 0.40399 0.37238 -0.94842 0.13083 0.35093 -0.32991 -0.47628 -0.21858 
presença -0.214 -0.12874 -0.39579 0.47572 -0.087772 0.54715 -0.060195 0.073866 -0.0045547 0.28634 -0.079464 -0.28525 -0.21164 -0.068027 -0.52423 
[1] 0.068597 -0.10737 -0.12088 0.55888 0.32218 0.25492 0.028029 0.31374 -0.042366 0.23356 0.203 0.0015993 -0.10354 0.014622 -0.25526 
literatura -0.26247 -0.14788 -0.72579 0.06272 0.12516 0.74143 0.19226 -0.42682 -0.055518 -0.22831 0.27897 -0.56312 0.0063307 -0.059832 -0.2187 
público -0.11054 0.22336 0.1591 -0.19372 -0.17231 0.45585 0.11115 -0.23231 0.10745 0.13517 0.30352 -0.49693 -0.42699 0.78276 0.069949 
francisco 0.2162 0.26022 0.34575 -0.47104 -0.72264 0.61242 0.73755 -0.32791 0.35261 0.34506 0.83216 -0.017983 0.33123 -0.94077 -0.30486 
alemão 0.049652 -0.50101 0.48195 0.65671 0.84669 0.67509 -0.14058 -0.063602 0.01728 -0.13928 0.41188 0.046494 0.01646 -0.38335 0.14042 
«the 0.76922 -0.4545 0.18027 -0.8645 0.69367 -0.32054 1.5057 0.48173 -0.33262 -0.7653 0.19104 -0.26796 -0.93146 -0.24096 -0.071792 
rússia -0.21055 -0.39853 0.44443 0.16865 0.047444 0.38449 -0.14834 0.014328 0.40241 0.47014 0.0028032 -0.22291 -0.74958 -0.015491 -0.4428 
interior 0.46571 0.057998 -0.29751 0.46654 -0.050484 0.12499 -0.36392 -0.02765 0.31836 0.73442 0.38296 0.12574 0.18127 -0.069506 -1.5322 
europeus 0.038229 -0.044924 -0.015468 0.50091 -0.27372 0.39465 -0.24929 -0.3667 -0.38963 0.5439 -0.15591 -0.43395 -0.8274 -0.4615 -0.41953 
superior -0.37983 0.09522 0.132 0.23192 0.085755 0.41867 0.1215 -0.30192 0.32836 0.085459 0.24588 0.41965 -0.70548 0.95379 -0.30054 
referência -0.24489 0.24754 -0.97182 0.36995 0.030011 -0.098797 0.69202 0.46915 -0.11222 0.34419 0.55781 -0.097761 -0.13502 0.5036 0.010059 
xx -0.9385 0.12875 -0.47357 -0.021022 -0.044537 0.47713 0.19643 -0.27331 -0.028672 -0.00722 -0.12582 -0.71565 -0.1632 -0.3027 -0.74423 
continente 0.17087 -0.61384 0.0048415 0.49207 0.026485 0.42128 -0.37272 0.18771 0.34488 0.55537 -0.20437 -0.08575 -0.28417 0.023065 -0.84301 
unidas 0.47592 0.38417 0.25626 -0.25951 -0.18072 0.38194 -0.80436 0.63612 0.22196 -0.18161 0.66819 -1.0699 -1.4275 0.19067 -0.20059 
imigrantes -0.4505 -0.20976 0.3461 0.52235 0.029475 0.48059 -0.33729 -0.28276 -0.67366 0.47861 -0.19893 -0.061805 -0.66013 -0.35601 -0.63119 
passou -0.38134 0.034603 0.16152 0.10482 -0.29065 0.3308 0.12026 0.23755 0.38127 0.30518 0.17051 -0.51982 -0.215 -0.098727 -0.47968 
locais 0.23357 0.050563 0.058512 0.48151 -0.37037 0.78913 -0.18884 -0.31043 -0.261 0.25271 -0.37319 0.10481 -0.60998 -0.049802 -0.10614 
terras 0.31184 -0.17979 -0.046753 0.40438 -0.55114 0.49076 0.015071 0.20176 0.26234 0.61513 -0.60917 0.1438 -0.46748 -0.34827 -0.72443 
próprio -0.14086 -0.17268 0.12639 0.57753 -0.3144 0.29325 0.43792 0.13738 0.22598 0.058447 0.31765 -0.44607 0.12066 0.16369 0.1585 
romano -0.89576 0.27166 -0.34418 0.61716 0.24209 0.4879 0.64559 0.22224 0.65319 0.47208 -0.5395 -0.56766 -0.1144 -0.54657 -0.41453 
sociedade -0.17832 -0.11907 -0.2535 -0.01281 -0.30377 0.52499 0.094689 -0.3044 0.069561 -0.1253 0.001504 -0.47757 -0.43983 0.19754 -0.27786 
partes 0.27894 -0.12807 -0.023443 0.51853 -0.052526 0.61684 -0.32567 0.21829 0.075753 0.43135 -0.34329 -0.046413 -0.37263 -0.046392 -0.35692 
latina 0.34957 -0.43955 -0.26949 0.13503 0.31939 0.69227 -0.42209 -0.10601 0.17717 0.11874 0.080349 -0.222 -0.34941 0.36493 -0.53691 
porque 0.094619 -0.018934 0.1531 0.78387 -0.48541 0.219 0.21347 0.2535 -0.085239 0.19195 0.030832 -0.4307 0.21624 0.26882 -0.064873 
verde 0.53564 -0.50199 0.44771 0.17307 -0.42976 0.58953 -0.6355 0.85042 0.0084199 0.23171 1.2525 0.17484 0.0087879 -0.66555 -0.56445 
ministério 0.10554 0.32959 0.29337 -0.53311 0.067274 0.71091 -0.06321 -0.31452 0.40202 -0.14398 0.127 -0.70078 -0.80076 0.62611 0.28943 
cs1 1.3242 0.94934 -1.903 -0.47845 1.302 -0.11113 0.38942 0.31768 -1.6292 1.6854 0.87584 0.047361 -0.93375 -0.76532 0.094879 
academia -0.023482 0.49737 -0.66223 -0.61673 0.052935 1.2511 0.3124 -0.054403 0.43593 -0.2461 0.64426 -0.18752 -0.078372 -0.10052 0.24025 
moçambique 0.087283 -0.2627 0.23513 0.070252 -0.25198 0.63405 -0.47756 0.51427 0.096323 0.70632 0.55111 -0.21327 -0.40477 -0.66605 -0.30826 
v -0.21825 0.68787 -0.31286 -0.049829 0.31198 0.3796 0.95607 0.51356 0.57659 -0.24669 0.061046 -0.16118 -0.085081 -0.68907 -0.30982 
novas 0.28596 0.35132 -0.22829 0.24249 -0.50583 0.5276 0.052524 0.07887 -0.20309 0.22096 -0.36713 -0.088898 -0.62427 0.13901 -0.045594 
escolas 0.053853 0.18368 0.16887 0.27485 -0.025087 0.9339 -0.26744 -0.44672 -0.23222 -0.030491 0.17547 0.35706 -0.81213 0.47661 0.28137 
características 0.37639 -0.032356 -0.39242 0.85023 0.027769 0.75425 -0.29584 -0.22163 -0.27835 -0.3378 -0.18554 0.14188 -0.086485 0.29771 -0.48541 
diversas 0.36292 0.12894 -0.35075 0.50109 -0.25823 0.78612 -0.17718 -0.2321 -0.25617 0.18623 -0.37861 -0.017983 -0.56322 0.087252 -0.15357 
manut: 1.402 1.2362 -2.3912 -0.36049 1.262 -0.39411 0.12832 0.3391 -1.6909 2.4008 1.2254 -0.54459 -1.1006 -0.85274 0.13217 
construção 0.3024 0.091052 -0.18337 -0.15519 -0.56752 0.45153 0.068439 -0.080584 0.236 0.15803 0.12402 -0.37035 -0.21513 0.47751 -0.40581 
catalão 0.6381 -0.44162 -0.93025 0.83334 1.4762 1.5899 -0.35225 0.43553 0.64638 -0.0027051 -0.21942 0.12898 0.22943 -0.40202 0.10027 
árabe -0.39189 -0.30801 -0.31033 1.0377 0.7356 0.69484 -0.0060128 0.054642 -0.2375 -0.015398 0.022429 -0.14161 0.1449 -0.28976 -0.13239 
john 0.49853 -0.12118 -0.012079 -0.59449 0.12778 -0.026332 1.5869 0.10202 0.176 -0.60966 0.28166 0.14906 -0.76587 -0.71097 -0.042956 
ibérica -0.47232 -0.0063582 -1.124 0.79724 0.29054 0.68843 0.16014 0.40009 0.2918 0.88936 -0.81187 -0.48115 0.071832 -0.71138 -0.80232 
considerado -0.20466 -0.40874 0.10566 0.36424 -0.15314 0.37689 0.12077 0.043936 0.052545 -0.019526 0.25939 -0.46128 0.089695 0.25581 -0.11131 
melhor 0.11306 -0.25406 0.12877 0.29788 -0.55308 0.041373 0.35592 -0.15912 -0.12671 0.10064 0.57401 -0.54275 0.098418 0.52916 -0.092 
forças 0.27272 0.55463 0.5754 0.22601 -0.39735 0.64373 -0.035737 0.011493 0.36222 0.21509 -0.62308 -0.50523 -0.95106 -0.58665 -0.25049 
eu 0.68277 -0.041473 0.47722 0.33429 -0.21396 -0.58327 0.90614 0.823 -0.49146 0.080404 0.34569 -0.50119 0.45423 0.36697 0.014728 
deste -0.08081 -0.15703 -0.019103 0.46354 -0.30193 0.35578 0.22858 0.28108 -0.00302 0.17734 0.030851 -0.291 -0.044103 0.18861 -0.22638 
escravos -0.09821 0.011571 0.084877 0.39667 -0.765 0.32226 -0.13347 -0.38431 -0.16381 0.40276 -0.41991 -0.42097 -0.61373 -0.32842 -0.90923 
parlamento -0.10522 0.51455 1.1613 0.30232 0.062545 0.584 -0.14494 0.62396 0.72132 0.0021114 0.37539 -0.5925 -0.72116 -0.076029 0.46322 
única -0.10485 -0.24567 0.026693 0.55039 0.071817 0.43596 -0.082949 0.37727 0.14105 0.19299 0.30797 -0.32373 -0.041547 0.096926 -0.17423 
regras 0.52776 0.59361 -0.19917 0.79562 -0.4687 0.68133 -0.12593 0.50124 -0.51692 -0.12556 0.023451 -0.21037 -0.077991 0.37319 0.54146 
informação 0.31948 -0.079158 -0.2932 0.46649 -0.61072 0.158 0.40945 0.11599 -0.32371 0.17743 0.31103 -0.41663 -0.024287 0.94052 0.31135 
estudos -0.042628 0.34071 -0.50551 -0.16174 -0.085017 0.76183 0.098192 -0.47401 -0.35557 -0.26929 0.38153 -0.0068768 -0.44833 0.17222 -0.03791 
forte -0.070854 -0.19798 -0.00077124 0.4115 -0.3341 0.49343 0.0495 0.17954 0.15449 -0.059029 -0.16716 -0.56783 -0.013938 0.038731 -0.65099 
novos 0.076004 0.16854 0.023983 0.39906 -0.66034 0.40197 0.012712 -0.088368 -0.40866 0.34139 -0.0812 -0.27041 -0.6927 0.16532 -0.0017702 
tipo 0.21588 -0.22425 0.0032194 0.81641 -0.48794 0.15636 0.27953 0.065333 -0.19919 0.13201 0.039684 -0.23422 0.11955 0.81632 -0.080154 
vista 0.1208 -0.38554 -0.17798 0.44792 -0.20773 0.44521 0.013086 0.12481 -0.074388 0.19776 0.15862 -0.69574 0.43389 0.3749 -0.22875 
distrito 0.23783 -0.031617 0.48188 -0.10304 0.43294 0.93586 -0.22875 0.019901 0.96605 0.46807 0.39255 0.50358 -0.14481 0.61379 -0.37921 
camões -0.07731 -0.0088764 -0.41938 -0.2339 -0.40685 0.52434 0.79935 -0.6023 -0.024273 -0.13577 0.84009 -0.40379 0.51648 -0.32191 -0.0018658 
título -0.027982 0.12191 0.06217 0.56539 -0.23311 -0.023758 0.60713 0.34948 0.17634 0.36164 0.71851 -0.27649 0.34511 0.12596 0.10269 
povo -0.37432 -0.22513 0.13753 0.3877 0.099368 0.40893 0.17395 0.043784 0.061148 0.24456 0.1173 -0.49887 -0.061681 -0.22855 -0.24705 
chamado -0.12918 -0.22926 0.20009 0.41039 -0.012264 0.36052 0.24754 0.095629 0.18172 0.079944 0.27873 -0.32416 0.1474 -0.091847 -0.33313 
del 1.3597 0.37152 0.096541 -0.76297 0.22896 0.91128 0.33879 0.21849 0.33396 -0.4758 -0.065148 0.01111 0.57756 -0.27812 -0.82796 
conjunto 0.25891 -0.01565 -0.29478 0.55897 -0.021872 0.51865 -0.18199 0.032929 0.021949 -0.01175 0.044005 -0.14065 -0.38878 0.35122 -0.016408 
obras 0.10047 0.21525 -0.65899 0.24965 -0.44568 0.74889 0.25156 -0.56757 -0.37377 -0.21784 0.13928 -0.19897 -0.14856 0.099692 0.051971 
único -0.15745 -0.17689 0.5552 0.42361 -0.051792 0.28524 -0.010805 0.1423 0.42612 0.13422 0.30678 -0.32406 -0.17532 0.30078 -0.21208 
brasileiros 0.050958 0.089592 0.18332 0.42033 0.018873 0.58792 -0.31416 -0.65228 -0.71812 0.17512 0.43294 0.22885 -0.45854 -0.21203 -0.41794 
morte -0.48483 0.46062 0.61599 0.13074 -0.63339 0.11015 0.82878 -0.01439 0.21901 0.35918 0.10419 -0.3862 0.015636 -0.27231 -0.3151 
posição -0.16736 0.16135 0.14416 0.42035 -0.20707 0.21576 0.092136 0.50867 0.28833 -0.029328 0.32939 -0.24792 -0.26903 0.3736 -0.45767 
médio -0.62402 -0.93903 -0.050315 0.71914 0.82011 0.47269 -0.017137 -0.50244 0.61151 0.32565 0.42758 0.065333 -0.56814 0.31291 -0.49702 
imperador -0.62046 0.39806 0.57055 0.46554 -0.36814 0.22106 1.0003 0.23272 0.805 0.049093 -0.05494 -0.52898 -0.095374 -0.60563 -0.23939 
ver 0.51905 0.11147 -0.14148 0.67272 -0.34291 -0.088559 0.33608 0.50057 -0.47951 0.28303 0.40995 -0.15981 -0.010459 0.2474 0.12292 
ouro 0.094062 -0.052706 0.013848 -0.039378 -0.70922 0.21053 0.2674 -0.36411 0.2477 0.36197 -0.027515 -0.14442 -0.15984 -0.01237 -1.2201 
assembleia -0.065111 0.64239 0.92369 0.11204 -0.13289 0.67886 -0.19751 0.38306 0.61558 0.11955 0.61955 -0.35018 -0.78001 0.05797 0.34231 
valor -0.17822 0.20892 0.012618 0.38796 -0.2211 -0.097892 0.3551 0.078451 -0.0053399 -0.0074815 0.48702 0.048664 -0.16808 0.81247 -0.57027 
espécie -0.68558 -0.69872 0.81674 1.1971 -0.54728 -0.12275 1.4404 -0.41233 0.61284 -1.4687 -1.7518 0.72685 -0.87887 -0.23335 -1.263 
real -0.1323 0.11066 0.0049958 -0.00060426 -0.26447 0.50388 0.4095 0.27065 0.37398 -0.039254 0.40889 -0.17997 -0.20999 -0.18264 -0.1122 
mercosul 0.74025 0.45105 0.43933 -0.3607 -0.032937 0.59437 -0.54098 0.56457 0.68233 0.066221 0.49986 -0.66589 -0.59666 0.38313 -0.020325 
antiga -0.32846 -0.12894 -0.32541 0.18992 0.19586 0.85621 0.15628 0.026469 0.33109 0.18125 -0.10871 -0.26491 0.040034 -0.26504 -0.43022 
fala -0.11283 -0.17806 0.15592 0.65349 0.31856 0.5631 0.040078 0.3076 -0.24015 -0.46932 0.54752 -0.024374 0.65665 0.042662 -0.45943 
international 0.87041 -0.63596 0.096404 -0.65988 0.76614 -0.66128 1.1481 0.55198 -0.62234 -0.42655 0.26008 -0.46141 -1.2744 0.058374 -0.31134 
oficiais 0.10914 0.10094 0.25457 0.55684 0.12167 0.85664 -0.4957 0.019114 -0.2539 -0.0084031 0.32237 -0.025643 -0.80554 -0.1208 0.36197 
começou -0.5243 0.015383 0.033474 -0.029177 -0.29831 0.27004 0.23361 0.14442 0.25238 0.23582 -0.039907 -0.83815 -0.17143 -0.099337 -0.62057 
estava -0.33553 -0.050747 0.33293 0.16109 -0.29279 0.27273 0.49561 0.19469 0.47913 0.4059 -0.035139 -0.30983 -0.054309 0.051555 -0.47087 
quem 0.070405 -0.16363 0.51237 0.68866 -0.5617 0.2053 0.61831 0.2488 -0.14127 0.083681 0.30174 -0.54723 0.38355 0.20265 0.27601 
neste -0.039856 0.04432 0.10437 0.58331 -0.36588 0.38004 0.16705 0.22701 -0.048938 0.2509 0.14298 -0.3749 0.20566 0.24931 -0.12489 
menor -0.2284 -0.29851 0.14054 0.53004 -0.06485 0.2329 -0.026434 0.1918 0.06547 0.33516 -0.0065295 0.24317 -0.1693 0.68771 -0.67207 
obra -0.10859 -0.0070451 -0.50491 0.2322 -0.36214 0.28325 0.51214 -0.10161 -0.01715 0.0076789 0.37091 -0.53424 0.41305 0.037376 -0.19098 
zona 0.21328 -0.34311 -0.082742 0.17783 0.0546 0.56633 -0.10632 0.32527 0.69219 0.51744 -0.15782 0.12651 -0.018688 0.2459 -1.0236 
membro 0.0849 -0.04645 0.53085 0.16707 -0.091819 0.17614 -0.39205 0.64074 0.53346 0.12336 0.81664 -0.72784 -0.66916 0.14371 -0.16168 
alto 0.10763 -0.59135 0.1845 0.24892 0.032007 0.32202 -0.0023964 -0.0054833 0.4193 0.061656 0.23976 0.11978 0.078675 0.66822 -0.85418 
revista 0.29677 0.41796 -0.39647 -0.55288 0.081035 0.58816 0.3179 -0.086617 -0.38849 -0.13753 0.73757 -0.30843 0.064194 0.032682 -0.15607 
galiza -0.5883 0.31266 -0.05626 0.31384 -0.12287 0.63393 0.58057 0.53571 0.89309 0.26207 -0.016491 -0.27046 0.012412 -0.66694 -0.18738 
usuários 0.43168 0.18974 0.17851 0.97385 -0.74629 -0.0016786 0.34141 -0.031002 -0.63892 0.61486 0.06465 -0.084749 -0.309 0.79252 0.53174 
água 0.31341 -0.26026 0.087454 0.11687 -0.50219 0.13814 0.33966 -0.37107 0.066442 0.32996 -0.34885 0.18425 0.052873 1.0698 -0.92478 
[2] -0.24432 -0.05529 0.0023656 0.44123 0.19237 0.27552 0.078718 0.15267 -0.077507 0.19405 0.19725 -0.061581 -0.20686 0.094578 -0.2753 
própria -0.11327 -0.05226 -0.10868 0.43268 -0.33854 0.42046 0.22465 0.19556 -0.017402 0.16442 0.15945 -0.47262 -0.025223 0.38955 0.16182 
fora 0.059003 -0.077209 0.19765 0.43842 -0.35462 0.34449 0.11752 0.23448 0.059343 0.42907 0.052829 -0.11608 -0.071091 -0.13003 -0.37425 
série 0.051168 0.42725 -0.19117 0.23911 -0.14731 0.56043 0.12396 -0.20501 0.032495 0.15825 -0.16713 -0.24 -0.448 -0.009748 -0.26425 
enciclopédia 0.26257 -0.0063144 -0.62973 0.11258 -0.35531 0.25841 0.62796 0.063746 -0.2775 -0.089569 0.59418 -0.41782 0.093264 0.66587 0.49099 
acesso 0.33815 0.057752 0.0316 0.17923 -0.36585 -0.046596 0.22851 -0.033856 -0.3142 0.58564 0.12975 -0.15186 -0.45727 0.80779 -0.038429 
italiano 0.077611 -0.67072 0.33443 0.71284 0.89041 0.80793 -0.055956 -0.28246 -0.019446 -0.20106 0.42105 0.032675 0.36547 -0.63868 -3.3432e-05 
civil -0.24137 0.39852 0.37643 -0.26813 -0.096895 0.23602 0.38178 0.25231 0.32852 0.050205 -0.24151 -0.70355 -0.62909 -0.047982 -0.16526 
castelhano 0.0076043 -0.022534 -0.14029 0.67681 0.31649 0.7525 -0.14095 0.35427 -0.10717 -0.34695 0.3459 -0.12911 0.33123 -0.40081 -0.14372 
espécies 0.13653 -0.27303 0.28889 0.90189 -0.26856 0.059713 0.40944 -0.5615 -0.22435 -0.13599 -1.0728 1.0043 -0.77295 0.3649 -1.2212 
econômica -0.0087495 0.0039098 -0.0091324 -0.31195 -0.33574 0.36154 -0.22461 0.27798 0.59083 -0.054814 -0.12762 -0.93231 -0.90432 0.80587 -0.66221 
chamada -0.12342 -0.1548 0.011567 0.37931 -0.12663 0.36913 0.18445 0.28529 0.26944 0.28492 0.1708 -0.30356 0.044947 -0.18332 -0.40861 
serviços 0.32262 -0.050345 0.24502 -0.13409 -0.60317 0.48685 -0.027509 -0.45906 0.055537 0.075781 -0.29322 0.045448 -1.0458 0.97528 -0.16853 
clima 0.49793 -0.75021 -0.15031 0.29991 -0.098335 0.24002 -0.22742 0.42981 0.3486 0.49247 -0.54409 0.093101 0.15668 0.67608 -1.4591 
incluem 0.44149 -0.17788 -0.15564 0.35138 -0.2804 0.6395 -0.026765 -0.58535 -0.25608 -0.06919 -0.13417 -0.011295 -0.65911 0.039563 -0.11123 
formação -0.050613 0.047981 -0.22413 0.33191 -0.1722 0.53805 -0.11407 0.038535 0.057139 -0.031034 0.072494 -0.43102 -0.20955 0.31205 -0.37916 
criar 0.28749 0.082907 -0.090082 0.69707 -0.82447 0.043222 0.32363 0.34097 -0.13878 0.56859 0.24713 -0.51436 -0.050053 0.49872 0.39852 
pib -0.96006 -0.33599 0.77766 -0.19996 0.30198 0.17693 0.1155 -0.18184 0.31413 0.071375 0.33574 0.46718 -0.98046 1.2047 -0.83452 
venezuela 0.79372 -0.44726 0.63564 -0.46123 0.24981 0.12596 -0.092055 0.16947 0.31823 0.17028 0.2773 -0.2153 -0.6852 0.036441 -0.38112 
linguística -0.083517 -0.0095031 -0.7274 0.26353 0.53126 0.94429 -0.19889 0.025309 0.002274 -0.19681 0.46828 -0.23795 0.065768 0.20532 -0.053509 
tarde -0.22506 -0.02785 0.1732 0.29614 -0.4714 0.20498 0.34143 0.096073 0.28547 0.45568 0.095088 -0.3433 -0.013558 -0.45008 -0.56853 
bastante -0.10097 -0.216 -0.072522 0.57335 -0.19896 0.44449 -0.010239 0.083691 -0.11201 -0.14378 -0.10516 -0.16786 0.01595 0.44753 -0.48797 
consoantes 0.43552 1.1156 -0.16237 1.4172 0.07009 0.53172 -0.10504 0.56306 -0.21904 -1.1109 0.02652 0.5361 -0.11794 0.18317 -0.43498 
curitiba 0.36106 -0.28316 0.0709 -0.98145 0.044122 0.65974 0.36373 -0.56269 0.10001 0.26324 0.79293 0.24836 0.38393 0.7402 -0.4726 
administração -0.12526 0.34208 0.15384 -0.033582 -0.036701 0.84051 -0.10855 0.22661 0.74258 0.13061 -0.10158 -0.56915 -0.70665 0.32273 0.047195 
militares 0.11225 0.39153 0.37969 0.16839 -0.62605 0.58083 0.016666 -0.24349 0.088264 0.27469 -0.52557 -0.3638 -1.0602 -0.16742 -0.22506 
conhecida -0.11751 -0.33445 -0.017684 0.19349 -0.088918 0.45283 0.12902 0.025326 0.34579 0.20258 0.26584 -0.40615 0.12236 -0.12527 -0.47112 
[carece 0.28869 -0.33124 -1.2437 0.49731 -0.078676 0.44021 0.37775 -0.96831 0.45279 0.44338 0.30705 0.11795 -0.18027 0.12874 -0.17799 
religião -0.99153 -0.33897 -0.13297 0.48142 0.22683 0.625 0.21285 -0.29964 -0.42895 0.043667 -0.030478 -0.49099 -0.3812 0.090751 0.081418 
tinham -0.29393 0.31435 0.26163 0.7405 -0.40373 0.19172 0.37097 -0.40579 -0.25478 0.3792 -0.31302 0.045566 -0.68543 -0.041497 -0.38461 
apoio 0.11545 0.23518 0.29081 0.15545 -0.67083 0.37618 0.14063 -0.025942 0.32882 0.28937 0.13174 -0.64934 -0.48621 -0.080739 -0.024895 
itália -0.13336 -0.36002 0.18896 0.55184 0.34599 0.61765 -0.13854 0.03012 0.35968 0.65226 -0.039513 -0.1371 -0.45033 -0.72809 -0.3335 
metade -0.90641 0.095298 0.064627 0.29954 0.018463 0.26462 -0.0055994 -0.13042 0.14371 0.29906 -0.11106 -0.17827 -0.43363 0.16549 -0.92432 
brasília 0.10889 0.113 0.21206 -0.67584 0.24575 0.69285 0.043937 -0.43956 0.30733 0.30151 0.69455 0.0023136 0.005661 0.71662 -0.27576 
ciências 0.18921 0.67933 -0.94167 -0.62311 -0.21008 1.4344 -0.048067 -0.7996 0.085154 -0.31773 0.28041 -0.11349 -0.53488 0.40729 0.3244 
rede 0.13752 -0.081287 0.1604 -0.17185 -0.14272 0.39957 0.095999 -0.29143 0.21229 0.36539 0.069238 0.10009 -0.32978 0.91348 -0.62191 
inglaterra -0.1193 -0.14067 0.38177 0.26497 -0.30929 0.2601 0.15109 0.24746 0.51042 0.6406 0.075957 -0.37399 -0.55437 -0.56121 -0.35544 
expansão -0.51365 0.13733 -0.51544 0.057262 -0.29772 0.50606 0.21126 0.12526 0.62711 0.42463 -0.30659 -0.62111 -0.36422 0.033477 -0.63925 
filho -0.44368 0.074692 0.64067 0.15622 -0.68753 0.31104 1.0465 -0.0086353 0.39239 -0.16233 0.49946 -0.39959 0.62717 -0.51443 -0.13528 
mercado 0.11729 -0.21126 0.32689 -0.081757 -0.58613 0.21351 -0.19031 -0.049596 0.3724 0.172 0.13068 -0.54602 -0.62568 0.82 -0.65261 
gerais 0.37912 0.4075 0.038313 -0.39484 -0.24155 0.74174 -0.054285 -0.065723 0.15155 0.36447 -0.15769 0.20029 -0.046878 0.51987 -0.49984 
livro 0.094902 -0.10448 -0.31452 0.08434 -0.30903 0.11806 0.82053 -0.15208 -0.087213 0.017706 0.55735 -0.31582 0.19018 0.16146 0.17976 
fundação -0.11714 0.25116 -0.29286 -0.55913 -0.18425 0.68294 0.23947 -0.099909 0.40234 0.31577 0.41882 -0.44888 -0.20626 0.074639 0.056977 
homens -0.52017 0.15359 0.66841 0.47873 -0.54043 0.15601 0.44569 -0.41938 -0.51289 0.21708 -0.052225 0.243 -0.63573 -0.0064578 -0.32015 
somente -0.02111 0.11223 0.13433 0.59267 -0.082567 0.26473 0.085159 0.40674 -0.079623 0.16937 0.030127 -0.10873 -0.15443 0.26801 -0.30449 
francesa -0.096887 -0.33769 0.087676 0.25158 0.046428 0.53567 -0.12555 0.15645 0.39627 0.49992 0.19556 -0.36587 -0.44893 -0.53846 -0.46053 
vocabulário 0.052535 0.16317 -0.31739 0.41876 0.35929 0.98511 -0.30477 0.35339 -0.32212 -0.048789 0.61201 -0.11313 0.23391 0.083311 0.25104 
internacionais 0.4918 0.18774 0.17861 -0.062251 -0.58165 0.6444 -0.37116 -0.34992 -0.030598 0.063003 0.033584 -0.29759 -1.1443 0.355 -0.05819 
esses 0.31934 0.11754 0.0052064 0.92474 -0.47837 0.40131 -0.047396 0.02651 -0.48134 0.10728 -0.28359 -0.12481 -0.53679 0.0013864 -0.15296 
romana -0.88604 0.16726 -0.57385 0.22695 0.3218 0.67954 0.63665 0.18564 0.43834 0.22357 -0.5944 -0.55454 0.053101 -0.39659 -0.47849 
verbo 0.06771 0.24592 -0.27401 1.3249 -0.1322 -0.09863 0.16305 1.0205 0.029326 -1.0487 0.90059 -0.2789 0.62881 0.54667 -0.48816 
geografia -0.036825 0.73925 -1.0724 -0.58324 0.96967 1.111 -0.030527 -0.40207 0.4989 -0.099178 0.59743 0.51418 -0.27305 0.76706 -0.36614 
minas 0.49652 0.19794 0.088688 -0.6452 -0.33947 0.57696 0.098534 -0.1587 0.35737 0.58208 -0.35486 0.047131 0.43828 0.48039 -1.2 
portanto 0.084622 0.093757 -0.030505 0.75047 -0.23031 0.31887 0.11169 0.34107 -0.083872 0.093114 0.08191 -0.2622 -0.070542 0.29568 -0.084681 
[3] -0.0033777 -0.034503 0.023555 0.69666 0.2561 0.4502 -0.083311 -0.012499 -0.067447 -0.042955 0.24874 -0.015254 -0.18408 0.10807 -0.25486 
especial 0.22364 -0.01625 -0.19426 0.34004 -0.09192 0.41176 0.029851 0.32549 0.10675 0.18474 0.13081 -0.28074 -0.20349 0.43069 -0.11828 
† -0.42773 -1.1596 1.5316 1.4985 -0.63244 0.050001 1.669 -1.792 0.90698 -2.8226 -2.6907 1.3105 -1.409 -0.94717 -2.3056 
eleições 0.045513 0.88409 1.2792 -0.061312 -0.47736 0.63949 -0.083632 0.22749 0.14154 0.1406 -0.010057 -0.43101 -0.80112 -0.16851 0.13292 
ortografia 0.12572 0.26734 -0.4749 0.64993 0.21473 0.87382 -0.14619 0.54519 -0.14237 -0.21511 0.43949 -0.18501 0.039956 -0.09452 0.20191 
casa -0.32379 -0.1324 0.15181 -0.039139 -0.45252 0.40351 0.38943 -0.014804 0.23227 0.18699 0.64231 0.0012934 0.036883 -0.25165 -0.30911 
afonso -0.50955 0.49598 0.14333 0.1849 -0.66848 0.52991 1.2938 0.14694 1.0511 0.3187 0.11408 -0.11112 0.21732 -0.92125 -0.13155 
político -0.14382 0.15153 0.34039 0.24288 -0.20991 0.43277 0.24706 0.19627 0.59801 -0.065279 0.12982 -0.76398 -0.3387 0.22978 0.1332 
volta -0.44192 0.0803 0.057353 0.38782 -0.14332 0.20469 0.47815 -0.13797 0.22524 0.40123 -0.099873 -0.24815 -0.066689 -0.23131 -0.61249 
www 1.0187 0.58022 -0.020849 -1.0106 0.76815 0.28747 0.066788 -0.073692 -0.82473 -0.23423 0.61323 -0.62153 -0.12019 -0.060656 -0.35433 
produtos 0.68975 -0.23794 0.00020455 -0.18349 -1.1632 0.25175 -0.16114 -0.89639 -0.19947 0.12754 -0.424 -0.16553 -0.91732 0.75637 -0.93274 
católica -0.97964 -0.07193 -0.11698 -0.086609 0.14837 0.96655 0.56611 -0.28617 0.20392 0.22773 0.15272 -0.38378 -0.026027 -0.053859 0.21941 
arte -0.04901 -0.23625 -0.81512 -0.27378 -0.13727 0.75403 0.32236 -0.91136 -0.0080582 0.028861 0.1013 -0.49201 -0.047688 0.25296 -0.14712 
oriente -0.19253 -0.50977 -0.28356 0.31192 0.02032 0.4143 0.029995 -0.01918 0.68424 0.62241 -0.14584 -0.26366 -0.51546 -0.4531 -0.68454 
fronteira 0.35882 -0.42404 -0.072854 0.19265 0.25167 0.41221 -0.10085 0.54742 0.78577 0.9313 0.11348 0.073665 0.011059 -0.082109 -0.75679 
xvi -0.73076 0.16883 -0.67986 0.13905 -0.1074 0.47785 0.12229 -0.13359 0.11046 0.43305 -0.13993 -0.69041 0.021796 -0.86922 -1.0308 
carlos 0.12921 0.22106 0.42337 -0.39086 -0.45045 0.80463 0.80848 -0.19651 0.39441 -0.1239 0.65683 -0.044993 0.30935 -0.72824 -0.11513 
alta -0.073277 -0.21636 0.19208 0.17649 -0.14724 0.27165 0.16983 -0.15748 0.36261 0.043052 -0.054622 0.11213 -0.20177 0.98103 -0.7838 
aproximadamente -0.53054 -0.068728 0.4818 0.41342 0.32522 0.23983 0.18636 -0.019242 -0.14538 0.55798 -0.062415 0.81605 -0.49536 0.61837 -0.7762 
comercial 0.14518 -0.2389 -0.13523 -0.22533 -0.62576 0.30514 -0.044145 0.093387 0.54955 0.36752 -0.0046431 -0.59108 -0.44631 0.18392 -0.78244 
1998 0.13645 0.11836 0.10515 -0.63245 0.16146 0.037929 0.84313 0.19908 0.047701 -0.34925 0.43534 -0.084065 -0.65453 -0.17739 -0.23762 
colonial -0.42776 0.074954 -0.38379 -0.052213 -0.059023 0.42314 0.067224 0.25306 0.29133 0.28703 -0.036876 -0.7667 -0.53918 -0.42245 -0.51909 
biblioteca 0.35452 0.30408 -0.47224 -0.73159 0.005369 0.68399 0.4704 -0.34914 0.41843 0.17639 0.68187 -0.23063 -0.019007 0.45066 0.16963 
crioulo 0.59288 -1.0712 0.42474 0.72342 0.061417 0.79574 -0.52877 0.15641 -0.83608 0.16858 1.2734 0.085339 0.83195 -0.92953 -0.36411 
estudo -0.3099 -0.13276 -0.10879 0.042976 0.048874 0.42287 0.13807 -0.25035 -0.4105 -0.23848 0.39226 -0.21337 -0.19656 0.44504 -0.17413 
idiomas 0.087741 -0.11926 -0.1506 1.0421 0.49153 0.80838 -0.44968 -0.16032 -0.64024 -0.037478 0.0084972 0.20421 -0.48236 -0.21758 0.066325 
último -0.55937 0.040464 0.5548 0.32949 0.021581 0.20619 0.43588 0.29304 0.33985 0.18416 0.3075 -0.34138 0.061784 -0.0063314 -0.40815 
sociais 0.10696 0.35656 -0.40259 -0.095713 -0.4117 0.84926 -0.025182 -0.54402 -0.11343 -0.33176 -0.41983 -0.34418 -0.91732 0.33569 0.024768 
força -0.095577 -0.0492 0.61566 -0.036929 -0.4534 0.3111 0.26152 0.096663 0.51992 0.17124 -0.012668 -0.43437 -0.55405 0.20464 -0.43956 
significa -0.028026 -0.2096 0.042622 1.1094 0.027701 0.12944 0.41844 0.41751 -0.28176 -0.26312 0.30083 -0.3433 0.57163 0.30399 0.036457 
movimento -0.15028 -0.036145 0.26219 0.048999 -0.39295 0.40384 0.11391 0.053756 0.32212 0.028953 -0.087778 -0.70867 -0.30874 0.082183 -0.40715 
sobretudo 0.065655 -0.1765 -0.16059 0.40774 -0.25557 0.65877 -0.205 -0.26122 -0.13745 0.12797 -0.25326 -0.12789 -0.2437 0.027441 -0.59203 
exército -0.17933 0.16289 0.72792 0.23085 -0.26635 0.36278 0.38431 -0.028569 0.69018 0.30847 -0.30238 -0.53327 -0.54779 -0.35246 -0.29434 
global 0.31281 -0.39317 -0.14266 -0.43969 0.16288 -0.20869 0.62964 0.23862 -0.011606 -0.30067 0.089277 -0.32101 -0.84204 0.52771 -0.42469 
segurança 0.26973 0.34569 0.3434 -0.06614 -0.59963 0.45464 -0.36839 0.17903 0.57358 -0.052685 0.23685 -0.63969 -1.2003 0.6295 -0.010257 
geórgia -0.059848 -0.19681 0.32185 -0.21228 0.16872 0.55726 -0.21879 0.10375 0.21261 0.31714 0.041435 -0.29158 -0.78548 -0.084164 -0.21421 
uruguai 0.38407 -0.44316 0.61865 -0.12756 0.078621 0.48974 -0.53089 -0.035224 0.30913 0.46768 0.29766 -0.29483 -0.41521 0.093721 -0.61405 
humanos 0.46144 0.58424 -0.06343 0.42721 -0.50677 0.23599 -0.083635 -0.48921 -0.2606 -0.084895 -0.50264 -1.001 -0.97691 0.23918 -0.08332 
pública -0.2001 0.22954 0.20155 -0.26492 -0.31594 0.59372 0.070174 -0.24909 0.4299 -0.032078 0.13902 -0.47537 -0.76772 1.0091 -0.014923 
